<?xml version="1.0"?>
<opencv_storage>
<stage3>
  <maxWeakCount>11</maxWeakCount>
  <stageThreshold>-3.2239893078804016e-01</stageThreshold>
  <weakClassifiers>
    <_>
      <internalNodes>
        0 -1 31221 -3.6118831485509872e-04</internalNodes>
      <leafValues>
        -7.7627116441726685e-01 5.9003555774688721e-01</leafValues></_>
    <_>
      <internalNodes>
        0 -1 78113 3.8232414517551661e-03</internalNodes>
      <leafValues>
        -4.5374470949172974e-01 6.6502428054809570e-01</leafValues></_>
    <_>
      <internalNodes>
        0 -1 67769 3.7414953112602234e-04</internalNodes>
      <leafValues>
        2.7599084377288818e-01 -9.2040276527404785e-01</leafValues></_>
    <_>
      <internalNodes>
        0 -1 12218 -1.2832705397158861e-04</internalNodes>
      <leafValues>
        3.0095395445823669e-01 -6.8830418586730957e-01</leafValues></_>
    <_>
      <internalNodes>
        0 -1 70403 -1.9479544425848871e-04</internalNodes>
      <leafValues>
        -9.4435435533523560e-01 2.2105790674686432e-01</leafValues></_>
    <_>
      <internalNodes>
        0 -1 44982 2.1084845066070557e-02</internalNodes>
      <leafValues>
        -4.7713345289230347e-01 4.4095700979232788e-01</leafValues></_>
    <_>
      <internalNodes>
        0 -1 43072 -2.1252757869660854e-04</internalNodes>
      <leafValues>
        -9.6677863597869873e-01 1.9166687130928040e-01</leafValues></_>
    <_>
      <internalNodes>
        0 -1 20114 4.1923478420358151e-05</internalNodes>
      <leafValues>
        -5.3112649917602539e-01 3.0752310156822205e-01</leafValues></_>
    <_>
      <internalNodes>
        0 -1 44657 -6.5523709054104984e-05</internalNodes>
      <leafValues>
        -7.4524784088134766e-01 2.2238349914550781e-01</leafValues></_>
    <_>
      <internalNodes>
        0 -1 5695 -2.1348434966057539e-03</internalNodes>
      <leafValues>
        4.9039316177368164e-01 -4.2739504575729370e-01</leafValues></_>
    <_>
      <internalNodes>
        0 -1 25826 -6.4537714933976531e-04</internalNodes>
      <leafValues>
        -8.1796121597290039e-01 2.1312844753265381e-01</leafValues></_></weakClassifiers></stage3>
</opencv_storage>
