<?xml version="1.0"?>
<opencv_storage>
<cascade>
  <stageType>BOOST</stageType>
  <featureType>HAAR</featureType>
  <height>20</height>
  <width>20</width>
  <stageParams>
    <boostType>GAB</boostType>
    <minHitRate>9.9500000476837158e-01</minHitRate>
    <maxFalseAlarm>4.0000000596046448e-01</maxFalseAlarm>
    <weightTrimRate>9.4999999999999996e-01</weightTrimRate>
    <maxDepth>1</maxDepth>
    <maxWeakCount>100</maxWeakCount></stageParams>
  <featureParams>
    <maxCatCount>0</maxCatCount>
    <featSize>1</featSize>
    <mode>BASIC</mode></featureParams>
  <stageNum>13</stageNum>
  <stages>
    <!-- stage 0 -->
    <_>
      <maxWeakCount>7</maxWeakCount>
      <stageThreshold>-5.8101165294647217e-01</stageThreshold>
      <weakClassifiers>
        <_>
          <internalNodes>
            0 -1 126 -1.3084607198834419e-02</internalNodes>
          <leafValues>
            8.2887703180313110e-01 -3.7001898884773254e-01</leafValues></_>
        <_>
          <internalNodes>
            0 -1 163 -2.7455342933535576e-03</internalNodes>
          <leafValues>
            4.7609066963195801e-01 -5.7302451133728027e-01</leafValues></_>
        <_>
          <internalNodes>
            0 -1 90 -1.0588386794552207e-04</internalNodes>
          <leafValues>
            -8.6047512292861938e-01 2.5520610809326172e-01</leafValues></_>
        <_>
          <internalNodes>
            0 -1 6 -1.7376137897372246e-02</internalNodes>
          <leafValues>
            6.2347978353500366e-01 -3.7410545349121094e-01</leafValues></_>
        <_>
          <internalNodes>
            0 -1 127 4.2992480099201202e-02</internalNodes>
          <leafValues>
            -3.3060485124588013e-01 6.9175255298614502e-01</leafValues></_>
        <_>
          <internalNodes>
            0 -1 89 1.1292541399598122e-02</internalNodes>
          <leafValues>
            -3.7950977683067322e-01 5.7895636558532715e-01</leafValues></_>
        <_>
          <internalNodes>
            0 -1 85 5.1641894970089197e-04</internalNodes>
          <leafValues>
            2.3525445163249969e-01 -8.2132595777511597e-01</leafValues></_></weakClassifiers></_>
    <!-- stage 1 -->
    <_>
      <maxWeakCount>12</maxWeakCount>
      <stageThreshold>-9.6218734979629517e-01</stageThreshold>
      <weakClassifiers>
        <_>
          <internalNodes>
            0 -1 82 -2.5867724791169167e-02</internalNodes>
          <leafValues>
            7.3652696609497070e-01 -2.4546322226524353e-01</leafValues></_>
        <_>
          <internalNodes>
            0 -1 183 2.5299418484792113e-04</internalNodes>
          <leafValues>
            3.1139051914215088e-01 -7.3843520879745483e-01</leafValues></_>
        <_>
          <internalNodes>
            0 -1 29 1.0643992573022842e-02</internalNodes>
          <leafValues>
            -3.3510234951972961e-01 5.9514009952545166e-01</leafValues></_>
        <_>
          <internalNodes>
            0 -1 65 -2.1202117204666138e-04</internalNodes>
          <leafValues>
            -7.1943807601928711e-01 2.3267795145511627e-01</leafValues></_>
        <_>
          <internalNodes>
            0 -1 80 5.9895380400121212e-03</internalNodes>
          <leafValues>
            -2.8394427895545959e-01 5.5601346492767334e-01</leafValues></_>
        <_>
          <internalNodes>
            0 -1 105 9.8964318633079529e-02</internalNodes>
          <leafValues>
            -2.2054055333137512e-01 7.8966701030731201e-01</leafValues></_>
        <_>
          <internalNodes>
            0 -1 92 -1.6268045874312520e-04</internalNodes>
          <leafValues>
            -7.5802177190780640e-01 2.2505743801593781e-01</leafValues></_>
        <_>
          <internalNodes>
            0 -1 1 -1.1878146231174469e-01</internalNodes>
          <leafValues>
            5.3734236955642700e-01 -3.0887272953987122e-01</leafValues></_>
        <_>
          <internalNodes>
            0 -1 206 1.8442140426486731e-03</internalNodes>
          <leafValues>
            1.7538350820541382e-01 -8.4935969114303589e-01</leafValues></_>
        <_>
          <internalNodes>
            0 -1 43 3.2074716873466969e-03</internalNodes>
          <leafValues>
            -3.8337719440460205e-01 3.5071304440498352e-01</leafValues></_>
        <_>
          <internalNodes>
            0 -1 161 -1.4281941577792168e-02</internalNodes>
          <leafValues>
            5.2227866649627686e-01 -3.1459653377532959e-01</leafValues></_>
        <_>
          <internalNodes>
            0 -1 110 5.9627916198223829e-04</internalNodes>
          <leafValues>
            1.8520013988018036e-01 -7.2905170917510986e-01</leafValues></_></weakClassifiers></_>
    <!-- stage 2 -->
    <_>
      <maxWeakCount>12</maxWeakCount>
      <stageThreshold>-8.4006994962692261e-01</stageThreshold>
      <weakClassifiers>
        <_>
          <internalNodes>
            0 -1 221 1.2526059523224831e-02</internalNodes>
          <leafValues>
            -1.3833333551883698e-01 7.5259256362915039e-01</leafValues></_>
        <_>
          <internalNodes>
            0 -1 15 8.4405001252889633e-03</internalNodes>
          <leafValues>
            -4.4456395506858826e-01 4.3230676651000977e-01</leafValues></_>
        <_>
          <internalNodes>
            0 -1 11 -2.3836031556129456e-02</internalNodes>
          <leafValues>
            6.1987549066543579e-01 -2.3278126120567322e-01</leafValues></_>
        <_>
          <internalNodes>
            0 -1 109 -1.9705772865563631e-04</internalNodes>
          <leafValues>
            -8.1082451343536377e-01 2.0197579264640808e-01</leafValues></_>
        <_>
          <internalNodes>
            0 -1 169 1.0839834809303284e-02</internalNodes>
          <leafValues>
            1.2642481923103333e-01 -8.4973448514938354e-01</leafValues></_>
        <_>
          <internalNodes>
            0 -1 156 -3.2962039113044739e-02</internalNodes>
          <leafValues>
            -7.7055674791336060e-01 1.7248155176639557e-01</leafValues></_>
        <_>
          <internalNodes>
            0 -1 190 -2.2765171888750046e-04</internalNodes>
          <leafValues>
            2.0871528983116150e-01 -5.2103865146636963e-01</leafValues></_>
        <_>
          <internalNodes>
            0 -1 159 -1.3072846923023462e-03</internalNodes>
          <leafValues>
            -8.5920518636703491e-01 1.6863831877708435e-01</leafValues></_>
        <_>
          <internalNodes>
            0 -1 113 -2.0408479031175375e-03</internalNodes>
          <leafValues>
            3.5356095433235168e-01 -3.2585904002189636e-01</leafValues></_>
        <_>
          <internalNodes>
            0 -1 38 -1.0056820610770956e-04</internalNodes>
          <leafValues>
            -5.1146286725997925e-01 2.1516731381416321e-01</leafValues></_>
        <_>
          <internalNodes>
            0 -1 71 -4.9198828637599945e-03</internalNodes>
          <leafValues>
            5.2961796522140503e-01 -2.6601088047027588e-01</leafValues></_>
        <_>
          <internalNodes>
            0 -1 131 -4.8725714441388845e-04</internalNodes>
          <leafValues>
            3.0311799049377441e-01 -4.9242940545082092e-01</leafValues></_></weakClassifiers></_>
    <!-- stage 3 -->
    <_>
      <maxWeakCount>14</maxWeakCount>
      <stageThreshold>-7.4086570739746094e-01</stageThreshold>
      <weakClassifiers>
        <_>
          <internalNodes>
            0 -1 3 -6.5138265490531921e-02</internalNodes>
          <leafValues>
            7.1940296888351440e-01 -9.4214878976345062e-02</leafValues></_>
        <_>
          <internalNodes>
            0 -1 83 -9.1914031654596329e-03</internalNodes>
          <leafValues>
            5.6824225187301636e-01 -2.4623608589172363e-01</leafValues></_>
        <_>
          <internalNodes>
            0 -1 170 6.7227496765553951e-04</internalNodes>
          <leafValues>
            -5.2344030141830444e-01 2.8133636713027954e-01</leafValues></_>
        <_>
          <internalNodes>
            0 -1 179 5.8837840333580971e-03</internalNodes>
          <leafValues>
            1.4450179040431976e-01 -7.9698079824447632e-01</leafValues></_>
        <_>
          <internalNodes>
            0 -1 96 4.2814845219254494e-03</internalNodes>
          <leafValues>
            -3.4340983629226685e-01 3.6076661944389343e-01</leafValues></_>
        <_>
          <internalNodes>
            0 -1 67 3.4120850614272058e-04</internalNodes>
          <leafValues>
            1.2484315782785416e-01 -7.4297100305557251e-01</leafValues></_>
        <_>
          <internalNodes>
            0 -1 132 -2.8785172617062926e-04</internalNodes>
          <leafValues>
            -7.9755187034606934e-01 1.1522481590509415e-01</leafValues></_>
        <_>
          <internalNodes>
            0 -1 111 1.0857242159545422e-03</internalNodes>
          <leafValues>
            2.3323732614517212e-01 -5.1468312740325928e-01</leafValues></_>
        <_>
          <internalNodes>
            0 -1 104 7.7718555927276611e-02</internalNodes>
          <leafValues>
            -2.4304512143135071e-01 6.3552331924438477e-01</leafValues></_>
        <_>
          <internalNodes>
            0 -1 102 4.4058761559426785e-03</internalNodes>
          <leafValues>
            -2.1907202899456024e-01 4.8678812384605408e-01</leafValues></_>
        <_>
          <internalNodes>
            0 -1 36 1.8504683976061642e-04</internalNodes>
          <leafValues>
            1.8627513945102692e-01 -5.5459243059158325e-01</leafValues></_>
        <_>
          <internalNodes>
            0 -1 13 -8.1236604601144791e-03</internalNodes>
          <leafValues>
            3.0150398612022400e-01 -3.5930231213569641e-01</leafValues></_>
        <_>
          <internalNodes>
            0 -1 164 -1.4859613962471485e-02</internalNodes>
          <leafValues>
            -8.4546381235122681e-01 1.3325548171997070e-01</leafValues></_>
        <_>
          <internalNodes>
            0 -1 185 9.2746061272919178e-04</internalNodes>
          <leafValues>
            -1.8242439627647400e-01 6.3376712799072266e-01</leafValues></_></weakClassifiers></_>
    <!-- stage 4 -->
    <_>
      <maxWeakCount>17</maxWeakCount>
      <stageThreshold>-8.1328910589218140e-01</stageThreshold>
      <weakClassifiers>
        <_>
          <internalNodes>
            0 -1 125 -2.7342163957655430e-03</internalNodes>
          <leafValues>
            6.8104040622711182e-01 -1.3314968347549438e-01</leafValues></_>
        <_>
          <internalNodes>
            0 -1 73 2.5769424973987043e-04</internalNodes>
          <leafValues>
            -4.1971516609191895e-01 3.7340873479843140e-01</leafValues></_>
        <_>
          <internalNodes>
            0 -1 222 2.5297746062278748e-02</internalNodes>
          <leafValues>
            -2.2356325387954712e-01 4.9384033679962158e-01</leafValues></_>
        <_>
          <internalNodes>
            0 -1 162 -1.8465133616700768e-03</internalNodes>
          <leafValues>
            5.0898158550262451e-01 -2.0802733302116394e-01</leafValues></_>
        <_>
          <internalNodes>
            0 -1 158 -8.2135724369436502e-05</internalNodes>
          <leafValues>
            -7.4370265007019043e-01 1.4285966753959656e-01</leafValues></_>
        <_>
          <internalNodes>
            0 -1 63 1.7652929818723351e-04</internalNodes>
          <leafValues>
            1.7491327226161957e-01 -5.6511270999908447e-01</leafValues></_>
        <_>
          <internalNodes>
            0 -1 103 3.7737889215350151e-03</internalNodes>
          <leafValues>
            -1.7744275927543640e-01 6.4723515510559082e-01</leafValues></_>
        <_>
          <internalNodes>
            0 -1 7 -1.5272442251443863e-02</internalNodes>
          <leafValues>
            4.0704825520515442e-01 -2.7473992109298706e-01</leafValues></_>
        <_>
          <internalNodes>
            0 -1 136 1.7024744302034378e-03</internalNodes>
          <leafValues>
            -1.9991539418697357e-01 4.7268739342689514e-01</leafValues></_>
        <_>
          <internalNodes>
            0 -1 48 3.0786938965320587e-02</internalNodes>
          <leafValues>
            1.2777779996395111e-01 -8.0215847492218018e-01</leafValues></_>
        <_>
          <internalNodes>
            0 -1 112 -8.4027618868276477e-04</internalNodes>
          <leafValues>
            -6.4926862716674805e-01 1.6015392541885376e-01</leafValues></_>
        <_>
          <internalNodes>
            0 -1 160 -4.6995986485853791e-04</internalNodes>
          <leafValues>
            3.4298521280288696e-01 -3.3212849497795105e-01</leafValues></_>
        <_>
          <internalNodes>
            0 -1 215 -6.4783385023474693e-03</internalNodes>
          <leafValues>
            4.8096835613250732e-01 -2.3414616286754608e-01</leafValues></_>
        <_>
          <internalNodes>
            0 -1 220 -7.7753968071192503e-04</internalNodes>
          <leafValues>
            -5.9226793050765991e-01 2.0146404206752777e-01</leafValues></_>
        <_>
          <internalNodes>
            0 -1 195 4.4213031651452184e-04</internalNodes>
          <leafValues>
            -2.4823707342147827e-01 4.3666872382164001e-01</leafValues></_>
        <_>
          <internalNodes>
            0 -1 45 1.0584614239633083e-02</internalNodes>
          <leafValues>
            1.7586843669414520e-01 -6.0743242502212524e-01</leafValues></_>
        <_>
          <internalNodes>
            0 -1 39 7.6067750342190266e-04</internalNodes>
          <leafValues>
            1.4366139471530914e-01 -6.3020724058151245e-01</leafValues></_></weakClassifiers></_>
    <!-- stage 5 -->
    <_>
      <maxWeakCount>17</maxWeakCount>
      <stageThreshold>-8.5417199134826660e-01</stageThreshold>
      <weakClassifiers>
        <_>
          <internalNodes>
            0 -1 157 -3.0389046296477318e-03</internalNodes>
          <leafValues>
            5.5450236797332764e-01 -3.1182795763015747e-01</leafValues></_>
        <_>
          <internalNodes>
            0 -1 224 1.0287653654813766e-02</internalNodes>
          <leafValues>
            -2.4420985579490662e-01 5.5049520730972290e-01</leafValues></_>
        <_>
          <internalNodes>
            0 -1 12 -2.2812349721789360e-02</internalNodes>
          <leafValues>
            4.5980820059776306e-01 -2.6058167219161987e-01</leafValues></_>
        <_>
          <internalNodes>
            0 -1 145 -1.7044275300577283e-03</internalNodes>
          <leafValues>
            -6.0348623991012573e-01 2.1060869097709656e-01</leafValues></_>
        <_>
          <internalNodes>
            0 -1 114 -7.9834033385850489e-05</internalNodes>
          <leafValues>
            -7.0946407318115234e-01 1.4879982173442841e-01</leafValues></_>
        <_>
          <internalNodes>
            0 -1 90 -8.9346067397855222e-05</internalNodes>
          <leafValues>
            -8.5013437271118164e-01 1.1005843430757523e-01</leafValues></_>
        <_>
          <internalNodes>
            0 -1 9 1.1756528168916702e-02</internalNodes>
          <leafValues>
            -2.4114547669887543e-01 6.2104755640029907e-01</leafValues></_>
        <_>
          <internalNodes>
            0 -1 91 5.6917549954960123e-05</internalNodes>
          <leafValues>
            -2.9485726356506348e-01 3.9540657401084900e-01</leafValues></_>
        <_>
          <internalNodes>
            0 -1 84 -9.7733412985689938e-05</internalNodes>
          <leafValues>
            -5.2139282226562500e-01 1.8774254620075226e-01</leafValues></_>
        <_>
          <internalNodes>
            0 -1 5 -2.0455166697502136e-02</internalNodes>
          <leafValues>
            3.2508406043052673e-01 -2.9576212167739868e-01</leafValues></_>
        <_>
          <internalNodes>
            0 -1 143 -6.2766812334302813e-05</internalNodes>
          <leafValues>
            2.3477813601493835e-01 -4.2227366566658020e-01</leafValues></_>
        <_>
          <internalNodes>
            0 -1 98 -1.0455729439854622e-02</internalNodes>
          <leafValues>
            -5.9138560295104980e-01 1.5331715345382690e-01</leafValues></_>
        <_>
          <internalNodes>
            0 -1 167 8.5792168974876404e-03</internalNodes>
          <leafValues>
            -2.2107756137847900e-01 3.8012772798538208e-01</leafValues></_>
        <_>
          <internalNodes>
            0 -1 88 -2.7754874899983406e-03</internalNodes>
          <leafValues>
            3.3810040354728699e-01 -2.5901940464973450e-01</leafValues></_>
        <_>
          <internalNodes>
            0 -1 115 -1.5182427596300840e-03</internalNodes>
          <leafValues>
            4.3792074918746948e-01 -2.3759555816650391e-01</leafValues></_>
        <_>
          <internalNodes>
            0 -1 44 -3.3477693796157837e-02</internalNodes>
          <leafValues>
            -7.7946323156356812e-01 1.2236345559358597e-01</leafValues></_>
        <_>
          <internalNodes>
            0 -1 55 -1.0893089347518981e-04</internalNodes>
          <leafValues>
            -4.6649819612503052e-01 1.8636430799961090e-01</leafValues></_></weakClassifiers></_>
    <!-- stage 6 -->
    <_>
      <maxWeakCount>17</maxWeakCount>
      <stageThreshold>-7.5294309854507446e-01</stageThreshold>
      <weakClassifiers>
        <_>
          <internalNodes>
            0 -1 189 -6.5710810304153711e-05</internalNodes>
          <leafValues>
            -3.5714286565780640e-01 5.1536172628402710e-01</leafValues></_>
        <_>
          <internalNodes>
            0 -1 58 -8.9914053678512573e-03</internalNodes>
          <leafValues>
            5.9087842702865601e-01 -2.3069289326667786e-01</leafValues></_>
        <_>
          <internalNodes>
            0 -1 128 -2.2666978184133768e-03</internalNodes>
          <leafValues>
            3.3544504642486572e-01 -3.3601650595664978e-01</leafValues></_>
        <_>
          <internalNodes>
            0 -1 69 -6.8038905737921596e-05</internalNodes>
          <leafValues>
            -5.2979677915573120e-01 1.8548865616321564e-01</leafValues></_>
        <_>
          <internalNodes>
            0 -1 86 -2.5154030881822109e-03</internalNodes>
          <leafValues>
            -7.6822596788406372e-01 1.2291265279054642e-01</leafValues></_>
        <_>
          <internalNodes>
            0 -1 119 3.4697395749390125e-03</internalNodes>
          <leafValues>
            1.0017907619476318e-01 -8.2142317295074463e-01</leafValues></_>
        <_>
          <internalNodes>
            0 -1 120 1.3630611356347799e-03</internalNodes>
          <leafValues>
            -3.5297933220863342e-01 2.6684072613716125e-01</leafValues></_>
        <_>
          <internalNodes>
            0 -1 53 -8.7851396529003978e-05</internalNodes>
          <leafValues>
            -5.7755821943283081e-01 1.6082552075386047e-01</leafValues></_>
        <_>
          <internalNodes>
            0 -1 46 -4.9630890134721994e-04</internalNodes>
          <leafValues>
            3.3022069931030273e-01 -2.9830417037010193e-01</leafValues></_>
        <_>
          <internalNodes>
            0 -1 213 2.0104181021451950e-03</internalNodes>
          <leafValues>
            1.2070592492818832e-01 -7.8752619028091431e-01</leafValues></_>
        <_>
          <internalNodes>
            0 -1 31 5.8095671236515045e-02</internalNodes>
          <leafValues>
            9.3434430658817291e-02 -7.8985208272933960e-01</leafValues></_>
        <_>
          <internalNodes>
            0 -1 214 1.6411896795034409e-03</internalNodes>
          <leafValues>
            9.7829073667526245e-02 -7.5246995687484741e-01</leafValues></_>
        <_>
          <internalNodes>
            0 -1 186 1.3631026376970112e-04</internalNodes>
          <leafValues>
            -3.3688172698020935e-01 2.9734572768211365e-01</leafValues></_>
        <_>
          <internalNodes>
            0 -1 54 7.4319104896858335e-05</internalNodes>
          <leafValues>
            -3.6182248592376709e-01 2.7899625897407532e-01</leafValues></_>
        <_>
          <internalNodes>
            0 -1 141 1.0383643675595522e-03</internalNodes>
          <leafValues>
            -1.7767807841300964e-01 6.0482722520828247e-01</leafValues></_>
        <_>
          <internalNodes>
            0 -1 119 -5.6572007015347481e-03</internalNodes>
          <leafValues>
            -6.8038243055343628e-01 1.5356412529945374e-01</leafValues></_>
        <_>
          <internalNodes>
            0 -1 70 -4.4087599962949753e-03</internalNodes>
          <leafValues>
            -8.2096987962722778e-01 7.8934483230113983e-02</leafValues></_></weakClassifiers></_>
    <!-- stage 7 -->
    <_>
      <maxWeakCount>21</maxWeakCount>
      <stageThreshold>-8.4167373180389404e-01</stageThreshold>
      <weakClassifiers>
        <_>
          <internalNodes>
            0 -1 42 1.6302995209116489e-04</internalNodes>
          <leafValues>
            -1.4162161946296692e-01 6.0369229316711426e-01</leafValues></_>
        <_>
          <internalNodes>
            0 -1 125 -7.7872620895504951e-03</internalNodes>
          <leafValues>
            5.2401220798492432e-01 -1.9887112081050873e-01</leafValues></_>
        <_>
          <internalNodes>
            0 -1 155 -6.9980022090021521e-05</internalNodes>
          <leafValues>
            2.1699079871177673e-01 -5.1312553882598877e-01</leafValues></_>
        <_>
          <internalNodes>
            0 -1 219 3.2706037163734436e-02</internalNodes>
          <leafValues>
            -1.9947482645511627e-01 4.7101515531539917e-01</leafValues></_>
        <_>
          <internalNodes>
            0 -1 201 -3.2154039945453405e-04</internalNodes>
          <leafValues>
            2.6095896959304810e-01 -3.7691265344619751e-01</leafValues></_>
        <_>
          <internalNodes>
            0 -1 216 3.0914731323719025e-03</internalNodes>
          <leafValues>
            -1.9656161963939667e-01 4.1699260473251343e-01</leafValues></_>
        <_>
          <internalNodes>
            0 -1 75 3.4919739700853825e-03</internalNodes>
          <leafValues>
            -1.3277302682399750e-01 5.9399211406707764e-01</leafValues></_>
        <_>
          <internalNodes>
            0 -1 66 -1.7265431233681738e-04</internalNodes>
          <leafValues>
            -5.7521897554397583e-01 1.7530870437622070e-01</leafValues></_>
        <_>
          <internalNodes>
            0 -1 66 1.4121844433248043e-03</internalNodes>
          <leafValues>
            8.1776939332485199e-02 -7.6907086372375488e-01</leafValues></_>
        <_>
          <internalNodes>
            0 -1 78 -6.8912934511899948e-04</internalNodes>
          <leafValues>
            3.4593620896339417e-01 -2.4860879778862000e-01</leafValues></_>
        <_>
          <internalNodes>
            0 -1 0 -4.8973232507705688e-02</internalNodes>
          <leafValues>
            3.5876050591468811e-01 -2.4536994099617004e-01</leafValues></_>
        <_>
          <internalNodes>
            0 -1 61 2.5830082595348358e-02</internalNodes>
          <leafValues>
            -1.4422444999217987e-01 6.8245947360992432e-01</leafValues></_>
        <_>
          <internalNodes>
            0 -1 123 2.2896863520145416e-03</internalNodes>
          <leafValues>
            -2.6618963479995728e-01 3.5438233613967896e-01</leafValues></_>
        <_>
          <internalNodes>
            0 -1 106 3.3209577202796936e-02</internalNodes>
          <leafValues>
            1.3505768775939941e-01 -7.6968628168106079e-01</leafValues></_>
        <_>
          <internalNodes>
            0 -1 191 -5.3340125305112451e-05</internalNodes>
          <leafValues>
            1.7964692413806915e-01 -4.4899499416351318e-01</leafValues></_>
        <_>
          <internalNodes>
            0 -1 188 -1.0565387085080147e-02</internalNodes>
          <leafValues>
            -7.4815511703491211e-01 1.0234772413969040e-01</leafValues></_>
        <_>
          <internalNodes>
            0 -1 165 -3.9364192634820938e-03</internalNodes>
          <leafValues>
            4.0387102961540222e-01 -2.2752998769283295e-01</leafValues></_>
        <_>
          <internalNodes>
            0 -1 154 9.0306322090327740e-04</internalNodes>
          <leafValues>
            1.2849862873554230e-01 -6.7912846803665161e-01</leafValues></_>
        <_>
          <internalNodes>
            0 -1 25 2.2796059492975473e-03</internalNodes>
          <leafValues>
            1.0852691531181335e-01 -7.0345878601074219e-01</leafValues></_>
        <_>
          <internalNodes>
            0 -1 52 -4.6305991709232330e-03</internalNodes>
          <leafValues>
            4.0687906742095947e-01 -1.9345553219318390e-01</leafValues></_>
        <_>
          <internalNodes>
            0 -1 40 -1.1047571897506714e-03</internalNodes>
          <leafValues>
            -6.4743429422378540e-01 1.3298590481281281e-01</leafValues></_></weakClassifiers></_>
    <!-- stage 8 -->
    <_>
      <maxWeakCount>19</maxWeakCount>
      <stageThreshold>-6.9926154613494873e-01</stageThreshold>
      <weakClassifiers>
        <_>
          <internalNodes>
            0 -1 57 1.0987585410475731e-03</internalNodes>
          <leafValues>
            -7.2029933333396912e-02 6.2592840194702148e-01</leafValues></_>
        <_>
          <internalNodes>
            0 -1 176 -1.6034959116950631e-03</internalNodes>
          <leafValues>
            4.4749394059181213e-01 -2.4453788995742798e-01</leafValues></_>
        <_>
          <internalNodes>
            0 -1 47 -4.8657678067684174e-02</internalNodes>
          <leafValues>
            4.1309559345245361e-01 -2.2767077386379242e-01</leafValues></_>
        <_>
          <internalNodes>
            0 -1 116 -8.2225892692804337e-03</internalNodes>
          <leafValues>
            5.8611512184143066e-01 -1.6019205749034882e-01</leafValues></_>
        <_>
          <internalNodes>
            0 -1 147 -8.0840836744755507e-04</internalNodes>
          <leafValues>
            3.7755557894706726e-01 -2.1657118201255798e-01</leafValues></_>
        <_>
          <internalNodes>
            0 -1 129 -1.4289343380369246e-04</internalNodes>
          <leafValues>
            -4.4225755333900452e-01 1.5873402357101440e-01</leafValues></_>
        <_>
          <internalNodes>
            0 -1 134 -9.5195078756660223e-04</internalNodes>
          <leafValues>
            -6.2473219633102417e-01 1.5338219702243805e-01</leafValues></_>
        <_>
          <internalNodes>
            0 -1 210 -4.2177408933639526e-02</internalNodes>
          <leafValues>
            6.1585021018981934e-01 -1.6412338614463806e-01</leafValues></_>
        <_>
          <internalNodes>
            0 -1 212 7.1784328611101955e-05</internalNodes>
          <leafValues>
            2.4045704305171967e-01 -3.8845720887184143e-01</leafValues></_>
        <_>
          <internalNodes>
            0 -1 99 -5.4079701658338308e-04</internalNodes>
          <leafValues>
            2.4550491571426392e-01 -2.9754376411437988e-01</leafValues></_>
        <_>
          <internalNodes>
            0 -1 49 -1.2022487353533506e-03</internalNodes>
          <leafValues>
            -5.4343450069427490e-01 1.4599725604057312e-01</leafValues></_>
        <_>
          <internalNodes>
            0 -1 17 1.2811899185180664e-01</internalNodes>
          <leafValues>
            7.4206866323947906e-02 -8.5085892677307129e-01</leafValues></_>
        <_>
          <internalNodes>
            0 -1 19 2.1895693615078926e-02</internalNodes>
          <leafValues>
            -2.1554544568061829e-01 4.1292595863342285e-01</leafValues></_>
        <_>
          <internalNodes>
            0 -1 18 -2.4428669363260269e-02</internalNodes>
          <leafValues>
            5.7799023389816284e-01 -1.5840604901313782e-01</leafValues></_>
        <_>
          <internalNodes>
            0 -1 182 1.3727359473705292e-02</internalNodes>
          <leafValues>
            -1.9402867555618286e-01 4.5448485016822815e-01</leafValues></_>
        <_>
          <internalNodes>
            0 -1 217 1.0856025619432330e-04</internalNodes>
          <leafValues>
            2.4829117953777313e-01 -3.1961354613304138e-01</leafValues></_>
        <_>
          <internalNodes>
            0 -1 121 -6.0091784689575434e-04</internalNodes>
          <leafValues>
            3.3466306328773499e-01 -2.3905447125434875e-01</leafValues></_>
        <_>
          <internalNodes>
            0 -1 16 1.2333774566650391e-01</internalNodes>
          <leafValues>
            1.0280915349721909e-01 -7.9329794645309448e-01</leafValues></_>
        <_>
          <internalNodes>
            0 -1 133 -9.4022508710622787e-04</internalNodes>
          <leafValues>
            -8.1331944465637207e-01 7.9517483711242676e-02</leafValues></_></weakClassifiers></_>
    <!-- stage 9 -->
    <_>
      <maxWeakCount>22</maxWeakCount>
      <stageThreshold>-7.7722400426864624e-01</stageThreshold>
      <weakClassifiers>
        <_>
          <internalNodes>
            0 -1 28 -8.5513340309262276e-05</internalNodes>
          <leafValues>
            5.1260507106781006e-01 -3.5483869910240173e-01</leafValues></_>
        <_>
          <internalNodes>
            0 -1 117 4.7896453179419041e-03</internalNodes>
          <leafValues>
            -2.0298655331134796e-01 4.4382533431053162e-01</leafValues></_>
        <_>
          <internalNodes>
            0 -1 152 -6.2684277072548866e-03</internalNodes>
          <leafValues>
            5.6752687692642212e-01 -1.5214577317237854e-01</leafValues></_>
        <_>
          <internalNodes>
            0 -1 171 2.2589619038626552e-04</internalNodes>
          <leafValues>
            1.2523046135902405e-01 -5.8017152547836304e-01</leafValues></_>
        <_>
          <internalNodes>
            0 -1 87 -1.5912306844256818e-04</internalNodes>
          <leafValues>
            -6.6792595386505127e-01 1.1905135214328766e-01</leafValues></_>
        <_>
          <internalNodes>
            0 -1 41 -9.6610002219676971e-04</internalNodes>
          <leafValues>
            -5.8704024553298950e-01 1.2104325741529465e-01</leafValues></_>
        <_>
          <internalNodes>
            0 -1 223 3.2556727528572083e-03</internalNodes>
          <leafValues>
            -2.1080987155437469e-01 3.8568872213363647e-01</leafValues></_>
        <_>
          <internalNodes>
            0 -1 140 4.2674046009778976e-02</internalNodes>
          <leafValues>
            -1.2216777354478836e-01 7.3057514429092407e-01</leafValues></_>
        <_>
          <internalNodes>
            0 -1 135 -1.7012822208926082e-03</internalNodes>
          <leafValues>
            3.1879609823226929e-01 -2.1807369589805603e-01</leafValues></_>
        <_>
          <internalNodes>
            0 -1 181 -2.7735135518014431e-03</internalNodes>
          <leafValues>
            2.5781565904617310e-01 -2.9312956333160400e-01</leafValues></_>
        <_>
          <internalNodes>
            0 -1 10 -3.7380256690084934e-03</internalNodes>
          <leafValues>
            3.3362188935279846e-01 -2.5246024131774902e-01</leafValues></_>
        <_>
          <internalNodes>
            0 -1 30 7.3928423225879669e-02</internalNodes>
          <leafValues>
            9.0068556368350983e-02 -7.7890634536743164e-01</leafValues></_>
        <_>
          <internalNodes>
            0 -1 23 -2.4486079346388578e-03</internalNodes>
          <leafValues>
            -6.6064959764480591e-01 1.0961224138736725e-01</leafValues></_>
        <_>
          <internalNodes>
            0 -1 175 5.7483161799609661e-03</internalNodes>
          <leafValues>
            9.7606308758258820e-02 -7.0605385303497314e-01</leafValues></_>
        <_>
          <internalNodes>
            0 -1 108 -5.5837757885456085e-02</internalNodes>
          <leafValues>
            -7.1246474981307983e-01 9.2098064720630646e-02</leafValues></_>
        <_>
          <internalNodes>
            0 -1 72 3.1015006243251264e-04</internalNodes>
          <leafValues>
            -2.4889406561851501e-01 3.3129119873046875e-01</leafValues></_>
        <_>
          <internalNodes>
            0 -1 194 -6.1874114908277988e-04</internalNodes>
          <leafValues>
            4.2042639851570129e-01 -2.0875602960586548e-01</leafValues></_>
        <_>
          <internalNodes>
            0 -1 35 6.4595930278301239e-02</internalNodes>
          <leafValues>
            1.1462955921888351e-01 -6.7977106571197510e-01</leafValues></_>
        <_>
          <internalNodes>
            0 -1 95 9.8296450451016426e-03</internalNodes>
          <leafValues>
            -1.1309956014156342e-01 7.6275205612182617e-01</leafValues></_>
        <_>
          <internalNodes>
            0 -1 64 1.4191849913913757e-04</internalNodes>
          <leafValues>
            1.6600699722766876e-01 -5.0046241283416748e-01</leafValues></_>
        <_>
          <internalNodes>
            0 -1 144 -1.1157518252730370e-02</internalNodes>
          <leafValues>
            -6.1659151315689087e-01 1.1297352612018585e-01</leafValues></_>
        <_>
          <internalNodes>
            0 -1 142 7.9229916445910931e-04</internalNodes>
          <leafValues>
            -2.8493276238441467e-01 2.4990735948085785e-01</leafValues></_></weakClassifiers></_>
    <!-- stage 10 -->
    <_>
      <maxWeakCount>26</maxWeakCount>
      <stageThreshold>-8.9775282144546509e-01</stageThreshold>
      <weakClassifiers>
        <_>
          <internalNodes>
            0 -1 107 -3.3397809602320194e-04</internalNodes>
          <leafValues>
            4.9382105469703674e-01 -2.8273245692253113e-01</leafValues></_>
        <_>
          <internalNodes>
            0 -1 59 1.0377123951911926e-02</internalNodes>
          <leafValues>
            -3.8282868266105652e-01 2.7703750133514404e-01</leafValues></_>
        <_>
          <internalNodes>
            0 -1 51 1.5773519407957792e-04</internalNodes>
          <leafValues>
            1.5137110650539398e-01 -5.3061980009078979e-01</leafValues></_>
        <_>
          <internalNodes>
            0 -1 151 1.2833923101425171e-02</internalNodes>
          <leafValues>
            -1.2035369873046875e-01 7.1145302057266235e-01</leafValues></_>
        <_>
          <internalNodes>
            0 -1 150 -5.8574479771777987e-04</internalNodes>
          <leafValues>
            3.5769793391227722e-01 -2.8186488151550293e-01</leafValues></_>
        <_>
          <internalNodes>
            0 -1 180 -7.8781609772704542e-05</internalNodes>
          <leafValues>
            -5.8919680118560791e-01 1.4119789004325867e-01</leafValues></_>
        <_>
          <internalNodes>
            0 -1 100 -4.3826112523674965e-03</internalNodes>
          <leafValues>
            -5.7033449411392212e-01 1.3228185474872589e-01</leafValues></_>
        <_>
          <internalNodes>
            0 -1 199 7.0468033663928509e-04</internalNodes>
          <leafValues>
            -2.2687262296676636e-01 3.7016391754150391e-01</leafValues></_>
        <_>
          <internalNodes>
            0 -1 211 1.5550256939604878e-03</internalNodes>
          <leafValues>
            1.1085465550422668e-01 -8.8431203365325928e-01</leafValues></_>
        <_>
          <internalNodes>
            0 -1 202 -2.1861949790036306e-05</internalNodes>
          <leafValues>
            1.5418499708175659e-01 -3.8675758242607117e-01</leafValues></_>
        <_>
          <internalNodes>
            0 -1 60 2.9256414622068405e-02</internalNodes>
          <leafValues>
            -8.7447069585323334e-02 8.2404106855392456e-01</leafValues></_>
        <_>
          <internalNodes>
            0 -1 81 -1.4255004934966564e-03</internalNodes>
          <leafValues>
            2.9108273983001709e-01 -2.9454848170280457e-01</leafValues></_>
        <_>
          <internalNodes>
            0 -1 37 -2.2634593769907951e-03</internalNodes>
          <leafValues>
            -6.0580146312713623e-01 1.2355419993400574e-01</leafValues></_>
        <_>
          <internalNodes>
            0 -1 225 6.8600545637309551e-03</internalNodes>
          <leafValues>
            -1.7213182151317596e-01 4.3647032976150513e-01</leafValues></_>
        <_>
          <internalNodes>
            0 -1 208 1.0234966874122620e-02</internalNodes>
          <leafValues>
            -1.5078485012054443e-01 5.0470566749572754e-01</leafValues></_>
        <_>
          <internalNodes>
            0 -1 130 1.7731261905282736e-03</internalNodes>
          <leafValues>
            9.5859736204147339e-02 -8.9980131387710571e-01</leafValues></_>
        <_>
          <internalNodes>
            0 -1 77 7.2442283853888512e-03</internalNodes>
          <leafValues>
            -1.4937293529510498e-01 5.7762336730957031e-01</leafValues></_>
        <_>
          <internalNodes>
            0 -1 56 1.1831331066787243e-03</internalNodes>
          <leafValues>
            -1.9011801481246948e-01 3.8588619232177734e-01</leafValues></_>
        <_>
          <internalNodes>
            0 -1 205 -6.6003543324768543e-03</internalNodes>
          <leafValues>
            -8.4477269649505615e-01 1.0404164344072342e-01</leafValues></_>
        <_>
          <internalNodes>
            0 -1 177 -1.3323065359145403e-03</internalNodes>
          <leafValues>
            4.5364665985107422e-01 -1.7780682444572449e-01</leafValues></_>
        <_>
          <internalNodes>
            0 -1 204 -4.1777493606787175e-05</internalNodes>
          <leafValues>
            2.6031386852264404e-01 -2.9876643419265747e-01</leafValues></_>
        <_>
          <internalNodes>
            0 -1 111 -2.3710867390036583e-04</internalNodes>
          <leafValues>
            -6.0338056087493896e-01 1.1984249204397202e-01</leafValues></_>
        <_>
          <internalNodes>
            0 -1 101 -6.7544216290116310e-04</internalNodes>
          <leafValues>
            2.4374161660671234e-01 -3.0287262797355652e-01</leafValues></_>
        <_>
          <internalNodes>
            0 -1 138 -5.6454830337315798e-04</internalNodes>
          <leafValues>
            3.4818908572196960e-01 -2.0563159883022308e-01</leafValues></_>
        <_>
          <internalNodes>
            0 -1 197 1.0637625819072127e-03</internalNodes>
          <leafValues>
            -1.3964445888996124e-01 4.7393360733985901e-01</leafValues></_>
        <_>
          <internalNodes>
            0 -1 193 3.5834487061947584e-03</internalNodes>
          <leafValues>
            1.1110156774520874e-01 -6.7590218782424927e-01</leafValues></_></weakClassifiers></_>
    <!-- stage 11 -->
    <_>
      <maxWeakCount>25</maxWeakCount>
      <stageThreshold>-7.0462495088577271e-01</stageThreshold>
      <weakClassifiers>
        <_>
          <internalNodes>
            0 -1 33 2.2765592802898027e-05</internalNodes>
          <leafValues>
            4.8764497041702271e-01 -2.0634920895099640e-01</leafValues></_>
        <_>
          <internalNodes>
            0 -1 14 -2.6478297077119350e-03</internalNodes>
          <leafValues>
            3.6829006671905518e-01 -2.4471496045589447e-01</leafValues></_>
        <_>
          <internalNodes>
            0 -1 200 -1.0766958439489827e-04</internalNodes>
          <leafValues>
            -4.7825360298156738e-01 1.6686020791530609e-01</leafValues></_>
        <_>
          <internalNodes>
            0 -1 178 -7.7678628265857697e-02</internalNodes>
          <leafValues>
            3.1722038984298706e-01 -2.6415506005287170e-01</leafValues></_>
        <_>
          <internalNodes>
            0 -1 196 -7.5324461795389652e-04</internalNodes>
          <leafValues>
            4.2782366275787354e-01 -1.7575198411941528e-01</leafValues></_>
        <_>
          <internalNodes>
            0 -1 97 2.8275441378355026e-02</internalNodes>
          <leafValues>
            5.6330990046262741e-02 -8.4174829721450806e-01</leafValues></_>
        <_>
          <internalNodes>
            0 -1 32 -1.1651449312921613e-04</internalNodes>
          <leafValues>
            -3.1623029708862305e-01 2.2831818461418152e-01</leafValues></_>
        <_>
          <internalNodes>
            0 -1 8 -8.3761975169181824e-02</internalNodes>
          <leafValues>
            6.5279060602188110e-01 -1.4645580947399139e-01</leafValues></_>
        <_>
          <internalNodes>
            0 -1 209 -1.7109569162130356e-03</internalNodes>
          <leafValues>
            -5.4689383506774902e-01 1.2079109996557236e-01</leafValues></_>
        <_>
          <internalNodes>
            0 -1 207 -4.6308222226798534e-04</internalNodes>
          <leafValues>
            3.4492373466491699e-01 -2.1350255608558655e-01</leafValues></_>
        <_>
          <internalNodes>
            0 -1 174 -3.1982621294446290e-04</internalNodes>
          <leafValues>
            2.6023340225219727e-01 -2.9861700534820557e-01</leafValues></_>
        <_>
          <internalNodes>
            0 -1 20 -9.9070966243743896e-03</internalNodes>
          <leafValues>
            7.5639569759368896e-01 -9.7673721611499786e-02</leafValues></_>
        <_>
          <internalNodes>
            0 -1 118 6.2606502324342728e-03</internalNodes>
          <leafValues>
            1.3036376237869263e-01 -6.3601785898208618e-01</leafValues></_>
        <_>
          <internalNodes>
            0 -1 69 1.8827795429388061e-05</internalNodes>
          <leafValues>
            -4.2973482608795166e-01 1.5291281044483185e-01</leafValues></_>
        <_>
          <internalNodes>
            0 -1 124 2.2175457328557968e-02</internalNodes>
          <leafValues>
            1.1891097575426102e-01 -5.2390068769454956e-01</leafValues></_>
        <_>
          <internalNodes>
            0 -1 137 -5.4836105555295944e-03</internalNodes>
          <leafValues>
            4.2436546087265015e-01 -1.8403133749961853e-01</leafValues></_>
        <_>
          <internalNodes>
            0 -1 65 -8.4041254012845457e-05</internalNodes>
          <leafValues>
            -4.6046370267868042e-01 1.5382084250450134e-01</leafValues></_>
        <_>
          <internalNodes>
            0 -1 24 6.8808146752417088e-03</internalNodes>
          <leafValues>
            -1.0841529816389084e-01 6.2447887659072876e-01</leafValues></_>
        <_>
          <internalNodes>
            0 -1 172 -7.1331125218421221e-04</internalNodes>
          <leafValues>
            -5.3507196903228760e-01 1.3004781305789948e-01</leafValues></_>
        <_>
          <internalNodes>
            0 -1 27 -2.5739209726452827e-02</internalNodes>
          <leafValues>
            -6.7111837863922119e-01 8.5459128022193909e-02</leafValues></_>
        <_>
          <internalNodes>
            0 -1 139 -6.9034687476232648e-04</internalNodes>
          <leafValues>
            2.8624007105827332e-01 -2.5087076425552368e-01</leafValues></_>
        <_>
          <internalNodes>
            0 -1 93 3.4368708729743958e-02</internalNodes>
          <leafValues>
            -1.4716681838035583e-01 4.1132622957229614e-01</leafValues></_>
        <_>
          <internalNodes>
            0 -1 173 1.0247166937915608e-04</internalNodes>
          <leafValues>
            1.7729629576206207e-01 -4.4706639647483826e-01</leafValues></_>
        <_>
          <internalNodes>
            0 -1 79 -6.0466788709163666e-03</internalNodes>
          <leafValues>
            4.3939879536628723e-01 -1.7103235423564911e-01</leafValues></_>
        <_>
          <internalNodes>
            0 -1 153 -7.2768644895404577e-04</internalNodes>
          <leafValues>
            2.6197910308837891e-01 -2.4311269819736481e-01</leafValues></_></weakClassifiers></_>
    <!-- stage 12 -->
    <_>
      <maxWeakCount>26</maxWeakCount>
      <stageThreshold>-8.5321390628814697e-01</stageThreshold>
      <weakClassifiers>
        <_>
          <internalNodes>
            0 -1 76 -1.1527296155691147e-02</internalNodes>
          <leafValues>
            7.2008544206619263e-01 1.0904584825038910e-01</leafValues></_>
        <_>
          <internalNodes>
            0 -1 184 2.4033889349084347e-04</internalNodes>
          <leafValues>
            2.0653654634952545e-01 -4.8215630650520325e-01</leafValues></_>
        <_>
          <internalNodes>
            0 -1 192 -2.0422495435923338e-04</internalNodes>
          <leafValues>
            1.9058127701282501e-01 -4.4502300024032593e-01</leafValues></_>
        <_>
          <internalNodes>
            0 -1 168 8.9290388859808445e-04</internalNodes>
          <leafValues>
            -2.4188368022441864e-01 3.0728009343147278e-01</leafValues></_>
        <_>
          <internalNodes>
            0 -1 21 1.4836335321888328e-04</internalNodes>
          <leafValues>
            1.3750185072422028e-01 -4.3126755952835083e-01</leafValues></_>
        <_>
          <internalNodes>
            0 -1 166 -9.9149823654443026e-04</internalNodes>
          <leafValues>
            2.8317740559577942e-01 -2.5460177659988403e-01</leafValues></_>
        <_>
          <internalNodes>
            0 -1 4 6.2501430511474609e-02</internalNodes>
          <leafValues>
            -7.4761733412742615e-02 8.4466600418090820e-01</leafValues></_>
        <_>
          <internalNodes>
            0 -1 2 -1.0372614860534668e-01</internalNodes>
          <leafValues>
            3.4706434607505798e-01 -2.5917944312095642e-01</leafValues></_>
        <_>
          <internalNodes>
            0 -1 22 -1.9568228162825108e-04</internalNodes>
          <leafValues>
            -3.2212340831756592e-01 1.8438175320625305e-01</leafValues></_>
        <_>
          <internalNodes>
            0 -1 218 -1.5751908067613840e-03</internalNodes>
          <leafValues>
            -5.4973167181015015e-01 1.3629907369613647e-01</leafValues></_>
        <_>
          <internalNodes>
            0 -1 187 -6.9064868148416281e-04</internalNodes>
          <leafValues>
            -6.8171417713165283e-01 7.9736210405826569e-02</leafValues></_>
        <_>
          <internalNodes>
            0 -1 176 -1.1909494642168283e-03</internalNodes>
          <leafValues>
            2.7164661884307861e-01 -2.7203688025474548e-01</leafValues></_>
        <_>
          <internalNodes>
            0 -1 146 -2.2538064513355494e-03</internalNodes>
          <leafValues>
            4.4241905212402344e-01 -1.7345295846462250e-01</leafValues></_>
        <_>
          <internalNodes>
            0 -1 26 2.9986966401338577e-03</internalNodes>
          <leafValues>
            1.0973528772592545e-01 -7.0342195034027100e-01</leafValues></_>
        <_>
          <internalNodes>
            0 -1 148 -2.1459173876792192e-03</internalNodes>
          <leafValues>
            3.1268870830535889e-01 -2.0751123130321503e-01</leafValues></_>
        <_>
          <internalNodes>
            0 -1 68 1.5741123934276402e-04</internalNodes>
          <leafValues>
            1.6331218183040619e-01 -4.4102227687835693e-01</leafValues></_>
        <_>
          <internalNodes>
            0 -1 50 7.0405541919171810e-05</internalNodes>
          <leafValues>
            -3.3950126171112061e-01 2.1715703606605530e-01</leafValues></_>
        <_>
          <internalNodes>
            0 -1 122 -8.3984266966581345e-03</internalNodes>
          <leafValues>
            5.3410416841506958e-01 -1.3529390096664429e-01</leafValues></_>
        <_>
          <internalNodes>
            0 -1 149 -1.0643333196640015e-02</internalNodes>
          <leafValues>
            6.9465786218643188e-01 -8.6135469377040863e-02</leafValues></_>
        <_>
          <internalNodes>
            0 -1 34 -3.7827950436621904e-03</internalNodes>
          <leafValues>
            -6.4868617057800293e-01 1.1922871321439743e-01</leafValues></_>
        <_>
          <internalNodes>
            0 -1 62 3.6538630723953247e-02</internalNodes>
          <leafValues>
            1.2661415338516235e-01 -5.0044769048690796e-01</leafValues></_>
        <_>
          <internalNodes>
            0 -1 94 2.5930847041308880e-03</internalNodes>
          <leafValues>
            -1.3547179102897644e-01 5.7620060443878174e-01</leafValues></_>
        <_>
          <internalNodes>
            0 -1 74 6.0551601927727461e-04</internalNodes>
          <leafValues>
            -3.1588986515998840e-01 2.5016203522682190e-01</leafValues></_>
        <_>
          <internalNodes>
            0 -1 203 5.9152902394998819e-05</internalNodes>
          <leafValues>
            1.7120254039764404e-01 -4.3679201602935791e-01</leafValues></_>
        <_>
          <internalNodes>
            0 -1 159 4.6852306695654988e-04</internalNodes>
          <leafValues>
            1.3742367923259735e-01 -4.9792268872261047e-01</leafValues></_>
        <_>
          <internalNodes>
            0 -1 198 2.1746756974607706e-03</internalNodes>
          <leafValues>
            -1.3947843015193939e-01 6.2084621191024780e-01</leafValues></_></weakClassifiers></_></stages>
  <features>
    <_>
      <rects>
        <_>
          0 0 16 15 -1.</_>
        <_>
          8 0 8 15 2.</_></rects>
      <tilted>0</tilted></_>
    <_>
      <rects>
        <_>
          0 1 8 19 -1.</_>
        <_>
          4 1 4 19 2.</_></rects>
      <tilted>0</tilted></_>
    <_>
      <rects>
        <_>
          0 1 12 19 -1.</_>
        <_>
          6 1 6 19 2.</_></rects>
      <tilted>0</tilted></_>
    <_>
      <rects>
        <_>
          0 3 6 14 -1.</_>
        <_>
          3 3 3 14 2.</_></rects>
      <tilted>0</tilted></_>
    <_>
      <rects>
        <_>
          0 4 6 10 -1.</_>
        <_>
          3 4 3 10 2.</_></rects>
      <tilted>0</tilted></_>
    <_>
      <rects>
        <_>
          0 5 4 9 -1.</_>
        <_>
          2 5 2 9 2.</_></rects>
      <tilted>0</tilted></_>
    <_>
      <rects>
        <_>
          0 7 4 7 -1.</_>
        <_>
          2 7 2 7 2.</_></rects>
      <tilted>0</tilted></_>
    <_>
      <rects>
        <_>
          0 17 10 2 -1.</_>
        <_>
          5 17 5 2 2.</_></rects>
      <tilted>0</tilted></_>
    <_>
      <rects>
        <_>
          1 2 18 2 -1.</_>
        <_>
          7 2 6 2 3.</_></rects>
      <tilted>0</tilted></_>
    <_>
      <rects>
        <_>
          1 7 4 4 -1.</_>
        <_>
          3 7 2 4 2.</_></rects>
      <tilted>0</tilted></_>
    <_>
      <rects>
        <_>
          1 8 2 4 -1.</_>
        <_>
          2 8 1 4 2.</_></rects>
      <tilted>0</tilted></_>
    <_>
      <rects>
        <_>
          1 8 6 3 -1.</_>
        <_>
          3 8 2 3 3.</_></rects>
      <tilted>0</tilted></_>
    <_>
      <rects>
        <_>
          1 8 6 4 -1.</_>
        <_>
          3 8 2 4 3.</_></rects>
      <tilted>0</tilted></_>
    <_>
      <rects>
        <_>
          1 12 10 8 -1.</_>
        <_>
          1 12 5 4 2.</_>
        <_>
          6 16 5 4 2.</_></rects>
      <tilted>0</tilted></_>
    <_>
      <rects>
        <_>
          2 9 3 2 -1.</_>
        <_>
          3 9 1 2 3.</_></rects>
      <tilted>0</tilted></_>
    <_>
      <rects>
        <_>
          3 2 10 4 -1.</_>
        <_>
          3 2 5 2 2.</_>
        <_>
          8 4 5 2 2.</_></rects>
      <tilted>0</tilted></_>
    <_>
      <rects>
        <_>
          3 2 14 10 -1.</_>
        <_>
          10 2 7 10 2.</_></rects>
      <tilted>0</tilted></_>
    <_>
      <rects>
        <_>
          3 2 12 15 -1.</_>
        <_>
          3 7 12 5 3.</_></rects>
      <tilted>0</tilted></_>
    <_>
      <rects>
        <_>
          3 3 8 6 -1.</_>
        <_>
          3 3 4 3 2.</_>
        <_>
          7 6 4 3 2.</_></rects>
      <tilted>0</tilted></_>
    <_>
      <rects>
        <_>
          3 3 10 4 -1.</_>
        <_>
          3 3 5 2 2.</_>
        <_>
          8 5 5 2 2.</_></rects>
      <tilted>0</tilted></_>
    <_>
      <rects>
        <_>
          3 4 10 2 -1.</_>
        <_>
          3 4 5 1 2.</_>
        <_>
          8 5 5 1 2.</_></rects>
      <tilted>0</tilted></_>
    <_>
      <rects>
        <_>
          3 5 3 2 -1.</_>
        <_>
          4 5 1 2 3.</_></rects>
      <tilted>0</tilted></_>
    <_>
      <rects>
        <_>
          3 6 2 1 -1.</_>
        <_>
          4 6 1 1 2.</_></rects>
      <tilted>0</tilted></_>
    <_>
      <rects>
        <_>
          3 6 2 3 -1.</_>
        <_>
          3 7 2 1 3.</_></rects>
      <tilted>0</tilted></_>
    <_>
      <rects>
        <_>
          3 6 8 2 -1.</_>
        <_>
          3 6 4 1 2.</_>
        <_>
          7 7 4 1 2.</_></rects>
      <tilted>0</tilted></_>
    <_>
      <rects>
        <_>
          3 7 2 3 -1.</_>
        <_>
          3 8 2 1 3.</_></rects>
      <tilted>0</tilted></_>
    <_>
      <rects>
        <_>
          3 8 2 3 -1.</_>
        <_>
          3 9 2 1 3.</_></rects>
      <tilted>0</tilted></_>
    <_>
      <rects>
        <_>
          3 10 14 2 -1.</_>
        <_>
          10 10 7 2 2.</_></rects>
      <tilted>0</tilted></_>
    <_>
      <rects>
        <_>
          4 3 6 3 -1.</_>
        <_>
          6 3 2 3 3.</_></rects>
      <tilted>0</tilted></_>
    <_>
      <rects>
        <_>
          4 3 4 6 -1.</_>
        <_>
          4 3 2 3 2.</_>
        <_>
          6 6 2 3 2.</_></rects>
      <tilted>0</tilted></_>
    <_>
      <rects>
        <_>
          4 3 6 10 -1.</_>
        <_>
          7 3 3 10 2.</_></rects>
      <tilted>0</tilted></_>
    <_>
      <rects>
        <_>
          4 3 9 12 -1.</_>
        <_>
          4 9 9 6 2.</_></rects>
      <tilted>0</tilted></_>
    <_>
      <rects>
        <_>
          4 4 2 3 -1.</_>
        <_>
          5 4 1 3 2.</_></rects>
      <tilted>0</tilted></_>
    <_>
      <rects>
        <_>
          4 4 3 3 -1.</_>
        <_>
          5 4 1 3 3.</_></rects>
      <tilted>0</tilted></_>
    <_>
      <rects>
        <_>
          4 4 3 3 -1.</_>
        <_>
          4 5 3 1 3.</_></rects>
      <tilted>0</tilted></_>
    <_>
      <rects>
        <_>
          4 4 15 10 -1.</_>
        <_>
          4 9 15 5 2.</_></rects>
      <tilted>0</tilted></_>
    <_>
      <rects>
        <_>
          4 5 3 1 -1.</_>
        <_>
          5 5 1 1 3.</_></rects>
      <tilted>0</tilted></_>
    <_>
      <rects>
        <_>
          4 5 2 3 -1.</_>
        <_>
          4 6 2 1 3.</_></rects>
      <tilted>0</tilted></_>
    <_>
      <rects>
        <_>
          4 6 2 1 -1.</_>
        <_>
          5 6 1 1 2.</_></rects>
      <tilted>0</tilted></_>
    <_>
      <rects>
        <_>
          4 6 1 3 -1.</_>
        <_>
          4 7 1 1 3.</_></rects>
      <tilted>0</tilted></_>
    <_>
      <rects>
        <_>
          4 7 1 3 -1.</_>
        <_>
          4 8 1 1 3.</_></rects>
      <tilted>0</tilted></_>
    <_>
      <rects>
        <_>
          4 8 1 3 -1.</_>
        <_>
          4 9 1 1 3.</_></rects>
      <tilted>0</tilted></_>
    <_>
      <rects>
        <_>
          4 9 2 1 -1.</_>
        <_>
          5 9 1 1 2.</_></rects>
      <tilted>0</tilted></_>
    <_>
      <rects>
        <_>
          4 9 8 4 -1.</_>
        <_>
          4 9 4 2 2.</_>
        <_>
          8 11 4 2 2.</_></rects>
      <tilted>0</tilted></_>
    <_>
      <rects>
        <_>
          4 10 12 3 -1.</_>
        <_>
          10 10 6 3 2.</_></rects>
      <tilted>0</tilted></_>
    <_>
      <rects>
        <_>
          4 11 14 1 -1.</_>
        <_>
          11 11 7 1 2.</_></rects>
      <tilted>0</tilted></_>
    <_>
      <rects>
        <_>
          4 16 2 1 -1.</_>
        <_>
          5 16 1 1 2.</_></rects>
      <tilted>0</tilted></_>
    <_>
      <rects>
        <_>
          5 0 14 4 -1.</_>
        <_>
          5 2 14 2 2.</_></rects>
      <tilted>0</tilted></_>
    <_>
      <rects>
        <_>
          5 2 2 16 -1.</_>
        <_>
          5 10 2 8 2.</_></rects>
      <tilted>0</tilted></_>
    <_>
      <rects>
        <_>
          5 4 1 3 -1.</_>
        <_>
          5 5 1 1 3.</_></rects>
      <tilted>0</tilted></_>
    <_>
      <rects>
        <_>
          5 4 2 2 -1.</_>
        <_>
          5 4 1 1 2.</_>
        <_>
          6 5 1 1 2.</_></rects>
      <tilted>0</tilted></_>
    <_>
      <rects>
        <_>
          5 4 3 2 -1.</_>
        <_>
          6 4 1 2 3.</_></rects>
      <tilted>0</tilted></_>
    <_>
      <rects>
        <_>
          5 4 9 3 -1.</_>
        <_>
          5 5 9 1 3.</_></rects>
      <tilted>0</tilted></_>
    <_>
      <rects>
        <_>
          5 5 2 1 -1.</_>
        <_>
          6 5 1 1 2.</_></rects>
      <tilted>0</tilted></_>
    <_>
      <rects>
        <_>
          5 5 2 2 -1.</_>
        <_>
          5 5 1 1 2.</_>
        <_>
          6 6 1 1 2.</_></rects>
      <tilted>0</tilted></_>
    <_>
      <rects>
        <_>
          5 6 1 2 -1.</_>
        <_>
          5 7 1 1 2.</_></rects>
      <tilted>0</tilted></_>
    <_>
      <rects>
        <_>
          5 6 4 2 -1.</_>
        <_>
          5 6 2 1 2.</_>
        <_>
          7 7 2 1 2.</_></rects>
      <tilted>0</tilted></_>
    <_>
      <rects>
        <_>
          5 7 2 2 -1.</_>
        <_>
          6 7 1 2 2.</_></rects>
      <tilted>0</tilted></_>
    <_>
      <rects>
        <_>
          5 7 4 4 -1.</_>
        <_>
          5 7 2 2 2.</_>
        <_>
          7 9 2 2 2.</_></rects>
      <tilted>0</tilted></_>
    <_>
      <rects>
        <_>
          5 8 8 8 -1.</_>
        <_>
          5 8 4 4 2.</_>
        <_>
          9 12 4 4 2.</_></rects>
      <tilted>0</tilted></_>
    <_>
      <rects>
        <_>
          6 0 6 4 -1.</_>
        <_>
          6 2 6 2 2.</_></rects>
      <tilted>0</tilted></_>
    <_>
      <rects>
        <_>
          6 0 8 4 -1.</_>
        <_>
          6 2 8 2 2.</_></rects>
      <tilted>0</tilted></_>
    <_>
      <rects>
        <_>
          6 1 7 16 -1.</_>
        <_>
          6 9 7 8 2.</_></rects>
      <tilted>0</tilted></_>
    <_>
      <rects>
        <_>
          6 3 1 3 -1.</_>
        <_>
          6 4 1 1 3.</_></rects>
      <tilted>0</tilted></_>
    <_>
      <rects>
        <_>
          6 3 3 2 -1.</_>
        <_>
          7 3 1 2 3.</_></rects>
      <tilted>0</tilted></_>
    <_>
      <rects>
        <_>
          6 4 2 1 -1.</_>
        <_>
          7 4 1 1 2.</_></rects>
      <tilted>0</tilted></_>
    <_>
      <rects>
        <_>
          6 4 1 2 -1.</_>
        <_>
          6 5 1 1 2.</_></rects>
      <tilted>0</tilted></_>
    <_>
      <rects>
        <_>
          6 4 3 1 -1.</_>
        <_>
          7 4 1 1 3.</_></rects>
      <tilted>0</tilted></_>
    <_>
      <rects>
        <_>
          6 4 1 3 -1.</_>
        <_>
          6 5 1 1 3.</_></rects>
      <tilted>0</tilted></_>
    <_>
      <rects>
        <_>
          6 4 2 2 -1.</_>
        <_>
          6 4 1 1 2.</_>
        <_>
          7 5 1 1 2.</_></rects>
      <tilted>0</tilted></_>
    <_>
      <rects>
        <_>
          6 4 3 2 -1.</_>
        <_>
          7 4 1 2 3.</_></rects>
      <tilted>0</tilted></_>
    <_>
      <rects>
        <_>
          6 4 8 3 -1.</_>
        <_>
          6 5 8 1 3.</_></rects>
      <tilted>0</tilted></_>
    <_>
      <rects>
        <_>
          6 5 2 2 -1.</_>
        <_>
          6 5 1 1 2.</_>
        <_>
          7 6 1 1 2.</_></rects>
      <tilted>0</tilted></_>
    <_>
      <rects>
        <_>
          6 5 2 2 -1.</_>
        <_>
          7 5 1 2 2.</_></rects>
      <tilted>0</tilted></_>
    <_>
      <rects>
        <_>
          6 5 1 4 -1.</_>
        <_>
          6 7 1 2 2.</_></rects>
      <tilted>0</tilted></_>
    <_>
      <rects>
        <_>
          6 5 2 6 -1.</_>
        <_>
          6 5 1 3 2.</_>
        <_>
          7 8 1 3 2.</_></rects>
      <tilted>0</tilted></_>
    <_>
      <rects>
        <_>
          6 6 4 4 -1.</_>
        <_>
          6 6 2 2 2.</_>
        <_>
          8 8 2 2 2.</_></rects>
      <tilted>0</tilted></_>
    <_>
      <rects>
        <_>
          6 7 4 4 -1.</_>
        <_>
          6 7 2 2 2.</_>
        <_>
          8 9 2 2 2.</_></rects>
      <tilted>0</tilted></_>
    <_>
      <rects>
        <_>
          6 13 3 1 -1.</_>
        <_>
          7 13 1 1 3.</_></rects>
      <tilted>0</tilted></_>
    <_>
      <rects>
        <_>
          6 17 6 2 -1.</_>
        <_>
          6 17 3 1 2.</_>
        <_>
          9 18 3 1 2.</_></rects>
      <tilted>0</tilted></_>
    <_>
      <rects>
        <_>
          6 18 7 2 -1.</_>
        <_>
          6 19 7 1 2.</_></rects>
      <tilted>0</tilted></_>
    <_>
      <rects>
        <_>
          7 0 3 2 -1.</_>
        <_>
          7 1 3 1 2.</_></rects>
      <tilted>0</tilted></_>
    <_>
      <rects>
        <_>
          7 0 7 6 -1.</_>
        <_>
          7 2 7 2 3.</_></rects>
      <tilted>0</tilted></_>
    <_>
      <rects>
        <_>
          7 0 8 2 -1.</_>
        <_>
          7 1 8 1 2.</_></rects>
      <tilted>0</tilted></_>
    <_>
      <rects>
        <_>
          7 3 1 2 -1.</_>
        <_>
          7 4 1 1 2.</_></rects>
      <tilted>0</tilted></_>
    <_>
      <rects>
        <_>
          7 3 3 1 -1.</_>
        <_>
          8 3 1 1 3.</_></rects>
      <tilted>0</tilted></_>
    <_>
      <rects>
        <_>
          7 3 1 3 -1.</_>
        <_>
          7 4 1 1 3.</_></rects>
      <tilted>0</tilted></_>
    <_>
      <rects>
        <_>
          7 3 2 2 -1.</_>
        <_>
          7 3 1 1 2.</_>
        <_>
          8 4 1 1 2.</_></rects>
      <tilted>0</tilted></_>
    <_>
      <rects>
        <_>
          7 3 7 3 -1.</_>
        <_>
          7 4 7 1 3.</_></rects>
      <tilted>0</tilted></_>
    <_>
      <rects>
        <_>
          7 3 7 4 -1.</_>
        <_>
          7 5 7 2 2.</_></rects>
      <tilted>0</tilted></_>
    <_>
      <rects>
        <_>
          7 4 2 1 -1.</_>
        <_>
          8 4 1 1 2.</_></rects>
      <tilted>0</tilted></_>
    <_>
      <rects>
        <_>
          7 4 2 2 -1.</_>
        <_>
          7 4 1 1 2.</_>
        <_>
          8 5 1 1 2.</_></rects>
      <tilted>0</tilted></_>
    <_>
      <rects>
        <_>
          7 4 4 1 -1.</_>
        <_>
          9 4 2 1 2.</_></rects>
      <tilted>0</tilted></_>
    <_>
      <rects>
        <_>
          7 4 12 4 -1.</_>
        <_>
          11 4 4 4 3.</_></rects>
      <tilted>0</tilted></_>
    <_>
      <rects>
        <_>
          7 7 1 4 -1.</_>
        <_>
          7 9 1 2 2.</_></rects>
      <tilted>0</tilted></_>
    <_>
      <rects>
        <_>
          7 7 2 4 -1.</_>
        <_>
          7 9 2 2 2.</_></rects>
      <tilted>0</tilted></_>
    <_>
      <rects>
        <_>
          7 7 4 6 -1.</_>
        <_>
          7 7 2 3 2.</_>
        <_>
          9 10 2 3 2.</_></rects>
      <tilted>0</tilted></_>
    <_>
      <rects>
        <_>
          7 9 7 4 -1.</_>
        <_>
          7 11 7 2 2.</_></rects>
      <tilted>0</tilted></_>
    <_>
      <rects>
        <_>
          7 9 10 3 -1.</_>
        <_>
          7 10 10 1 3.</_></rects>
      <tilted>0</tilted></_>
    <_>
      <rects>
        <_>
          7 10 3 3 -1.</_>
        <_>
          8 10 1 3 3.</_></rects>
      <tilted>0</tilted></_>
    <_>
      <rects>
        <_>
          7 10 6 1 -1.</_>
        <_>
          10 10 3 1 2.</_></rects>
      <tilted>0</tilted></_>
    <_>
      <rects>
        <_>
          7 11 3 2 -1.</_>
        <_>
          8 11 1 2 3.</_></rects>
      <tilted>0</tilted></_>
    <_>
      <rects>
        <_>
          7 18 5 2 -1.</_>
        <_>
          7 19 5 1 2.</_></rects>
      <tilted>0</tilted></_>
    <_>
      <rects>
        <_>
          8 0 4 2 -1.</_>
        <_>
          8 1 4 1 2.</_></rects>
      <tilted>0</tilted></_>
    <_>
      <rects>
        <_>
          8 0 6 9 -1.</_>
        <_>
          8 3 6 3 3.</_></rects>
      <tilted>0</tilted></_>
    <_>
      <rects>
        <_>
          8 0 7 9 -1.</_>
        <_>
          8 3 7 3 3.</_></rects>
      <tilted>0</tilted></_>
    <_>
      <rects>
        <_>
          8 1 5 14 -1.</_>
        <_>
          8 8 5 7 2.</_></rects>
      <tilted>0</tilted></_>
    <_>
      <rects>
        <_>
          8 2 4 3 -1.</_>
        <_>
          8 3 4 1 3.</_></rects>
      <tilted>0</tilted></_>
    <_>
      <rects>
        <_>
          8 2 4 12 -1.</_>
        <_>
          8 8 4 6 2.</_></rects>
      <tilted>0</tilted></_>
    <_>
      <rects>
        <_>
          8 3 2 1 -1.</_>
        <_>
          9 3 1 1 2.</_></rects>
      <tilted>0</tilted></_>
    <_>
      <rects>
        <_>
          8 3 3 1 -1.</_>
        <_>
          9 3 1 1 3.</_></rects>
      <tilted>0</tilted></_>
    <_>
      <rects>
        <_>
          8 3 4 1 -1.</_>
        <_>
          10 3 2 1 2.</_></rects>
      <tilted>0</tilted></_>
    <_>
      <rects>
        <_>
          8 3 6 1 -1.</_>
        <_>
          10 3 2 1 3.</_></rects>
      <tilted>0</tilted></_>
    <_>
      <rects>
        <_>
          8 3 6 3 -1.</_>
        <_>
          8 4 6 1 3.</_></rects>
      <tilted>0</tilted></_>
    <_>
      <rects>
        <_>
          8 4 2 1 -1.</_>
        <_>
          9 4 1 1 2.</_></rects>
      <tilted>0</tilted></_>
    <_>
      <rects>
        <_>
          8 4 4 3 -1.</_>
        <_>
          8 5 4 1 3.</_></rects>
      <tilted>0</tilted></_>
    <_>
      <rects>
        <_>
          8 5 5 3 -1.</_>
        <_>
          8 6 5 1 3.</_></rects>
      <tilted>0</tilted></_>
    <_>
      <rects>
        <_>
          8 7 4 4 -1.</_>
        <_>
          8 7 2 2 2.</_>
        <_>
          10 9 2 2 2.</_></rects>
      <tilted>0</tilted></_>
    <_>
      <rects>
        <_>
          8 9 6 3 -1.</_>
        <_>
          11 9 3 3 2.</_></rects>
      <tilted>0</tilted></_>
    <_>
      <rects>
        <_>
          8 10 6 1 -1.</_>
        <_>
          11 10 3 1 2.</_></rects>
      <tilted>0</tilted></_>
    <_>
      <rects>
        <_>
          8 11 6 2 -1.</_>
        <_>
          8 12 6 1 2.</_></rects>
      <tilted>0</tilted></_>
    <_>
      <rects>
        <_>
          8 12 3 2 -1.</_>
        <_>
          9 12 1 2 3.</_></rects>
      <tilted>0</tilted></_>
    <_>
      <rects>
        <_>
          8 16 5 3 -1.</_>
        <_>
          8 17 5 1 3.</_></rects>
      <tilted>0</tilted></_>
    <_>
      <rects>
        <_>
          8 18 4 2 -1.</_>
        <_>
          8 19 4 1 2.</_></rects>
      <tilted>0</tilted></_>
    <_>
      <rects>
        <_>
          9 0 3 12 -1.</_>
        <_>
          9 6 3 6 2.</_></rects>
      <tilted>0</tilted></_>
    <_>
      <rects>
        <_>
          9 0 4 2 -1.</_>
        <_>
          9 1 4 1 2.</_></rects>
      <tilted>0</tilted></_>
    <_>
      <rects>
        <_>
          9 0 4 6 -1.</_>
        <_>
          9 2 4 2 3.</_></rects>
      <tilted>0</tilted></_>
    <_>
      <rects>
        <_>
          9 0 5 9 -1.</_>
        <_>
          9 3 5 3 3.</_></rects>
      <tilted>0</tilted></_>
    <_>
      <rects>
        <_>
          9 1 3 3 -1.</_>
        <_>
          9 2 3 1 3.</_></rects>
      <tilted>0</tilted></_>
    <_>
      <rects>
        <_>
          9 2 1 2 -1.</_>
        <_>
          9 3 1 1 2.</_></rects>
      <tilted>0</tilted></_>
    <_>
      <rects>
        <_>
          9 2 3 1 -1.</_>
        <_>
          10 2 1 1 3.</_></rects>
      <tilted>0</tilted></_>
    <_>
      <rects>
        <_>
          9 2 5 3 -1.</_>
        <_>
          9 3 5 1 3.</_></rects>
      <tilted>0</tilted></_>
    <_>
      <rects>
        <_>
          9 3 2 1 -1.</_>
        <_>
          10 3 1 1 2.</_></rects>
      <tilted>0</tilted></_>
    <_>
      <rects>
        <_>
          9 3 3 1 -1.</_>
        <_>
          10 3 1 1 3.</_></rects>
      <tilted>0</tilted></_>
    <_>
      <rects>
        <_>
          9 3 4 1 -1.</_>
        <_>
          11 3 2 1 2.</_></rects>
      <tilted>0</tilted></_>
    <_>
      <rects>
        <_>
          9 3 4 3 -1.</_>
        <_>
          9 4 4 1 3.</_></rects>
      <tilted>0</tilted></_>
    <_>
      <rects>
        <_>
          9 5 2 2 -1.</_>
        <_>
          9 6 2 1 2.</_></rects>
      <tilted>0</tilted></_>
    <_>
      <rects>
        <_>
          9 5 10 2 -1.</_>
        <_>
          9 5 5 1 2.</_>
        <_>
          14 6 5 1 2.</_></rects>
      <tilted>0</tilted></_>
    <_>
      <rects>
        <_>
          9 6 3 1 -1.</_>
        <_>
          10 6 1 1 3.</_></rects>
      <tilted>0</tilted></_>
    <_>
      <rects>
        <_>
          9 6 6 1 -1.</_>
        <_>
          11 6 2 1 3.</_></rects>
      <tilted>0</tilted></_>
    <_>
      <rects>
        <_>
          9 6 2 12 -1.</_>
        <_>
          9 10 2 4 3.</_></rects>
      <tilted>0</tilted></_>
    <_>
      <rects>
        <_>
          9 7 1 2 -1.</_>
        <_>
          9 8 1 1 2.</_></rects>
      <tilted>0</tilted></_>
    <_>
      <rects>
        <_>
          9 8 3 4 -1.</_>
        <_>
          10 8 1 4 3.</_></rects>
      <tilted>0</tilted></_>
    <_>
      <rects>
        <_>
          9 9 1 3 -1.</_>
        <_>
          9 10 1 1 3.</_></rects>
      <tilted>0</tilted></_>
    <_>
      <rects>
        <_>
          9 9 8 2 -1.</_>
        <_>
          13 9 4 2 2.</_></rects>
      <tilted>0</tilted></_>
    <_>
      <rects>
        <_>
          9 9 8 4 -1.</_>
        <_>
          9 11 8 2 2.</_></rects>
      <tilted>0</tilted></_>
    <_>
      <rects>
        <_>
          9 12 3 2 -1.</_>
        <_>
          10 12 1 2 3.</_></rects>
      <tilted>0</tilted></_>
    <_>
      <rects>
        <_>
          9 13 3 1 -1.</_>
        <_>
          10 13 1 1 3.</_></rects>
      <tilted>0</tilted></_>
    <_>
      <rects>
        <_>
          9 13 2 3 -1.</_>
        <_>
          9 14 2 1 3.</_></rects>
      <tilted>0</tilted></_>
    <_>
      <rects>
        <_>
          9 14 4 3 -1.</_>
        <_>
          9 15 4 1 3.</_></rects>
      <tilted>0</tilted></_>
    <_>
      <rects>
        <_>
          9 16 1 2 -1.</_>
        <_>
          9 17 1 1 2.</_></rects>
      <tilted>0</tilted></_>
    <_>
      <rects>
        <_>
          9 16 4 3 -1.</_>
        <_>
          9 17 4 1 3.</_></rects>
      <tilted>0</tilted></_>
    <_>
      <rects>
        <_>
          9 17 5 2 -1.</_>
        <_>
          9 18 5 1 2.</_></rects>
      <tilted>0</tilted></_>
    <_>
      <rects>
        <_>
          10 0 1 2 -1.</_>
        <_>
          10 1 1 1 2.</_></rects>
      <tilted>0</tilted></_>
    <_>
      <rects>
        <_>
          10 2 3 1 -1.</_>
        <_>
          11 2 1 1 3.</_></rects>
      <tilted>0</tilted></_>
    <_>
      <rects>
        <_>
          10 2 2 3 -1.</_>
        <_>
          10 3 2 1 3.</_></rects>
      <tilted>0</tilted></_>
    <_>
      <rects>
        <_>
          10 2 2 14 -1.</_>
        <_>
          10 9 2 7 2.</_></rects>
      <tilted>0</tilted></_>
    <_>
      <rects>
        <_>
          10 2 6 4 -1.</_>
        <_>
          10 2 3 2 2.</_>
        <_>
          13 4 3 2 2.</_></rects>
      <tilted>0</tilted></_>
    <_>
      <rects>
        <_>
          10 3 1 2 -1.</_>
        <_>
          10 4 1 1 2.</_></rects>
      <tilted>0</tilted></_>
    <_>
      <rects>
        <_>
          10 3 3 1 -1.</_>
        <_>
          11 3 1 1 3.</_></rects>
      <tilted>0</tilted></_>
    <_>
      <rects>
        <_>
          10 3 3 3 -1.</_>
        <_>
          10 4 3 1 3.</_></rects>
      <tilted>0</tilted></_>
    <_>
      <rects>
        <_>
          10 3 8 4 -1.</_>
        <_>
          10 3 4 2 2.</_>
        <_>
          14 5 4 2 2.</_></rects>
      <tilted>0</tilted></_>
    <_>
      <rects>
        <_>
          10 5 1 3 -1.</_>
        <_>
          10 6 1 1 3.</_></rects>
      <tilted>0</tilted></_>
    <_>
      <rects>
        <_>
          10 5 8 9 -1.</_>
        <_>
          10 8 8 3 3.</_></rects>
      <tilted>0</tilted></_>
    <_>
      <rects>
        <_>
          10 9 8 2 -1.</_>
        <_>
          14 9 4 2 2.</_></rects>
      <tilted>0</tilted></_>
    <_>
      <rects>
        <_>
          10 10 3 4 -1.</_>
        <_>
          11 10 1 4 3.</_></rects>
      <tilted>0</tilted></_>
    <_>
      <rects>
        <_>
          10 11 3 2 -1.</_>
        <_>
          11 11 1 2 3.</_></rects>
      <tilted>0</tilted></_>
    <_>
      <rects>
        <_>
          10 11 4 6 -1.</_>
        <_>
          10 11 2 3 2.</_>
        <_>
          12 14 2 3 2.</_></rects>
      <tilted>0</tilted></_>
    <_>
      <rects>
        <_>
          10 18 1 2 -1.</_>
        <_>
          10 19 1 1 2.</_></rects>
      <tilted>0</tilted></_>
    <_>
      <rects>
        <_>
          11 1 2 12 -1.</_>
        <_>
          11 7 2 6 2.</_></rects>
      <tilted>0</tilted></_>
    <_>
      <rects>
        <_>
          11 2 1 4 -1.</_>
        <_>
          11 4 1 2 2.</_></rects>
      <tilted>0</tilted></_>
    <_>
      <rects>
        <_>
          11 3 2 1 -1.</_>
        <_>
          12 3 1 1 2.</_></rects>
      <tilted>0</tilted></_>
    <_>
      <rects>
        <_>
          11 3 3 1 -1.</_>
        <_>
          12 3 1 1 3.</_></rects>
      <tilted>0</tilted></_>
    <_>
      <rects>
        <_>
          11 4 2 1 -1.</_>
        <_>
          12 4 1 1 2.</_></rects>
      <tilted>0</tilted></_>
    <_>
      <rects>
        <_>
          11 4 4 2 -1.</_>
        <_>
          11 4 2 1 2.</_>
        <_>
          13 5 2 1 2.</_></rects>
      <tilted>0</tilted></_>
    <_>
      <rects>
        <_>
          11 9 7 3 -1.</_>
        <_>
          11 10 7 1 3.</_></rects>
      <tilted>0</tilted></_>
    <_>
      <rects>
        <_>
          11 11 3 2 -1.</_>
        <_>
          12 11 1 2 3.</_></rects>
      <tilted>0</tilted></_>
    <_>
      <rects>
        <_>
          11 13 1 2 -1.</_>
        <_>
          11 14 1 1 2.</_></rects>
      <tilted>0</tilted></_>
    <_>
      <rects>
        <_>
          12 0 5 18 -1.</_>
        <_>
          12 6 5 6 3.</_></rects>
      <tilted>0</tilted></_>
    <_>
      <rects>
        <_>
          12 1 1 12 -1.</_>
        <_>
          12 7 1 6 2.</_></rects>
      <tilted>0</tilted></_>
    <_>
      <rects>
        <_>
          12 3 1 2 -1.</_>
        <_>
          12 4 1 1 2.</_></rects>
      <tilted>0</tilted></_>
    <_>
      <rects>
        <_>
          12 3 4 3 -1.</_>
        <_>
          14 3 2 3 2.</_></rects>
      <tilted>0</tilted></_>
    <_>
      <rects>
        <_>
          12 3 8 2 -1.</_>
        <_>
          16 3 4 2 2.</_></rects>
      <tilted>0</tilted></_>
    <_>
      <rects>
        <_>
          12 4 2 1 -1.</_>
        <_>
          13 4 1 1 2.</_></rects>
      <tilted>0</tilted></_>
    <_>
      <rects>
        <_>
          12 4 3 1 -1.</_>
        <_>
          13 4 1 1 3.</_></rects>
      <tilted>0</tilted></_>
    <_>
      <rects>
        <_>
          12 7 1 2 -1.</_>
        <_>
          12 8 1 1 2.</_></rects>
      <tilted>0</tilted></_>
    <_>
      <rects>
        <_>
          12 8 3 2 -1.</_>
        <_>
          12 9 3 1 2.</_></rects>
      <tilted>0</tilted></_>
    <_>
      <rects>
        <_>
          12 10 1 2 -1.</_>
        <_>
          12 11 1 1 2.</_></rects>
      <tilted>0</tilted></_>
    <_>
      <rects>
        <_>
          13 3 3 7 -1.</_>
        <_>
          14 3 1 7 3.</_></rects>
      <tilted>0</tilted></_>
    <_>
      <rects>
        <_>
          13 4 1 2 -1.</_>
        <_>
          13 5 1 1 2.</_></rects>
      <tilted>0</tilted></_>
    <_>
      <rects>
        <_>
          13 4 2 2 -1.</_>
        <_>
          14 4 1 2 2.</_></rects>
      <tilted>0</tilted></_>
    <_>
      <rects>
        <_>
          13 4 3 2 -1.</_>
        <_>
          14 4 1 2 3.</_></rects>
      <tilted>0</tilted></_>
    <_>
      <rects>
        <_>
          13 4 2 3 -1.</_>
        <_>
          14 4 1 3 2.</_></rects>
      <tilted>0</tilted></_>
    <_>
      <rects>
        <_>
          13 4 2 6 -1.</_>
        <_>
          14 4 1 6 2.</_></rects>
      <tilted>0</tilted></_>
    <_>
      <rects>
        <_>
          13 7 2 2 -1.</_>
        <_>
          13 7 1 1 2.</_>
        <_>
          14 8 1 1 2.</_></rects>
      <tilted>0</tilted></_>
    <_>
      <rects>
        <_>
          13 8 1 2 -1.</_>
        <_>
          13 9 1 1 2.</_></rects>
      <tilted>0</tilted></_>
    <_>
      <rects>
        <_>
          13 8 2 2 -1.</_>
        <_>
          13 8 1 1 2.</_>
        <_>
          14 9 1 1 2.</_></rects>
      <tilted>0</tilted></_>
    <_>
      <rects>
        <_>
          13 10 2 1 -1.</_>
        <_>
          14 10 1 1 2.</_></rects>
      <tilted>0</tilted></_>
    <_>
      <rects>
        <_>
          13 14 2 2 -1.</_>
        <_>
          13 14 1 1 2.</_>
        <_>
          14 15 1 1 2.</_></rects>
      <tilted>0</tilted></_>
    <_>
      <rects>
        <_>
          13 17 2 1 -1.</_>
        <_>
          14 17 1 1 2.</_></rects>
      <tilted>0</tilted></_>
    <_>
      <rects>
        <_>
          14 4 1 2 -1.</_>
        <_>
          14 5 1 1 2.</_></rects>
      <tilted>0</tilted></_>
    <_>
      <rects>
        <_>
          14 4 2 3 -1.</_>
        <_>
          15 4 1 3 2.</_></rects>
      <tilted>0</tilted></_>
    <_>
      <rects>
        <_>
          14 4 3 3 -1.</_>
        <_>
          15 4 1 3 3.</_></rects>
      <tilted>0</tilted></_>
    <_>
      <rects>
        <_>
          14 5 2 1 -1.</_>
        <_>
          15 5 1 1 2.</_></rects>
      <tilted>0</tilted></_>
    <_>
      <rects>
        <_>
          14 5 2 2 -1.</_>
        <_>
          14 5 1 1 2.</_>
        <_>
          15 6 1 1 2.</_></rects>
      <tilted>0</tilted></_>
    <_>
      <rects>
        <_>
          14 5 2 4 -1.</_>
        <_>
          15 5 1 4 2.</_></rects>
      <tilted>0</tilted></_>
    <_>
      <rects>
        <_>
          14 7 3 2 -1.</_>
        <_>
          14 8 3 1 2.</_></rects>
      <tilted>0</tilted></_>
    <_>
      <rects>
        <_>
          14 8 2 2 -1.</_>
        <_>
          14 8 1 1 2.</_>
        <_>
          15 9 1 1 2.</_></rects>
      <tilted>0</tilted></_>
    <_>
      <rects>
        <_>
          14 16 4 3 -1.</_>
        <_>
          16 16 2 3 2.</_></rects>
      <tilted>0</tilted></_>
    <_>
      <rects>
        <_>
          15 5 2 3 -1.</_>
        <_>
          15 6 2 1 3.</_></rects>
      <tilted>0</tilted></_>
    <_>
      <rects>
        <_>
          15 5 4 12 -1.</_>
        <_>
          15 5 2 6 2.</_>
        <_>
          17 11 2 6 2.</_></rects>
      <tilted>0</tilted></_>
    <_>
      <rects>
        <_>
          15 6 1 2 -1.</_>
        <_>
          15 7 1 1 2.</_></rects>
      <tilted>0</tilted></_>
    <_>
      <rects>
        <_>
          15 6 2 2 -1.</_>
        <_>
          16 6 1 2 2.</_></rects>
      <tilted>0</tilted></_>
    <_>
      <rects>
        <_>
          15 7 2 3 -1.</_>
        <_>
          15 8 2 1 3.</_></rects>
      <tilted>0</tilted></_>
    <_>
      <rects>
        <_>
          15 8 2 3 -1.</_>
        <_>
          15 9 2 1 3.</_></rects>
      <tilted>0</tilted></_>
    <_>
      <rects>
        <_>
          15 11 4 4 -1.</_>
        <_>
          17 11 2 4 2.</_></rects>
      <tilted>0</tilted></_>
    <_>
      <rects>
        <_>
          15 13 3 3 -1.</_>
        <_>
          16 13 1 3 3.</_></rects>
      <tilted>0</tilted></_>
    <_>
      <rects>
        <_>
          16 6 2 2 -1.</_>
        <_>
          17 6 1 2 2.</_></rects>
      <tilted>0</tilted></_>
    <_>
      <rects>
        <_>
          16 6 2 3 -1.</_>
        <_>
          16 7 2 1 3.</_></rects>
      <tilted>0</tilted></_>
    <_>
      <rects>
        <_>
          16 6 4 6 -1.</_>
        <_>
          18 6 2 6 2.</_></rects>
      <tilted>0</tilted></_>
    <_>
      <rects>
        <_>
          16 7 1 3 -1.</_>
        <_>
          16 8 1 1 3.</_></rects>
      <tilted>0</tilted></_>
    <_>
      <rects>
        <_>
          16 7 4 5 -1.</_>
        <_>
          18 7 2 5 2.</_></rects>
      <tilted>0</tilted></_>
    <_>
      <rects>
        <_>
          16 8 4 5 -1.</_>
        <_>
          18 8 2 5 2.</_></rects>
      <tilted>0</tilted></_>
    <_>
      <rects>
        <_>
          17 10 2 2 -1.</_>
        <_>
          18 10 1 2 2.</_></rects>
      <tilted>0</tilted></_>
    <_>
      <rects>
        <_>
          18 5 2 11 -1.</_>
        <_>
          19 5 1 11 2.</_></rects>
      <tilted>0</tilted></_>
    <_>
      <rects>
        <_>
          18 10 2 4 -1.</_>
        <_>
          19 10 1 4 2.</_></rects>
      <tilted>0</tilted></_></features></cascade>
</opencv_storage>
