<?xml version="1.0"?>
<opencv_storage>
<stage9>
  <maxWeakCount>22</maxWeakCount>
  <stageThreshold>-7.7722400426864624e-01</stageThreshold>
  <weakClassifiers>
    <_>
      <internalNodes>
        0 -1 29820 -8.5513340309262276e-05</internalNodes>
      <leafValues>
        5.1260507106781006e-01 -3.5483869910240173e-01</leafValues></_>
    <_>
      <internalNodes>
        0 -1 52695 4.7896453179419041e-03</internalNodes>
      <leafValues>
        -2.0298655331134796e-01 4.4382533431053162e-01</leafValues></_>
    <_>
      <internalNodes>
        0 -1 58538 -6.2684277072548866e-03</internalNodes>
      <leafValues>
        5.6752687692642212e-01 -1.5214577317237854e-01</leafValues></_>
    <_>
      <internalNodes>
        0 -1 63330 2.2589619038626552e-04</internalNodes>
      <leafValues>
        1.2523046135902405e-01 -5.8017152547836304e-01</leafValues></_>
    <_>
      <internalNodes>
        0 -1 46487 -1.5912306844256818e-04</internalNodes>
      <leafValues>
        -6.6792595386505127e-01 1.1905135214328766e-01</leafValues></_>
    <_>
      <internalNodes>
        0 -1 31963 -9.6610002219676971e-04</internalNodes>
      <leafValues>
        -5.8704024553298950e-01 1.2104325741529465e-01</leafValues></_>
    <_>
      <internalNodes>
        0 -1 77411 3.2556727528572083e-03</internalNodes>
      <leafValues>
        -2.1080987155437469e-01 3.8568872213363647e-01</leafValues></_>
    <_>
      <internalNodes>
        0 -1 56705 4.2674046009778976e-02</internalNodes>
      <leafValues>
        -1.2216777354478836e-01 7.3057514429092407e-01</leafValues></_>
    <_>
      <internalNodes>
        0 -1 55891 -1.7012822208926082e-03</internalNodes>
      <leafValues>
        3.1879609823226929e-01 -2.1807369589805603e-01</leafValues></_>
    <_>
      <internalNodes>
        0 -1 66629 -2.7735135518014431e-03</internalNodes>
      <leafValues>
        2.5781565904617310e-01 -2.9312956333160400e-01</leafValues></_>
    <_>
      <internalNodes>
        0 -1 12186 -3.7380256690084934e-03</internalNodes>
      <leafValues>
        3.3362188935279846e-01 -2.5246024131774902e-01</leafValues></_>
    <_>
      <internalNodes>
        0 -1 29902 7.3928423225879669e-02</internalNodes>
      <leafValues>
        9.0068556368350983e-02 -7.7890634536743164e-01</leafValues></_>
    <_>
      <internalNodes>
        0 -1 25001 -2.4486079346388578e-03</internalNodes>
      <leafValues>
        -6.6064959764480591e-01 1.0961224138736725e-01</leafValues></_>
    <_>
      <internalNodes>
        0 -1 64874 5.7483161799609661e-03</internalNodes>
      <leafValues>
        9.7606308758258820e-02 -7.0605385303497314e-01</leafValues></_>
    <_>
      <internalNodes>
        0 -1 51048 -5.5837757885456085e-02</internalNodes>
      <leafValues>
        -7.1246474981307983e-01 9.2098064720630646e-02</leafValues></_>
    <_>
      <internalNodes>
        0 -1 42165 3.1015006243251264e-04</internalNodes>
      <leafValues>
        -2.4889406561851501e-01 3.3129119873046875e-01</leafValues></_>
    <_>
      <internalNodes>
        0 -1 70144 -6.1874114908277988e-04</internalNodes>
      <leafValues>
        4.2042639851570129e-01 -2.0875602960586548e-01</leafValues></_>
    <_>
      <internalNodes>
        0 -1 30708 6.4595930278301239e-02</internalNodes>
      <leafValues>
        1.1462955921888351e-01 -6.7977106571197510e-01</leafValues></_>
    <_>
      <internalNodes>
        0 -1 47968 9.8296450451016426e-03</internalNodes>
      <leafValues>
        -1.1309956014156342e-01 7.6275205612182617e-01</leafValues></_>
    <_>
      <internalNodes>
        0 -1 41329 1.4191849913913757e-04</internalNodes>
      <leafValues>
        1.6600699722766876e-01 -5.0046241283416748e-01</leafValues></_>
    <_>
      <internalNodes>
        0 -1 57498 -1.1157518252730370e-02</internalNodes>
      <leafValues>
        -6.1659151315689087e-01 1.1297352612018585e-01</leafValues></_>
    <_>
      <internalNodes>
        0 -1 57170 7.9229916445910931e-04</internalNodes>
      <leafValues>
        -2.8493276238441467e-01 2.4990735948085785e-01</leafValues></_></weakClassifiers></stage9>
</opencv_storage>
