<?xml version="1.0"?>
<opencv_storage>
<stage8>
  <maxWeakCount>15</maxWeakCount>
  <stageThreshold>-8.1630462408065796e-01</stageThreshold>
  <weakClassifiers>
    <_>
      <internalNodes>
        0 -1 11039 -1.6844250261783600e-02</internalNodes>
      <leafValues>
        6.9910627603530884e-01 -1.5007215738296509e-01</leafValues></_>
    <_>
      <internalNodes>
        0 -1 76245 1.7767507582902908e-02</internalNodes>
      <leafValues>
        -2.3517021536827087e-01 8.3332586288452148e-01</leafValues></_>
    <_>
      <internalNodes>
        0 -1 68665 3.0113584361970425e-03</internalNodes>
      <leafValues>
        -1.5219752490520477e-01 8.6106210947036743e-01</leafValues></_>
    <_>
      <internalNodes>
        0 -1 54523 -2.4018156182137318e-05</internalNodes>
      <leafValues>
        7.7746421098709106e-01 -2.4939331412315369e-01</leafValues></_>
    <_>
      <internalNodes>
        0 -1 74243 2.0725930880871601e-05</internalNodes>
      <leafValues>
        5.0787252187728882e-01 -4.2129933834075928e-01</leafValues></_>
    <_>
      <internalNodes>
        0 -1 49920 9.5224846154451370e-04</internalNodes>
      <leafValues>
        -1.9036164879798889e-01 1.</leafValues></_>
    <_>
      <internalNodes>
        0 -1 45029 -2.6100780814886093e-04</internalNodes>
      <leafValues>
        6.7375242710113525e-01 -2.3801289498806000e-01</leafValues></_>
    <_>
      <internalNodes>
        0 -1 10797 -2.9139253310859203e-03</internalNodes>
      <leafValues>
        6.6347306966781616e-01 -2.8117275238037109e-01</leafValues></_>
    <_>
      <internalNodes>
        0 -1 32771 -5.2655144827440381e-05</internalNodes>
      <leafValues>
        -4.5842945575714111e-01 4.2838099598884583e-01</leafValues></_>
    <_>
      <internalNodes>
        0 -1 45567 -2.0068308338522911e-02</internalNodes>
      <leafValues>
        7.7099770307540894e-01 -2.5192552804946899e-01</leafValues></_>
    <_>
      <internalNodes>
        0 -1 60640 5.9797526337206364e-03</internalNodes>
      <leafValues>
        -2.2986479103565216e-01 8.2759588956832886e-01</leafValues></_>
    <_>
      <internalNodes>
        0 -1 27944 1.0939991334453225e-03</internalNodes>
      <leafValues>
        -2.8667980432510376e-01 6.3743042945861816e-01</leafValues></_>
    <_>
      <internalNodes>
        0 -1 59651 -2.9269512742757797e-04</internalNodes>
      <leafValues>
        -7.0272648334503174e-01 2.8489634394645691e-01</leafValues></_>
    <_>
      <internalNodes>
        0 -1 72095 1.5734405023977160e-03</internalNodes>
      <leafValues>
        -2.1534749865531921e-01 9.6992033720016479e-01</leafValues></_>
    <_>
      <internalNodes>
        0 -1 30301 -7.7761500142514706e-04</internalNodes>
      <leafValues>
        4.2285037040710449e-01 -4.7743147611618042e-01</leafValues></_></weakClassifiers></stage8>
</opencv_storage>
