<?xml version="1.0"?>
<opencv_storage>
<stage12>
  <maxWeakCount>26</maxWeakCount>
  <stageThreshold>-8.5321390628814697e-01</stageThreshold>
  <weakClassifiers>
    <_>
      <internalNodes>
        0 -1 42598 -1.1527296155691147e-02</internalNodes>
      <leafValues>
        7.2008544206619263e-01 1.0904584825038910e-01</leafValues></_>
    <_>
      <internalNodes>
        0 -1 66804 2.4033889349084347e-04</internalNodes>
      <leafValues>
        2.0653654634952545e-01 -4.8215630650520325e-01</leafValues></_>
    <_>
      <internalNodes>
        0 -1 69607 -2.0422495435923338e-04</internalNodes>
      <leafValues>
        1.9058127701282501e-01 -4.4502300024032593e-01</leafValues></_>
    <_>
      <internalNodes>
        0 -1 62367 8.9290388859808445e-04</internalNodes>
      <leafValues>
        -2.4188368022441864e-01 3.0728009343147278e-01</leafValues></_>
    <_>
      <internalNodes>
        0 -1 24504 1.4836335321888328e-04</internalNodes>
      <leafValues>
        1.3750185072422028e-01 -4.3126755952835083e-01</leafValues></_>
    <_>
      <internalNodes>
        0 -1 61632 -9.9149823654443026e-04</internalNodes>
      <leafValues>
        2.8317740559577942e-01 -2.5460177659988403e-01</leafValues></_>
    <_>
      <internalNodes>
        0 -1 2869 6.2501430511474609e-02</internalNodes>
      <leafValues>
        -7.4761733412742615e-02 8.4466600418090820e-01</leafValues></_>
    <_>
      <internalNodes>
        0 -1 1110 -1.0372614860534668e-01</internalNodes>
      <leafValues>
        3.4706434607505798e-01 -2.5917944312095642e-01</leafValues></_>
    <_>
      <internalNodes>
        0 -1 24952 -1.9568228162825108e-04</internalNodes>
      <leafValues>
        -3.2212340831756592e-01 1.8438175320625305e-01</leafValues></_>
    <_>
      <internalNodes>
        0 -1 75971 -1.5751908067613840e-03</internalNodes>
      <leafValues>
        -5.4973167181015015e-01 1.3629907369613647e-01</leafValues></_>
    <_>
      <internalNodes>
        0 -1 67957 -6.9064868148416281e-04</internalNodes>
      <leafValues>
        -6.8171417713165283e-01 7.9736210405826569e-02</leafValues></_>
    <_>
      <internalNodes>
        0 -1 65066 -1.1909494642168283e-03</internalNodes>
      <leafValues>
        2.7164661884307861e-01 -2.7203688025474548e-01</leafValues></_>
    <_>
      <internalNodes>
        0 -1 57959 -2.2538064513355494e-03</internalNodes>
      <leafValues>
        4.4241905212402344e-01 -1.7345295846462250e-01</leafValues></_>
    <_>
      <internalNodes>
        0 -1 25807 2.9986966401338577e-03</internalNodes>
      <leafValues>
        1.0973528772592545e-01 -7.0342195034027100e-01</leafValues></_>
    <_>
      <internalNodes>
        0 -1 58127 -2.1459173876792192e-03</internalNodes>
      <leafValues>
        3.1268870830535889e-01 -2.0751123130321503e-01</leafValues></_>
    <_>
      <internalNodes>
        0 -1 41750 1.5741123934276402e-04</internalNodes>
      <leafValues>
        1.6331218183040619e-01 -4.4102227687835693e-01</leafValues></_>
    <_>
      <internalNodes>
        0 -1 36219 7.0405541919171810e-05</internalNodes>
      <leafValues>
        -3.3950126171112061e-01 2.1715703606605530e-01</leafValues></_>
    <_>
      <internalNodes>
        0 -1 54480 -8.3984266966581345e-03</internalNodes>
      <leafValues>
        5.3410416841506958e-01 -1.3529390096664429e-01</leafValues></_>
    <_>
      <internalNodes>
        0 -1 58290 -1.0643333196640015e-02</internalNodes>
      <leafValues>
        6.9465786218643188e-01 -8.6135469377040863e-02</leafValues></_>
    <_>
      <internalNodes>
        0 -1 30355 -3.7827950436621904e-03</internalNodes>
      <leafValues>
        -6.4868617057800293e-01 1.1922871321439743e-01</leafValues></_>
    <_>
      <internalNodes>
        0 -1 40731 3.6538630723953247e-02</internalNodes>
      <leafValues>
        1.2661415338516235e-01 -5.0044769048690796e-01</leafValues></_>
    <_>
      <internalNodes>
        0 -1 47926 2.5930847041308880e-03</internalNodes>
      <leafValues>
        -1.3547179102897644e-01 5.7620060443878174e-01</leafValues></_>
    <_>
      <internalNodes>
        0 -1 42167 6.0551601927727461e-04</internalNodes>
      <leafValues>
        -3.1588986515998840e-01 2.5016203522682190e-01</leafValues></_>
    <_>
      <internalNodes>
        0 -1 72211 5.9152902394998819e-05</internalNodes>
      <leafValues>
        1.7120254039764404e-01 -4.3679201602935791e-01</leafValues></_>
    <_>
      <internalNodes>
        0 -1 59653 4.6852306695654988e-04</internalNodes>
      <leafValues>
        1.3742367923259735e-01 -4.9792268872261047e-01</leafValues></_>
    <_>
      <internalNodes>
        0 -1 70971 2.1746756974607706e-03</internalNodes>
      <leafValues>
        -1.3947843015193939e-01 6.2084621191024780e-01</leafValues></_></weakClassifiers></stage12>
</opencv_storage>
