<?xml version="1.0"?>
<opencv_storage>
<stage6>
  <maxWeakCount>64</maxWeakCount>
  <stageThreshold>-6.2414455413818359e-01</stageThreshold>
  <weakClassifiers>
    <_>
      <internalNodes>
        0 -1 19983 -9.8304008133709431e-04</internalNodes>
      <leafValues>
        6.1623245477676392e-01 -2.1367521956562996e-02</leafValues></_>
    <_>
      <internalNodes>
        0 -1 51126 -2.7607842348515987e-03</internalNodes>
      <leafValues>
        2.7047726511955261e-01 -3.8842043280601501e-01</leafValues></_>
    <_>
      <internalNodes>
        0 -1 48099 2.8725221753120422e-02</internalNodes>
      <leafValues>
        -1.9033852219581604e-01 4.1452828049659729e-01</leafValues></_>
    <_>
      <internalNodes>
        0 -1 46490 6.4605515217408538e-04</internalNodes>
      <leafValues>
        1.3903464376926422e-01 -5.5089300870895386e-01</leafValues></_>
    <_>
      <internalNodes>
        0 -1 46870 -1.2209276610519737e-04</internalNodes>
      <leafValues>
        -8.1037867069244385e-01 8.9042045176029205e-02</leafValues></_>
    <_>
      <internalNodes>
        0 -1 57552 4.9607059918344021e-04</internalNodes>
      <leafValues>
        -4.3523523211479187e-01 1.5162952244281769e-01</leafValues></_>
    <_>
      <internalNodes>
        0 -1 66802 3.7033332046121359e-04</internalNodes>
      <leafValues>
        7.9673320055007935e-02 -6.9634610414505005e-01</leafValues></_>
    <_>
      <internalNodes>
        0 -1 70266 -3.1455036252737045e-02</internalNodes>
      <leafValues>
        -8.3734875917434692e-01 1.0662154294550419e-02</leafValues></_>
    <_>
      <internalNodes>
        0 -1 46780 -4.0697092190384865e-03</internalNodes>
      <leafValues>
        2.7380004525184631e-01 -2.1552941203117371e-01</leafValues></_>
    <_>
      <internalNodes>
        0 -1 30304 1.6065365634858608e-03</internalNodes>
      <leafValues>
        -1.8604955077171326e-01 3.2723417878150940e-01</leafValues></_>
    <_>
      <internalNodes>
        0 -1 24679 9.0174198150634766e-02</internalNodes>
      <leafValues>
        7.5337387621402740e-02 -6.5506249666213989e-01</leafValues></_>
    <_>
      <internalNodes>
        0 -1 26821 -4.6364162117242813e-03</internalNodes>
      <leafValues>
        -5.9333544969558716e-01 9.0900368988513947e-02</leafValues></_>
    <_>
      <internalNodes>
        0 -1 41329 1.2123845226597041e-04</internalNodes>
      <leafValues>
        1.2803210318088531e-01 -3.9792385697364807e-01</leafValues></_>
    <_>
      <internalNodes>
        0 -1 58032 6.2410263344645500e-03</internalNodes>
      <leafValues>
        -1.4190702140331268e-01 4.2070546746253967e-01</leafValues></_>
    <_>
      <internalNodes>
        0 -1 76156 -3.1334133818745613e-03</internalNodes>
      <leafValues>
        -5.7903951406478882e-01 1.0149452090263367e-01</leafValues></_>
    <_>
      <internalNodes>
        0 -1 12186 -2.8890478424727917e-03</internalNodes>
      <leafValues>
        2.5844469666481018e-01 -2.1355964243412018e-01</leafValues></_>
    <_>
      <internalNodes>
        0 -1 19637 2.1378956735134125e-03</internalNodes>
      <leafValues>
        -1.2589897215366364e-01 5.1664805412292480e-01</leafValues></_>
    <_>
      <internalNodes>
        0 -1 36484 -1.0043937712907791e-02</internalNodes>
      <leafValues>
        -4.2623934149742126e-01 1.5479452908039093e-01</leafValues></_>
    <_>
      <internalNodes>
        0 -1 52695 2.2540106438100338e-03</internalNodes>
      <leafValues>
        -2.2770027816295624e-01 2.6329386234283447e-01</leafValues></_>
    <_>
      <internalNodes>
        0 -1 36765 4.6785539016127586e-03</internalNodes>
      <leafValues>
        -1.3096471130847931e-01 4.4689857959747314e-01</leafValues></_>
    <_>
      <internalNodes>
        0 -1 55779 9.7996345721185207e-04</internalNodes>
      <leafValues>
        1.2894351780414581e-01 -4.6670833230018616e-01</leafValues></_>
    <_>
      <internalNodes>
        0 -1 65651 6.2086554244160652e-03</internalNodes>
      <leafValues>
        -1.3321988284587860e-01 4.0626090764999390e-01</leafValues></_>
    <_>
      <internalNodes>
        0 -1 67636 4.8770802095532417e-03</internalNodes>
      <leafValues>
        6.7935004830360413e-02 -8.4979510307312012e-01</leafValues></_>
    <_>
      <internalNodes>
        0 -1 58479 -1.0961014777421951e-02</internalNodes>
      <leafValues>
        4.4447052478790283e-01 -1.4025951921939850e-01</leafValues></_>
    <_>
      <internalNodes>
        0 -1 57954 -9.8215683829039335e-04</internalNodes>
      <leafValues>
        4.2241710424423218e-01 -1.1356227844953537e-01</leafValues></_>
    <_>
      <internalNodes>
        0 -1 38465 -3.6196755245327950e-03</internalNodes>
      <leafValues>
        2.1698053181171417e-01 -2.5929260253906250e-01</leafValues></_>
    <_>
      <internalNodes>
        0 -1 72310 4.3837889097630978e-03</internalNodes>
      <leafValues>
        7.7425807714462280e-02 -7.1345126628875732e-01</leafValues></_>
    <_>
      <internalNodes>
        0 -1 34612 6.1643868684768677e-03</internalNodes>
      <leafValues>
        -1.0952398180961609e-01 5.4717248678207397e-01</leafValues></_>
    <_>
      <internalNodes>
        0 -1 24953 2.0957211381755769e-04</internalNodes>
      <leafValues>
        1.6078105568885803e-01 -3.7225365638732910e-01</leafValues></_>
    <_>
      <internalNodes>
        0 -1 6149 3.1743582803755999e-04</internalNodes>
      <leafValues>
        1.4177566766738892e-01 -4.1013598442077637e-01</leafValues></_>
    <_>
      <internalNodes>
        0 -1 46874 1.0883407958317548e-04</internalNodes>
      <leafValues>
        -2.9069405794143677e-01 2.4070972204208374e-01</leafValues></_>
    <_>
      <internalNodes>
        0 -1 53680 -1.4607806224375963e-03</internalNodes>
      <leafValues>
        3.0267876386642456e-01 -1.9611275196075439e-01</leafValues></_>
    <_>
      <internalNodes>
        0 -1 55860 -4.0117383003234863e-02</internalNodes>
      <leafValues>
        -5.6273770332336426e-01 1.0373496264219284e-01</leafValues></_>
    <_>
      <internalNodes>
        0 -1 26317 2.0539116114377975e-02</internalNodes>
      <leafValues>
        7.7736996114253998e-02 -6.8016713857650757e-01</leafValues></_>
    <_>
      <internalNodes>
        0 -1 35623 3.0287683010101318e-02</internalNodes>
      <leafValues>
        1.0525462776422501e-01 -4.6238869428634644e-01</leafValues></_>
    <_>
      <internalNodes>
        0 -1 44929 -1.1506637092679739e-03</internalNodes>
      <leafValues>
        3.3961254358291626e-01 -1.5613436698913574e-01</leafValues></_>
    <_>
      <internalNodes>
        0 -1 50849 -2.2364540491253138e-03</internalNodes>
      <leafValues>
        -7.7716159820556641e-01 7.1593850851058960e-02</leafValues></_>
    <_>
      <internalNodes>
        0 -1 50495 6.8037398159503937e-03</internalNodes>
      <leafValues>
        -1.5853598713874817e-01 3.6385539174079895e-01</leafValues></_>
    <_>
      <internalNodes>
        0 -1 72212 -1.1169214849360287e-04</internalNodes>
      <leafValues>
        -3.6735948920249939e-01 1.6444702446460724e-01</leafValues></_>
    <_>
      <internalNodes>
        0 -1 35168 3.2281648367643356e-02</internalNodes>
      <leafValues>
        -1.3206484913825989e-01 4.6581920981407166e-01</leafValues></_>
    <_>
      <internalNodes>
        0 -1 28261 -1.7021173611283302e-02</internalNodes>
      <leafValues>
        3.0450043082237244e-01 -2.0371349155902863e-01</leafValues></_>
    <_>
      <internalNodes>
        0 -1 69619 -1.2509232386946678e-02</internalNodes>
      <leafValues>
        -8.1513249874114990e-01 6.0623180121183395e-02</leafValues></_>
    <_>
      <internalNodes>
        0 -1 63912 -4.1459314525127411e-03</internalNodes>
      <leafValues>
        6.1749148368835449e-01 -9.3275621533393860e-02</leafValues></_>
    <_>
      <internalNodes>
        0 -1 66565 -1.1649614316411316e-04</internalNodes>
      <leafValues>
        -5.6184172630310059e-01 1.0102849453687668e-01</leafValues></_>
    <_>
      <internalNodes>
        0 -1 25805 1.4716838486492634e-03</internalNodes>
      <leafValues>
        9.0213268995285034e-02 -5.2194899320602417e-01</leafValues></_>
    <_>
      <internalNodes>
        0 -1 43856 2.2818300873041153e-02</internalNodes>
      <leafValues>
        5.8412149548530579e-02 -7.5710040330886841e-01</leafValues></_>
    <_>
      <internalNodes>
        0 -1 40587 -1.2797182798385620e-01</internalNodes>
      <leafValues>
        8.4098780155181885e-01 -6.5473951399326324e-02</leafValues></_>
    <_>
      <internalNodes>
        0 -1 74362 8.0284436990041286e-05</internalNodes>
      <leafValues>
        1.6582940518856049e-01 -3.0866810679435730e-01</leafValues></_>
    <_>
      <internalNodes>
        0 -1 72218 2.4314102483913302e-04</internalNodes>
      <leafValues>
        1.2899431586265564e-01 -3.6950889229774475e-01</leafValues></_>
    <_>
      <internalNodes>
        0 -1 30731 -1.1850489681819454e-04</internalNodes>
      <leafValues>
        -2.9323583841323853e-01 1.6712364554405212e-01</leafValues></_>
    <_>
      <internalNodes>
        0 -1 33246 -7.0864502340555191e-03</internalNodes>
      <leafValues>
        -8.0639672279357910e-01 5.9427067637443542e-02</leafValues></_>
    <_>
      <internalNodes>
        0 -1 8013 -2.8294295072555542e-01</internalNodes>
      <leafValues>
        4.1658446192741394e-01 -1.2482149153947830e-01</leafValues></_>
    <_>
      <internalNodes>
        0 -1 44926 -5.7053635828197002e-04</internalNodes>
      <leafValues>
        3.6957925558090210e-01 -1.2986525893211365e-01</leafValues></_>
    <_>
      <internalNodes>
        0 -1 48813 8.2167447544634342e-04</internalNodes>
      <leafValues>
        -1.7572937905788422e-01 2.7360785007476807e-01</leafValues></_>
    <_>
      <internalNodes>
        0 -1 67087 -1.1477639200165868e-03</internalNodes>
      <leafValues>
        3.6962336301803589e-01 -1.2702822685241699e-01</leafValues></_>
    <_>
      <internalNodes>
        0 -1 57372 -3.8786090910434723e-02</internalNodes>
      <leafValues>
        -5.7448446750640869e-01 8.3661586046218872e-02</leafValues></_>
    <_>
      <internalNodes>
        0 -1 51260 4.2294872400816530e-05</internalNodes>
      <leafValues>
        -2.7780774235725403e-01 1.7843130230903625e-01</leafValues></_>
    <_>
      <internalNodes>
        0 -1 56045 5.1568867638707161e-04</internalNodes>
      <leafValues>
        1.4285445213317871e-01 -3.5863214731216431e-01</leafValues></_>
    <_>
      <internalNodes>
        0 -1 25128 -7.4312999844551086e-02</internalNodes>
      <leafValues>
        -8.8426965475082397e-01 5.5409848690032959e-02</leafValues></_>
    <_>
      <internalNodes>
        0 -1 11802 2.0015027374029160e-02</internalNodes>
      <leafValues>
        -9.9050931632518768e-02 6.3409358263015747e-01</leafValues></_>
    <_>
      <internalNodes>
        0 -1 62497 6.4791664481163025e-03</internalNodes>
      <leafValues>
        1.0974844545125961e-01 -4.9040424823760986e-01</leafValues></_>
    <_>
      <internalNodes>
        0 -1 62345 -3.0027581378817558e-03</internalNodes>
      <leafValues>
        3.3009758591651917e-01 -1.6149042546749115e-01</leafValues></_>
    <_>
      <internalNodes>
        0 -1 41749 1.0802688775584102e-03</internalNodes>
      <leafValues>
        5.7882640510797501e-02 -8.6210787296295166e-01</leafValues></_>
    <_>
      <internalNodes>
        0 -1 63033 9.3061680672690272e-05</internalNodes>
      <leafValues>
        1.5703694522380829e-01 -3.0769571661949158e-01</leafValues></_></weakClassifiers></stage6>
</opencv_storage>
