<?xml version="1.0"?>
<opencv_storage>
<stage2>
  <maxWeakCount>12</maxWeakCount>
  <stageThreshold>-8.4006994962692261e-01</stageThreshold>
  <weakClassifiers>
    <_>
      <internalNodes>
        0 -1 76081 1.2526059523224831e-02</internalNodes>
      <leafValues>
        -1.3833333551883698e-01 7.5259256362915039e-01</leafValues></_>
    <_>
      <internalNodes>
        0 -1 23186 8.4405001252889633e-03</internalNodes>
      <leafValues>
        -4.4456395506858826e-01 4.3230676651000977e-01</leafValues></_>
    <_>
      <internalNodes>
        0 -1 12223 -2.3836031556129456e-02</internalNodes>
      <leafValues>
        6.1987549066543579e-01 -2.3278126120567322e-01</leafValues></_>
    <_>
      <internalNodes>
        0 -1 51256 -1.9705772865563631e-04</internalNodes>
      <leafValues>
        -8.1082451343536377e-01 2.0197579264640808e-01</leafValues></_>
    <_>
      <internalNodes>
        0 -1 62817 1.0839834809303284e-02</internalNodes>
      <leafValues>
        1.2642481923103333e-01 -8.4973448514938354e-01</leafValues></_>
    <_>
      <internalNodes>
        0 -1 59403 -3.2962039113044739e-02</internalNodes>
      <leafValues>
        -7.7055674791336060e-01 1.7248155176639557e-01</leafValues></_>
    <_>
      <internalNodes>
        0 -1 69602 -2.2765171888750046e-04</internalNodes>
      <leafValues>
        2.0871528983116150e-01 -5.2103865146636963e-01</leafValues></_>
    <_>
      <internalNodes>
        0 -1 59653 -1.3072846923023462e-03</internalNodes>
      <leafValues>
        -8.5920518636703491e-01 1.6863831877708435e-01</leafValues></_>
    <_>
      <internalNodes>
        0 -1 51516 -2.0408479031175375e-03</internalNodes>
      <leafValues>
        3.5356095433235168e-01 -3.2585904002189636e-01</leafValues></_>
    <_>
      <internalNodes>
        0 -1 31169 -1.0056820610770956e-04</internalNodes>
      <leafValues>
        -5.1146286725997925e-01 2.1516731381416321e-01</leafValues></_>
    <_>
      <internalNodes>
        0 -1 42071 -4.9198828637599945e-03</internalNodes>
      <leafValues>
        5.2961796522140503e-01 -2.6601088047027588e-01</leafValues></_>
    <_>
      <internalNodes>
        0 -1 55594 -4.8725714441388845e-04</internalNodes>
      <leafValues>
        3.0311799049377441e-01 -4.9242940545082092e-01</leafValues></_></weakClassifiers></stage2>
</opencv_storage>
