<?xml version="1.0"?>
<opencv_storage>
<cascade>
  <stageType>BOOST</stageType>
  <featureType>HAAR</featureType>
  <height>20</height>
  <width>20</width>
  <stageParams>
    <boostType>GAB</boostType>
    <minHitRate>9.9500000476837158e-01</minHitRate>
    <maxFalseAlarm>4.0000000596046448e-01</maxFalseAlarm>
    <weightTrimRate>9.4999999999999996e-01</weightTrimRate>
    <maxDepth>1</maxDepth>
    <maxWeakCount>100</maxWeakCount></stageParams>
  <featureParams>
    <maxCatCount>0</maxCatCount>
    <featSize>1</featSize>
    <mode>BASIC</mode></featureParams>
  <stageNum>13</stageNum>
  <stages>
    <!-- stage 0 -->
    <_>
      <maxWeakCount>6</maxWeakCount>
      <stageThreshold>-4.6376639604568481e-01</stageThreshold>
      <weakClassifiers>
        <_>
          <internalNodes>
            0 -1 102 -1.0162160033360124e-03</internalNodes>
          <leafValues>
            -8.8451445102691650e-01 5.4725682735443115e-01</leafValues></_>
        <_>
          <internalNodes>
            0 -1 109 -3.0467379838228226e-03</internalNodes>
          <leafValues>
            6.2667524814605713e-01 -4.2951434850692749e-01</leafValues></_>
        <_>
          <internalNodes>
            0 -1 101 2.1464102901518345e-03</internalNodes>
          <leafValues>
            3.8171461224555969e-01 -8.9660882949829102e-01</leafValues></_>
        <_>
          <internalNodes>
            0 -1 196 -9.2461227905005217e-04</internalNodes>
          <leafValues>
            5.3837770223617554e-01 -5.1356941461563110e-01</leafValues></_>
        <_>
          <internalNodes>
            0 -1 188 3.3053286373615265e-02</internalNodes>
          <leafValues>
            -4.0204203128814697e-01 6.5047353506088257e-01</leafValues></_>
        <_>
          <internalNodes>
            0 -1 121 1.1838440550491214e-03</internalNodes>
          <leafValues>
            2.5630238652229309e-01 -8.7375122308731079e-01</leafValues></_></weakClassifiers></_>
    <!-- stage 1 -->
    <_>
      <maxWeakCount>7</maxWeakCount>
      <stageThreshold>-3.8913428783416748e-01</stageThreshold>
      <weakClassifiers>
        <_>
          <internalNodes>
            0 -1 123 -8.4896793123334646e-04</internalNodes>
          <leafValues>
            -8.8051950931549072e-01 5.4919171333312988e-01</leafValues></_>
        <_>
          <internalNodes>
            0 -1 4 -5.3139477968215942e-03</internalNodes>
          <leafValues>
            4.5007801055908203e-01 -4.7732082009315491e-01</leafValues></_>
        <_>
          <internalNodes>
            0 -1 124 -9.2290469910949469e-04</internalNodes>
          <leafValues>
            -8.0956804752349854e-01 2.7591010928153992e-01</leafValues></_>
        <_>
          <internalNodes>
            0 -1 89 -5.4874252527952194e-03</internalNodes>
          <leafValues>
            5.5435991287231445e-01 -3.9886084198951721e-01</leafValues></_>
        <_>
          <internalNodes>
            0 -1 122 1.2794805224984884e-03</internalNodes>
          <leafValues>
            2.3165383934974670e-01 -8.4608834981918335e-01</leafValues></_>
        <_>
          <internalNodes>
            0 -1 194 -3.9481101557612419e-03</internalNodes>
          <leafValues>
            4.7925847768783569e-01 -4.0669399499893188e-01</leafValues></_>
        <_>
          <internalNodes>
            0 -1 167 -4.0865401388145983e-04</internalNodes>
          <leafValues>
            -9.2888045310974121e-01 1.8685479462146759e-01</leafValues></_></weakClassifiers></_>
    <!-- stage 2 -->
    <_>
      <maxWeakCount>10</maxWeakCount>
      <stageThreshold>-7.0630866289138794e-01</stageThreshold>
      <weakClassifiers>
        <_>
          <internalNodes>
            0 -1 168 5.8471341617405415e-04</internalNodes>
          <leafValues>
            4.9667701125144958e-01 -9.2491465806961060e-01</leafValues></_>
        <_>
          <internalNodes>
            0 -1 107 -3.4076133742928505e-03</internalNodes>
          <leafValues>
            5.7103252410888672e-01 -3.5788080096244812e-01</leafValues></_>
        <_>
          <internalNodes>
            0 -1 150 -9.0719619765877724e-04</internalNodes>
          <leafValues>
            -8.4924918413162231e-01 2.2515593469142914e-01</leafValues></_>
        <_>
          <internalNodes>
            0 -1 58 -1.2446668930351734e-02</internalNodes>
          <leafValues>
            6.4303320646286011e-01 -2.9191023111343384e-01</leafValues></_>
        <_>
          <internalNodes>
            0 -1 135 2.9347481904551387e-04</internalNodes>
          <leafValues>
            -4.9664485454559326e-01 3.6721312999725342e-01</leafValues></_>
        <_>
          <internalNodes>
            0 -1 150 6.8743992596864700e-04</internalNodes>
          <leafValues>
            2.1763731539249420e-01 -8.7259531021118164e-01</leafValues></_>
        <_>
          <internalNodes>
            0 -1 21 -7.7113934094086289e-04</internalNodes>
          <leafValues>
            3.2229116559028625e-01 -4.6516478061676025e-01</leafValues></_>
        <_>
          <internalNodes>
            0 -1 79 -3.2068375730887055e-04</internalNodes>
          <leafValues>
            -6.9657033681869507e-01 1.6982641816139221e-01</leafValues></_>
        <_>
          <internalNodes>
            0 -1 26 3.8687534630298615e-02</internalNodes>
          <leafValues>
            -2.3858197033405304e-01 6.3435065746307373e-01</leafValues></_>
        <_>
          <internalNodes>
            0 -1 15 -1.3242968916893005e-01</internalNodes>
          <leafValues>
            -7.3231220245361328e-01 2.4512442946434021e-01</leafValues></_></weakClassifiers></_>
    <!-- stage 3 -->
    <_>
      <maxWeakCount>13</maxWeakCount>
      <stageThreshold>-7.6324135065078735e-01</stageThreshold>
      <weakClassifiers>
        <_>
          <internalNodes>
            0 -1 194 -1.8898900598287582e-03</internalNodes>
          <leafValues>
            6.0829776525497437e-01 -1.6136114299297333e-01</leafValues></_>
        <_>
          <internalNodes>
            0 -1 160 -1.9140791846439242e-04</internalNodes>
          <leafValues>
            -6.3468867540359497e-01 2.8716811537742615e-01</leafValues></_>
        <_>
          <internalNodes>
            0 -1 88 4.3905740603804588e-03</internalNodes>
          <leafValues>
            -3.2405424118041992e-01 5.5609500408172607e-01</leafValues></_>
        <_>
          <internalNodes>
            0 -1 83 3.8809305988252163e-04</internalNodes>
          <leafValues>
            -4.2362073063850403e-01 3.2086780667304993e-01</leafValues></_>
        <_>
          <internalNodes>
            0 -1 114 -1.7561588436365128e-02</internalNodes>
          <leafValues>
            5.5519139766693115e-01 -2.9887744784355164e-01</leafValues></_>
        <_>
          <internalNodes>
            0 -1 94 8.2334473729133606e-02</internalNodes>
          <leafValues>
            -1.8018352985382080e-01 7.0909041166305542e-01</leafValues></_>
        <_>
          <internalNodes>
            0 -1 81 1.2652047444134951e-03</internalNodes>
          <leafValues>
            2.4771112203598022e-01 -6.1090922355651855e-01</leafValues></_>
        <_>
          <internalNodes>
            0 -1 12 -2.4214866571128368e-03</internalNodes>
          <leafValues>
            4.2492020130157471e-01 -3.1975972652435303e-01</leafValues></_>
        <_>
          <internalNodes>
            0 -1 203 -3.7868816871196032e-03</internalNodes>
          <leafValues>
            6.1111623048782349e-01 -2.3003159463405609e-01</leafValues></_>
        <_>
          <internalNodes>
            0 -1 111 -2.2700410336256027e-03</internalNodes>
          <leafValues>
            3.3635652065277100e-01 -3.5202592611312866e-01</leafValues></_>
        <_>
          <internalNodes>
            0 -1 156 3.0080106807872653e-04</internalNodes>
          <leafValues>
            1.3129855692386627e-01 -9.2555761337280273e-01</leafValues></_>
        <_>
          <internalNodes>
            0 -1 110 9.0343747287988663e-03</internalNodes>
          <leafValues>
            -1.8174357712268829e-01 7.2534459829330444e-01</leafValues></_>
        <_>
          <internalNodes>
            0 -1 173 -1.6226394101977348e-02</internalNodes>
          <leafValues>
            4.5486998558044434e-01 -3.2303562760353088e-01</leafValues></_></weakClassifiers></_>
    <!-- stage 4 -->
    <_>
      <maxWeakCount>12</maxWeakCount>
      <stageThreshold>-6.2238562107086182e-01</stageThreshold>
      <weakClassifiers>
        <_>
          <internalNodes>
            0 -1 97 -4.0666066342964768e-04</internalNodes>
          <leafValues>
            -8.2692307233810425e-01 4.3637916445732117e-01</leafValues></_>
        <_>
          <internalNodes>
            0 -1 69 -7.8785959631204605e-03</internalNodes>
          <leafValues>
            6.4858233928680420e-01 -2.1051333844661713e-01</leafValues></_>
        <_>
          <internalNodes>
            0 -1 162 -4.0150847053155303e-04</internalNodes>
          <leafValues>
            3.9202743768692017e-01 -3.3771950006484985e-01</leafValues></_>
        <_>
          <internalNodes>
            0 -1 85 1.0639324784278870e-02</internalNodes>
          <leafValues>
            -3.3601194620132446e-01 6.4383214712142944e-01</leafValues></_>
        <_>
          <internalNodes>
            0 -1 125 -1.2657056504394859e-04</internalNodes>
          <leafValues>
            -6.0978877544403076e-01 2.6503300666809082e-01</leafValues></_>
        <_>
          <internalNodes>
            0 -1 143 1.7206806223839521e-03</internalNodes>
          <leafValues>
            -3.0461952090263367e-01 4.4660902023315430e-01</leafValues></_>
        <_>
          <internalNodes>
            0 -1 100 1.0536791523918509e-03</internalNodes>
          <leafValues>
            2.4352428317070007e-01 -8.0481231212615967e-01</leafValues></_>
        <_>
          <internalNodes>
            0 -1 61 -1.1914007365703583e-02</internalNodes>
          <leafValues>
            4.6679338812828064e-01 -2.9843425750732422e-01</leafValues></_>
        <_>
          <internalNodes>
            0 -1 5 -1.5772273764014244e-03</internalNodes>
          <leafValues>
            3.0936899781227112e-01 -3.7415659427642822e-01</leafValues></_>
        <_>
          <internalNodes>
            0 -1 195 1.7257523722946644e-03</internalNodes>
          <leafValues>
            1.5320624411106110e-01 -8.6367172002792358e-01</leafValues></_>
        <_>
          <internalNodes>
            0 -1 192 -1.4998601982370019e-03</internalNodes>
          <leafValues>
            -9.7036612033843994e-01 9.5770075917243958e-02</leafValues></_>
        <_>
          <internalNodes>
            0 -1 206 -1.5862321015447378e-03</internalNodes>
          <leafValues>
            3.3228781819343567e-01 -3.2511344552040100e-01</leafValues></_></weakClassifiers></_>
    <!-- stage 5 -->
    <_>
      <maxWeakCount>14</maxWeakCount>
      <stageThreshold>-4.9596568942070007e-01</stageThreshold>
      <weakClassifiers>
        <_>
          <internalNodes>
            0 -1 41 -5.4449276067316532e-03</internalNodes>
          <leafValues>
            -8.6440676450729370e-01 4.2267173528671265e-01</leafValues></_>
        <_>
          <internalNodes>
            0 -1 194 -5.2603357471525669e-03</internalNodes>
          <leafValues>
            4.0568584203720093e-01 -2.7788919210433960e-01</leafValues></_>
        <_>
          <internalNodes>
            0 -1 22 -2.8856825083494186e-03</internalNodes>
          <leafValues>
            3.3344382047653198e-01 -3.2751947641372681e-01</leafValues></_>
        <_>
          <internalNodes>
            0 -1 128 5.3048797417432070e-04</internalNodes>
          <leafValues>
            1.1732134222984314e-01 -8.5828542709350586e-01</leafValues></_>
        <_>
          <internalNodes>
            0 -1 144 2.6208184659481049e-02</internalNodes>
          <leafValues>
            -1.9391328096389771e-01 6.1817532777786255e-01</leafValues></_>
        <_>
          <internalNodes>
            0 -1 140 -2.4807048030197620e-03</internalNodes>
          <leafValues>
            4.2198514938354492e-01 -3.0189487338066101e-01</leafValues></_>
        <_>
          <internalNodes>
            0 -1 98 9.9350372329354286e-04</internalNodes>
          <leafValues>
            1.2650361657142639e-01 -8.0829513072967529e-01</leafValues></_>
        <_>
          <internalNodes>
            0 -1 183 3.0091840308159590e-03</internalNodes>
          <leafValues>
            8.9703232049942017e-02 -8.5495567321777344e-01</leafValues></_>
        <_>
          <internalNodes>
            0 -1 67 -2.5829193182289600e-03</internalNodes>
          <leafValues>
            4.9014922976493835e-01 -2.1747046709060669e-01</leafValues></_>
        <_>
          <internalNodes>
            0 -1 177 5.6185005232691765e-03</internalNodes>
          <leafValues>
            -2.3718504607677460e-01 5.6494456529617310e-01</leafValues></_>
        <_>
          <internalNodes>
            0 -1 157 -2.1495786495506763e-04</internalNodes>
          <leafValues>
            -6.8130815029144287e-01 1.6663545370101929e-01</leafValues></_>
        <_>
          <internalNodes>
            0 -1 14 1.0765587911009789e-02</internalNodes>
          <leafValues>
            -2.4089346826076508e-01 5.0445282459259033e-01</leafValues></_>
        <_>
          <internalNodes>
            0 -1 95 -2.1710167638957500e-03</internalNodes>
          <leafValues>
            5.0794047117233276e-01 -2.5082755088806152e-01</leafValues></_>
        <_>
          <internalNodes>
            0 -1 50 -1.7683083424344659e-03</internalNodes>
          <leafValues>
            -8.9594328403472900e-01 1.5371991693973541e-01</leafValues></_></weakClassifiers></_>
    <!-- stage 6 -->
    <_>
      <maxWeakCount>16</maxWeakCount>
      <stageThreshold>-8.0572909116744995e-01</stageThreshold>
      <weakClassifiers>
        <_>
          <internalNodes>
            0 -1 189 -1.1148371268063784e-03</internalNodes>
          <leafValues>
            -6.2711864709854126e-01 4.3128782510757446e-01</leafValues></_>
        <_>
          <internalNodes>
            0 -1 164 8.6284417193382978e-04</internalNodes>
          <leafValues>
            -1.9315630197525024e-01 5.7635462284088135e-01</leafValues></_>
        <_>
          <internalNodes>
            0 -1 80 4.5452482299879193e-04</internalNodes>
          <leafValues>
            -5.0935459136962891e-01 2.2778710722923279e-01</leafValues></_>
        <_>
          <internalNodes>
            0 -1 1 -5.2249107509851456e-02</internalNodes>
          <leafValues>
            5.0655144453048706e-01 -2.7213340997695923e-01</leafValues></_>
        <_>
          <internalNodes>
            0 -1 199 -1.1959843104705215e-03</internalNodes>
          <leafValues>
            3.9667525887489319e-01 -3.1951585412025452e-01</leafValues></_>
        <_>
          <internalNodes>
            0 -1 171 -4.5144273899495602e-03</internalNodes>
          <leafValues>
            5.0984501838684082e-01 -2.1936927735805511e-01</leafValues></_>
        <_>
          <internalNodes>
            0 -1 24 -7.6675392687320709e-02</internalNodes>
          <leafValues>
            5.7852810621261597e-01 -1.6536121070384979e-01</leafValues></_>
        <_>
          <internalNodes>
            0 -1 119 9.3852411955595016e-03</internalNodes>
          <leafValues>
            -2.7597403526306152e-01 5.3726136684417725e-01</leafValues></_>
        <_>
          <internalNodes>
            0 -1 35 -5.7637291029095650e-03</internalNodes>
          <leafValues>
            4.9506977200508118e-01 -1.9731436669826508e-01</leafValues></_>
        <_>
          <internalNodes>
            0 -1 33 7.3898013215512037e-04</internalNodes>
          <leafValues>
            -2.9204064607620239e-01 3.4015262126922607e-01</leafValues></_>
        <_>
          <internalNodes>
            0 -1 82 1.8628013785928488e-03</internalNodes>
          <leafValues>
            1.6386640071868896e-01 -7.1998113393783569e-01</leafValues></_>
        <_>
          <internalNodes>
            0 -1 142 -4.4252440333366394e-02</internalNodes>
          <leafValues>
            5.1054441928863525e-01 -2.0839533209800720e-01</leafValues></_>
        <_>
          <internalNodes>
            0 -1 138 -3.2093987101688981e-04</internalNodes>
          <leafValues>
            -8.3942401409149170e-01 1.1933568865060806e-01</leafValues></_>
        <_>
          <internalNodes>
            0 -1 91 1.0009305551648140e-02</internalNodes>
          <leafValues>
            -1.4866515994071960e-01 7.9067212343215942e-01</leafValues></_>
        <_>
          <internalNodes>
            0 -1 141 6.0889997985213995e-04</internalNodes>
          <leafValues>
            -2.5282481312751770e-01 4.0273189544677734e-01</leafValues></_>
        <_>
          <internalNodes>
            0 -1 130 1.0027940152212977e-03</internalNodes>
          <leafValues>
            9.9644511938095093e-02 -9.5725309848785400e-01</leafValues></_></weakClassifiers></_>
    <!-- stage 7 -->
    <_>
      <maxWeakCount>18</maxWeakCount>
      <stageThreshold>-7.5685691833496094e-01</stageThreshold>
      <weakClassifiers>
        <_>
          <internalNodes>
            0 -1 197 1.0024935472756624e-03</internalNodes>
          <leafValues>
            4.3116882443428040e-01 -6.0833334922790527e-01</leafValues></_>
        <_>
          <internalNodes>
            0 -1 72 2.3141964338719845e-03</internalNodes>
          <leafValues>
            -1.9227191805839539e-01 4.9563291668891907e-01</leafValues></_>
        <_>
          <internalNodes>
            0 -1 161 5.1001505926251411e-04</internalNodes>
          <leafValues>
            -3.0070579051971436e-01 4.2224353551864624e-01</leafValues></_>
        <_>
          <internalNodes>
            0 -1 86 -7.6290345750749111e-03</internalNodes>
          <leafValues>
            4.9332463741302490e-01 -2.5881746411323547e-01</leafValues></_>
        <_>
          <internalNodes>
            0 -1 149 4.2033049976453185e-04</internalNodes>
          <leafValues>
            -2.9151213169097900e-01 3.1502461433410645e-01</leafValues></_>
        <_>
          <internalNodes>
            0 -1 6 -7.7705502510070801e-02</internalNodes>
          <leafValues>
            4.7818514704704285e-01 -2.1326877176761627e-01</leafValues></_>
        <_>
          <internalNodes>
            0 -1 148 2.3172800429165363e-03</internalNodes>
          <leafValues>
            -2.2111777961254120e-01 5.1938682794570923e-01</leafValues></_>
        <_>
          <internalNodes>
            0 -1 77 -8.7154014036059380e-03</internalNodes>
          <leafValues>
            -6.7825794219970703e-01 1.6771116852760315e-01</leafValues></_>
        <_>
          <internalNodes>
            0 -1 10 -5.4297072347253561e-04</internalNodes>
          <leafValues>
            2.9458382725715637e-01 -3.0634406208992004e-01</leafValues></_>
        <_>
          <internalNodes>
            0 -1 99 -3.8094309275038540e-05</internalNodes>
          <leafValues>
            -4.8330685496330261e-01 1.6896449029445648e-01</leafValues></_>
        <_>
          <internalNodes>
            0 -1 127 3.4173380117863417e-04</internalNodes>
          <leafValues>
            9.9268011748790741e-02 -9.0021616220474243e-01</leafValues></_>
        <_>
          <internalNodes>
            0 -1 90 -3.4069330431520939e-03</internalNodes>
          <leafValues>
            2.7623468637466431e-01 -3.6164939403533936e-01</leafValues></_>
        <_>
          <internalNodes>
            0 -1 91 6.3312500715255737e-03</internalNodes>
          <leafValues>
            -1.5524585545063019e-01 6.0669726133346558e-01</leafValues></_>
        <_>
          <internalNodes>
            0 -1 146 -7.3524624109268188e-02</internalNodes>
          <leafValues>
            4.8762163519859314e-01 -1.9706493616104126e-01</leafValues></_>
        <_>
          <internalNodes>
            0 -1 20 -8.6510054767131805e-02</internalNodes>
          <leafValues>
            -8.2277554273605347e-01 1.2532454729080200e-01</leafValues></_>
        <_>
          <internalNodes>
            0 -1 165 1.3925943523645401e-02</internalNodes>
          <leafValues>
            -2.0698237419128418e-01 4.0168660879135132e-01</leafValues></_>
        <_>
          <internalNodes>
            0 -1 97 5.2789028268307447e-04</internalNodes>
          <leafValues>
            1.3859724998474121e-01 -5.6136941909790039e-01</leafValues></_>
        <_>
          <internalNodes>
            0 -1 31 -2.1215889137238264e-03</internalNodes>
          <leafValues>
            3.6401709914207458e-01 -2.5398713350296021e-01</leafValues></_></weakClassifiers></_>
    <!-- stage 8 -->
    <_>
      <maxWeakCount>21</maxWeakCount>
      <stageThreshold>-8.3617115020751953e-01</stageThreshold>
      <weakClassifiers>
        <_>
          <internalNodes>
            0 -1 104 9.0202759020030499e-04</internalNodes>
          <leafValues>
            -1.5000000596046448e-01 5.2349728345870972e-01</leafValues></_>
        <_>
          <internalNodes>
            0 -1 115 2.8423327952623367e-02</internalNodes>
          <leafValues>
            -2.1482013165950775e-01 6.0560202598571777e-01</leafValues></_>
        <_>
          <internalNodes>
            0 -1 63 -7.1410825476050377e-03</internalNodes>
          <leafValues>
            4.9958193302154541e-01 -1.8248052895069122e-01</leafValues></_>
        <_>
          <internalNodes>
            0 -1 70 -1.2082001194357872e-03</internalNodes>
          <leafValues>
            5.2876418828964233e-01 -2.4657255411148071e-01</leafValues></_>
        <_>
          <internalNodes>
            0 -1 47 -6.5750413341447711e-04</internalNodes>
          <leafValues>
            3.9449247717857361e-01 -2.1309326589107513e-01</leafValues></_>
        <_>
          <internalNodes>
            0 -1 51 6.3523575663566589e-03</internalNodes>
          <leafValues>
            1.4761927723884583e-01 -6.8247854709625244e-01</leafValues></_>
        <_>
          <internalNodes>
            0 -1 200 8.8709814008325338e-04</internalNodes>
          <leafValues>
            9.9956914782524109e-02 -7.9618149995803833e-01</leafValues></_>
        <_>
          <internalNodes>
            0 -1 53 3.5991356708109379e-04</internalNodes>
          <leafValues>
            -4.1101986169815063e-01 2.2934581339359283e-01</leafValues></_>
        <_>
          <internalNodes>
            0 -1 25 2.4535465985536575e-02</internalNodes>
          <leafValues>
            -2.7501916885375977e-01 4.5024511218070984e-01</leafValues></_>
        <_>
          <internalNodes>
            0 -1 131 1.2796402443200350e-03</internalNodes>
          <leafValues>
            1.4918914437294006e-01 -8.0944108963012695e-01</leafValues></_>
        <_>
          <internalNodes>
            0 -1 169 -7.2872801683843136e-04</internalNodes>
          <leafValues>
            3.6521375179290771e-01 -2.7946376800537109e-01</leafValues></_>
        <_>
          <internalNodes>
            0 -1 176 -1.2151971459388733e-03</internalNodes>
          <leafValues>
            2.9846647381782532e-01 -3.0915534496307373e-01</leafValues></_>
        <_>
          <internalNodes>
            0 -1 155 -7.2212808299809694e-04</internalNodes>
          <leafValues>
            -9.0080600976943970e-01 1.2420070916414261e-01</leafValues></_>
        <_>
          <internalNodes>
            0 -1 207 -5.9604132547974586e-03</internalNodes>
          <leafValues>
            5.8520108461380005e-01 -1.5918868780136108e-01</leafValues></_>
        <_>
          <internalNodes>
            0 -1 205 8.7953312322497368e-03</internalNodes>
          <leafValues>
            -3.4331041574478149e-01 3.1649979948997498e-01</leafValues></_>
        <_>
          <internalNodes>
            0 -1 184 5.9214897919446230e-04</internalNodes>
          <leafValues>
            1.7600902915000916e-01 -5.4401779174804688e-01</leafValues></_>
        <_>
          <internalNodes>
            0 -1 45 2.1011121571063995e-03</internalNodes>
          <leafValues>
            8.2889646291732788e-02 -8.7429678440093994e-01</leafValues></_>
        <_>
          <internalNodes>
            0 -1 201 -3.9555778494104743e-04</internalNodes>
          <leafValues>
            3.5675337910652161e-01 -2.4610720574855804e-01</leafValues></_>
        <_>
          <internalNodes>
            0 -1 60 -1.3304080814123154e-02</internalNodes>
          <leafValues>
            4.7778707742691040e-01 -1.8217837810516357e-01</leafValues></_>
        <_>
          <internalNodes>
            0 -1 43 -1.5762692783027887e-03</internalNodes>
          <leafValues>
            -8.9495706558227539e-01 9.8057940602302551e-02</leafValues></_>
        <_>
          <internalNodes>
            0 -1 163 -2.7821403928101063e-03</internalNodes>
          <leafValues>
            3.8623729348182678e-01 -2.2225709259510040e-01</leafValues></_></weakClassifiers></_>
    <!-- stage 9 -->
    <_>
      <maxWeakCount>23</maxWeakCount>
      <stageThreshold>-8.3564841747283936e-01</stageThreshold>
      <weakClassifiers>
        <_>
          <internalNodes>
            0 -1 166 6.6629657521843910e-04</internalNodes>
          <leafValues>
            4.1702127456665039e-01 -6.4999997615814209e-01</leafValues></_>
        <_>
          <internalNodes>
            0 -1 139 3.8534458144567907e-04</internalNodes>
          <leafValues>
            -2.6448565721511841e-01 3.6130407452583313e-01</leafValues></_>
        <_>
          <internalNodes>
            0 -1 0 -1.0120140016078949e-01</internalNodes>
          <leafValues>
            4.2281481623649597e-01 -2.4830298125743866e-01</leafValues></_>
        <_>
          <internalNodes>
            0 -1 182 4.5291725546121597e-03</internalNodes>
          <leafValues>
            -2.3802053928375244e-01 3.5967949032783508e-01</leafValues></_>
        <_>
          <internalNodes>
            0 -1 193 -2.6592772919684649e-03</internalNodes>
          <leafValues>
            3.2700085639953613e-01 -2.5179281830787659e-01</leafValues></_>
        <_>
          <internalNodes>
            0 -1 116 3.7503387778997421e-02</internalNodes>
          <leafValues>
            -1.9820772111415863e-01 4.9928420782089233e-01</leafValues></_>
        <_>
          <internalNodes>
            0 -1 75 6.0905655845999718e-04</internalNodes>
          <leafValues>
            1.6515219211578369e-01 -6.4490365982055664e-01</leafValues></_>
        <_>
          <internalNodes>
            0 -1 54 2.8529792325571179e-04</internalNodes>
          <leafValues>
            -3.9524468779563904e-01 2.5246772170066833e-01</leafValues></_>
        <_>
          <internalNodes>
            0 -1 29 1.8726369366049767e-02</internalNodes>
          <leafValues>
            1.1262337118387222e-01 -6.7724597454071045e-01</leafValues></_>
        <_>
          <internalNodes>
            0 -1 9 2.7160072326660156e-01</internalNodes>
          <leafValues>
            7.8533545136451721e-02 -8.4571582078933716e-01</leafValues></_>
        <_>
          <internalNodes>
            0 -1 126 -2.8622936224564910e-04</internalNodes>
          <leafValues>
            -5.7542484998703003e-01 1.2778773903846741e-01</leafValues></_>
        <_>
          <internalNodes>
            0 -1 46 1.0767830535769463e-02</internalNodes>
          <leafValues>
            1.0032685101032257e-01 -7.3454427719116211e-01</leafValues></_>
        <_>
          <internalNodes>
            0 -1 120 1.7675625858828425e-03</internalNodes>
          <leafValues>
            -1.9710525870323181e-01 4.8015758395195007e-01</leafValues></_>
        <_>
          <internalNodes>
            0 -1 93 -6.7637683823704720e-03</internalNodes>
          <leafValues>
            3.6834821105003357e-01 -1.9863058626651764e-01</leafValues></_>
        <_>
          <internalNodes>
            0 -1 56 -1.4218157157301903e-03</internalNodes>
          <leafValues>
            3.9304488897323608e-01 -2.0500005781650543e-01</leafValues></_>
        <_>
          <internalNodes>
            0 -1 97 -1.3152729661669582e-04</internalNodes>
          <leafValues>
            -5.8269125223159790e-01 1.2077157944440842e-01</leafValues></_>
        <_>
          <internalNodes>
            0 -1 118 4.0125283412635326e-03</internalNodes>
          <leafValues>
            -1.5700425207614899e-01 5.0807827711105347e-01</leafValues></_>
        <_>
          <internalNodes>
            0 -1 170 1.6494495794177055e-02</internalNodes>
          <leafValues>
            -1.0958895087242126e-01 5.8080589771270752e-01</leafValues></_>
        <_>
          <internalNodes>
            0 -1 186 1.2431549839675426e-03</internalNodes>
          <leafValues>
            1.7219458520412445e-01 -4.9733537435531616e-01</leafValues></_>
        <_>
          <internalNodes>
            0 -1 59 -5.8025256730616093e-03</internalNodes>
          <leafValues>
            2.5869005918502808e-01 -2.9188555479049683e-01</leafValues></_>
        <_>
          <internalNodes>
            0 -1 28 -2.0047468133270741e-03</internalNodes>
          <leafValues>
            2.6766824722290039e-01 -2.5612917542457581e-01</leafValues></_>
        <_>
          <internalNodes>
            0 -1 42 -2.1207858808338642e-03</internalNodes>
          <leafValues>
            -6.3896423578262329e-01 1.1290535330772400e-01</leafValues></_>
        <_>
          <internalNodes>
            0 -1 66 5.7520187692716718e-04</internalNodes>
          <leafValues>
            -2.9024815559387207e-01 2.4081721901893616e-01</leafValues></_></weakClassifiers></_>
    <!-- stage 10 -->
    <_>
      <maxWeakCount>23</maxWeakCount>
      <stageThreshold>-7.0375841856002808e-01</stageThreshold>
      <weakClassifiers>
        <_>
          <internalNodes>
            0 -1 102 -3.2893699244596064e-04</internalNodes>
          <leafValues>
            -5.5882352590560913e-01 4.1091218590736389e-01</leafValues></_>
        <_>
          <internalNodes>
            0 -1 153 5.6736986152827740e-04</internalNodes>
          <leafValues>
            -2.4814878404140472e-01 3.1945973634719849e-01</leafValues></_>
        <_>
          <internalNodes>
            0 -1 3 -7.4670463800430298e-02</internalNodes>
          <leafValues>
            4.8356124758720398e-01 -2.2440865635871887e-01</leafValues></_>
        <_>
          <internalNodes>
            0 -1 65 -7.3232181603088975e-04</internalNodes>
          <leafValues>
            4.3740922212600708e-01 -2.4735458195209503e-01</leafValues></_>
        <_>
          <internalNodes>
            0 -1 44 -2.7397396042943001e-03</internalNodes>
          <leafValues>
            4.2171874642372131e-01 -1.8295288085937500e-01</leafValues></_>
        <_>
          <internalNodes>
            0 -1 55 -1.7505651339888573e-02</internalNodes>
          <leafValues>
            4.1512721776962280e-01 -1.8772812187671661e-01</leafValues></_>
        <_>
          <internalNodes>
            0 -1 106 -2.7627069503068924e-03</internalNodes>
          <leafValues>
            4.0624520182609558e-01 -2.3833759129047394e-01</leafValues></_>
        <_>
          <internalNodes>
            0 -1 105 2.0463550463318825e-03</internalNodes>
          <leafValues>
            -2.3973158001899719e-01 3.5843878984451294e-01</leafValues></_>
        <_>
          <internalNodes>
            0 -1 19 6.3191121444106102e-04</internalNodes>
          <leafValues>
            -2.0532789826393127e-01 4.5212435722351074e-01</leafValues></_>
        <_>
          <internalNodes>
            0 -1 150 -1.0079354979097843e-03</internalNodes>
          <leafValues>
            -8.5650151968002319e-01 1.2219241261482239e-01</leafValues></_>
        <_>
          <internalNodes>
            0 -1 36 -3.7469230592250824e-02</internalNodes>
          <leafValues>
            4.4835901260375977e-01 -1.8818928301334381e-01</leafValues></_>
        <_>
          <internalNodes>
            0 -1 73 2.0924350246787071e-03</internalNodes>
          <leafValues>
            -3.8782450556755066e-01 2.9701659083366394e-01</leafValues></_>
        <_>
          <internalNodes>
            0 -1 49 2.7392264455556870e-03</internalNodes>
          <leafValues>
            1.6294091939926147e-01 -6.6760718822479248e-01</leafValues></_>
        <_>
          <internalNodes>
            0 -1 202 9.6678748377598822e-05</internalNodes>
          <leafValues>
            1.2704986333847046e-01 -4.7012701630592346e-01</leafValues></_>
        <_>
          <internalNodes>
            0 -1 27 -4.1090897284448147e-03</internalNodes>
          <leafValues>
            2.0593677461147308e-01 -3.3948743343353271e-01</leafValues></_>
        <_>
          <internalNodes>
            0 -1 23 -9.3021150678396225e-04</internalNodes>
          <leafValues>
            2.2471654415130615e-01 -3.0059078335762024e-01</leafValues></_>
        <_>
          <internalNodes>
            0 -1 52 1.6804289072751999e-02</internalNodes>
          <leafValues>
            1.0133870691061020e-01 -7.0205152034759521e-01</leafValues></_>
        <_>
          <internalNodes>
            0 -1 57 -6.5135754644870758e-02</internalNodes>
          <leafValues>
            -6.7117571830749512e-01 9.8630227148532867e-02</leafValues></_>
        <_>
          <internalNodes>
            0 -1 184 8.6469447705894709e-04</internalNodes>
          <leafValues>
            1.1343659460544586e-01 -6.1245512962341309e-01</leafValues></_>
        <_>
          <internalNodes>
            0 -1 39 -1.6808910295367241e-03</internalNodes>
          <leafValues>
            3.1192025542259216e-01 -2.4250012636184692e-01</leafValues></_>
        <_>
          <internalNodes>
            0 -1 152 -3.7025578785687685e-04</internalNodes>
          <leafValues>
            -6.0537260770797729e-01 1.1919651925563812e-01</leafValues></_>
        <_>
          <internalNodes>
            0 -1 172 1.3389899395406246e-03</internalNodes>
          <leafValues>
            -2.4516452848911285e-01 3.1325387954711914e-01</leafValues></_>
        <_>
          <internalNodes>
            0 -1 181 1.1642029508948326e-02</internalNodes>
          <leafValues>
            9.3945302069187164e-02 -8.8106429576873779e-01</leafValues></_></weakClassifiers></_>
    <!-- stage 11 -->
    <_>
      <maxWeakCount>27</maxWeakCount>
      <stageThreshold>-7.1084630489349365e-01</stageThreshold>
      <weakClassifiers>
        <_>
          <internalNodes>
            0 -1 151 8.7876344332471490e-04</internalNodes>
          <leafValues>
            3.9817124605178833e-01 -7.5000000000000000e-01</leafValues></_>
        <_>
          <internalNodes>
            0 -1 87 -7.7934968285262585e-03</internalNodes>
          <leafValues>
            3.8610732555389404e-01 -1.8444952368736267e-01</leafValues></_>
        <_>
          <internalNodes>
            0 -1 191 -7.6427950989454985e-04</internalNodes>
          <leafValues>
            2.1644058823585510e-01 -3.2897341251373291e-01</leafValues></_>
        <_>
          <internalNodes>
            0 -1 159 5.3437706083059311e-04</internalNodes>
          <leafValues>
            -2.5382992625236511e-01 2.6925471425056458e-01</leafValues></_>
        <_>
          <internalNodes>
            0 -1 147 -6.6848406568169594e-03</internalNodes>
          <leafValues>
            3.6517688632011414e-01 -2.2030432522296906e-01</leafValues></_>
        <_>
          <internalNodes>
            0 -1 113 -2.3615654557943344e-02</internalNodes>
          <leafValues>
            4.8854160308837891e-01 -1.5658424794673920e-01</leafValues></_>
        <_>
          <internalNodes>
            0 -1 7 -2.2833473980426788e-02</internalNodes>
          <leafValues>
            3.6302196979522705e-01 -2.3323442041873932e-01</leafValues></_>
        <_>
          <internalNodes>
            0 -1 84 8.3126302342861891e-04</internalNodes>
          <leafValues>
            -4.2493548989295959e-01 2.1126772463321686e-01</leafValues></_>
        <_>
          <internalNodes>
            0 -1 13 -8.3138216286897659e-03</internalNodes>
          <leafValues>
            4.3234708905220032e-01 -1.6485573351383209e-01</leafValues></_>
        <_>
          <internalNodes>
            0 -1 145 4.5309793204069138e-03</internalNodes>
          <leafValues>
            -1.5932258963584900e-01 4.8597410321235657e-01</leafValues></_>
        <_>
          <internalNodes>
            0 -1 129 3.0824000714346766e-04</internalNodes>
          <leafValues>
            1.1167735606431961e-01 -6.8152385950088501e-01</leafValues></_>
        <_>
          <internalNodes>
            0 -1 18 -4.6960223466157913e-02</internalNodes>
          <leafValues>
            4.9968382716178894e-01 -1.4049550890922546e-01</leafValues></_>
        <_>
          <internalNodes>
            0 -1 32 2.4711452424526215e-03</internalNodes>
          <leafValues>
            -1.7752213776111603e-01 3.5702627897262573e-01</leafValues></_>
        <_>
          <internalNodes>
            0 -1 17 -2.9788326472043991e-02</internalNodes>
          <leafValues>
            5.4923534393310547e-01 -1.3696382939815521e-01</leafValues></_>
        <_>
          <internalNodes>
            0 -1 62 6.0174692422151566e-02</internalNodes>
          <leafValues>
            1.2012371420860291e-01 -7.8582483530044556e-01</leafValues></_>
        <_>
          <internalNodes>
            0 -1 68 -5.6570279411971569e-04</internalNodes>
          <leafValues>
            -4.2088657617568970e-01 1.5620797872543335e-01</leafValues></_>
        <_>
          <internalNodes>
            0 -1 154 -1.5532403267570771e-05</internalNodes>
          <leafValues>
            -3.5054031014442444e-01 1.7630320787429810e-01</leafValues></_>
        <_>
          <internalNodes>
            0 -1 2 -7.8080520033836365e-03</internalNodes>
          <leafValues>
            4.5219382643699646e-01 -1.3383233547210693e-01</leafValues></_>
        <_>
          <internalNodes>
            0 -1 180 -1.9117465708404779e-03</internalNodes>
          <leafValues>
            -4.6169543266296387e-01 1.3202911615371704e-01</leafValues></_>
        <_>
          <internalNodes>
            0 -1 108 -9.1187033103778958e-04</internalNodes>
          <leafValues>
            2.0146739482879639e-01 -2.8344848752021790e-01</leafValues></_>
        <_>
          <internalNodes>
            0 -1 187 1.9318307749927044e-03</internalNodes>
          <leafValues>
            9.1627649962902069e-02 -6.6988337039947510e-01</leafValues></_>
        <_>
          <internalNodes>
            0 -1 204 -1.4897814253345132e-03</internalNodes>
          <leafValues>
            4.3519803881645203e-01 -1.5000802278518677e-01</leafValues></_>
        <_>
          <internalNodes>
            0 -1 178 -2.1881712600588799e-03</internalNodes>
          <leafValues>
            4.2785614728927612e-01 -1.6454544663429260e-01</leafValues></_>
        <_>
          <internalNodes>
            0 -1 158 -3.0921428697183728e-04</internalNodes>
          <leafValues>
            -5.4047203063964844e-01 1.1617962270975113e-01</leafValues></_>
        <_>
          <internalNodes>
            0 -1 74 -4.8051791964098811e-04</internalNodes>
          <leafValues>
            3.1009790301322937e-01 -2.1269971132278442e-01</leafValues></_>
        <_>
          <internalNodes>
            0 -1 76 1.6125028196256608e-04</internalNodes>
          <leafValues>
            1.7124649882316589e-01 -3.7379038333892822e-01</leafValues></_>
        <_>
          <internalNodes>
            0 -1 76 -7.2006933623924851e-04</internalNodes>
          <leafValues>
            -6.2728571891784668e-01 9.0562351047992706e-02</leafValues></_></weakClassifiers></_>
    <!-- stage 12 -->
    <_>
      <maxWeakCount>29</maxWeakCount>
      <stageThreshold>-7.8560060262680054e-01</stageThreshold>
      <weakClassifiers>
        <_>
          <internalNodes>
            0 -1 78 -9.8452117526903749e-05</internalNodes>
          <leafValues>
            -2.7680799365043640e-01 4.4718474149703979e-01</leafValues></_>
        <_>
          <internalNodes>
            0 -1 48 9.0906955301761627e-04</internalNodes>
          <leafValues>
            -2.5497671961784363e-01 2.8620862960815430e-01</leafValues></_>
        <_>
          <internalNodes>
            0 -1 112 2.9278122819960117e-03</internalNodes>
          <leafValues>
            1.1971154063940048e-01 -5.6354498863220215e-01</leafValues></_>
        <_>
          <internalNodes>
            0 -1 190 3.8835278246551752e-03</internalNodes>
          <leafValues>
            7.8252866864204407e-02 -6.7755281925201416e-01</leafValues></_>
        <_>
          <internalNodes>
            0 -1 192 -7.3459063423797488e-04</internalNodes>
          <leafValues>
            -6.7678117752075195e-01 8.8249847292900085e-02</leafValues></_>
        <_>
          <internalNodes>
            0 -1 71 -2.4316529743373394e-03</internalNodes>
          <leafValues>
            2.8666546940803528e-01 -2.1003073453903198e-01</leafValues></_>
        <_>
          <internalNodes>
            0 -1 96 2.6499215164221823e-04</internalNodes>
          <leafValues>
            1.0672054439783096e-01 -5.6220650672912598e-01</leafValues></_>
        <_>
          <internalNodes>
            0 -1 92 -7.8008025884628296e-02</internalNodes>
          <leafValues>
            7.3884201049804688e-01 -1.4247536659240723e-01</leafValues></_>
        <_>
          <internalNodes>
            0 -1 134 5.3967494750395417e-05</internalNodes>
          <leafValues>
            -2.6659241318702698e-01 2.6995974779129028e-01</leafValues></_>
        <_>
          <internalNodes>
            0 -1 34 -4.4073586468584836e-04</internalNodes>
          <leafValues>
            2.7132141590118408e-01 -2.6412537693977356e-01</leafValues></_>
        <_>
          <internalNodes>
            0 -1 132 7.2083005215972662e-04</internalNodes>
          <leafValues>
            9.6362255513668060e-02 -8.6823338270187378e-01</leafValues></_>
        <_>
          <internalNodes>
            0 -1 16 1.3506504474207759e-03</internalNodes>
          <leafValues>
            -1.8807306885719299e-01 4.0920519828796387e-01</leafValues></_>
        <_>
          <internalNodes>
            0 -1 8 -3.8847256451845169e-02</internalNodes>
          <leafValues>
            3.8020291924476624e-01 -1.7275565862655640e-01</leafValues></_>
        <_>
          <internalNodes>
            0 -1 133 -3.9396033389493823e-04</internalNodes>
          <leafValues>
            -6.0448098182678223e-01 1.1735720187425613e-01</leafValues></_>
        <_>
          <internalNodes>
            0 -1 198 -1.7388615524396300e-03</internalNodes>
          <leafValues>
            2.6590991020202637e-01 -2.5410044193267822e-01</leafValues></_>
        <_>
          <internalNodes>
            0 -1 117 -1.4431721530854702e-02</internalNodes>
          <leafValues>
            5.2221906185150146e-01 -1.7034706473350525e-01</leafValues></_>
        <_>
          <internalNodes>
            0 -1 37 -1.7699968814849854e-01</internalNodes>
          <leafValues>
            -7.1513742208480835e-01 1.1135666072368622e-01</leafValues></_>
        <_>
          <internalNodes>
            0 -1 175 5.4607476340606809e-04</internalNodes>
          <leafValues>
            -2.0295788347721100e-01 3.4491974115371704e-01</leafValues></_>
        <_>
          <internalNodes>
            0 -1 174 1.5161274932324886e-03</internalNodes>
          <leafValues>
            -1.3899430632591248e-01 5.4247295856475830e-01</leafValues></_>
        <_>
          <internalNodes>
            0 -1 11 -9.2276342911645770e-04</internalNodes>
          <leafValues>
            2.3392504453659058e-01 -2.8934177756309509e-01</leafValues></_>
        <_>
          <internalNodes>
            0 -1 30 -4.4515207409858704e-02</internalNodes>
          <leafValues>
            -6.7037165164947510e-01 9.6565060317516327e-02</leafValues></_>
        <_>
          <internalNodes>
            0 -1 137 -1.8631563580129296e-04</internalNodes>
          <leafValues>
            -4.5975065231323242e-01 1.1995837092399597e-01</leafValues></_>
        <_>
          <internalNodes>
            0 -1 185 -2.6765721486299299e-05</internalNodes>
          <leafValues>
            1.5970712900161743e-01 -3.8358199596405029e-01</leafValues></_>
        <_>
          <internalNodes>
            0 -1 40 1.7691979883238673e-03</internalNodes>
          <leafValues>
            7.6977439224720001e-02 -8.0842673778533936e-01</leafValues></_>
        <_>
          <internalNodes>
            0 -1 64 2.8734295628964901e-03</internalNodes>
          <leafValues>
            -1.7349985241889954e-01 3.6659109592437744e-01</leafValues></_>
        <_>
          <internalNodes>
            0 -1 38 -2.3163497447967529e-02</internalNodes>
          <leafValues>
            3.5069712996482849e-01 -1.8364346027374268e-01</leafValues></_>
        <_>
          <internalNodes>
            0 -1 103 6.9057935616001487e-04</internalNodes>
          <leafValues>
            1.0469973087310791e-01 -6.2187308073043823e-01</leafValues></_>
        <_>
          <internalNodes>
            0 -1 179 -2.9004416428506374e-03</internalNodes>
          <leafValues>
            -7.0230031013488770e-01 6.9268636405467987e-02</leafValues></_>
        <_>
          <internalNodes>
            0 -1 136 5.0334399566054344e-04</internalNodes>
          <leafValues>
            6.2473531812429428e-02 -7.1558779478073120e-01</leafValues></_></weakClassifiers></_></stages>
  <features>
    <_>
      <rects>
        <_>
          0 0 8 12 -1.</_>
        <_>
          4 0 4 12 2.</_></rects>
      <tilted>0</tilted></_>
    <_>
      <rects>
        <_>
          1 10 8 8 -1.</_>
        <_>
          5 10 4 8 2.</_></rects>
      <tilted>0</tilted></_>
    <_>
      <rects>
        <_>
          2 4 3 5 -1.</_>
        <_>
          3 4 1 5 3.</_></rects>
      <tilted>0</tilted></_>
    <_>
      <rects>
        <_>
          2 7 9 5 -1.</_>
        <_>
          5 7 3 5 3.</_></rects>
      <tilted>0</tilted></_>
    <_>
      <rects>
        <_>
          2 8 6 4 -1.</_>
        <_>
          4 8 2 4 3.</_></rects>
      <tilted>0</tilted></_>
    <_>
      <rects>
        <_>
          2 12 6 1 -1.</_>
        <_>
          4 12 2 1 3.</_></rects>
      <tilted>0</tilted></_>
    <_>
      <rects>
        <_>
          2 16 18 3 -1.</_>
        <_>
          8 16 6 3 3.</_></rects>
      <tilted>0</tilted></_>
    <_>
      <rects>
        <_>
          2 17 18 1 -1.</_>
        <_>
          8 17 6 1 3.</_></rects>
      <tilted>0</tilted></_>
    <_>
      <rects>
        <_>
          3 0 17 4 -1.</_>
        <_>
          3 2 17 2 2.</_></rects>
      <tilted>0</tilted></_>
    <_>
      <rects>
        <_>
          3 7 15 9 -1.</_>
        <_>
          8 7 5 9 3.</_></rects>
      <tilted>0</tilted></_>
    <_>
      <rects>
        <_>
          3 9 2 1 -1.</_>
        <_>
          4 9 1 1 2.</_></rects>
      <tilted>0</tilted></_>
    <_>
      <rects>
        <_>
          3 9 2 2 -1.</_>
        <_>
          4 9 1 2 2.</_></rects>
      <tilted>0</tilted></_>
    <_>
      <rects>
        <_>
          3 9 2 3 -1.</_>
        <_>
          4 9 1 3 2.</_></rects>
      <tilted>0</tilted></_>
    <_>
      <rects>
        <_>
          4 1 12 2 -1.</_>
        <_>
          4 2 12 1 2.</_></rects>
      <tilted>0</tilted></_>
    <_>
      <rects>
        <_>
          4 2 8 4 -1.</_>
        <_>
          4 2 4 2 2.</_>
        <_>
          8 4 4 2 2.</_></rects>
      <tilted>0</tilted></_>
    <_>
      <rects>
        <_>
          4 2 12 18 -1.</_>
        <_>
          4 11 12 9 2.</_></rects>
      <tilted>0</tilted></_>
    <_>
      <rects>
        <_>
          4 4 2 1 -1.</_>
        <_>
          5 4 1 1 2.</_></rects>
      <tilted>0</tilted></_>
    <_>
      <rects>
        <_>
          4 4 9 2 -1.</_>
        <_>
          7 4 3 2 3.</_></rects>
      <tilted>0</tilted></_>
    <_>
      <rects>
        <_>
          4 4 6 12 -1.</_>
        <_>
          4 4 3 6 2.</_>
        <_>
          7 10 3 6 2.</_></rects>
      <tilted>0</tilted></_>
    <_>
      <rects>
        <_>
          4 7 2 1 -1.</_>
        <_>
          5 7 1 1 2.</_></rects>
      <tilted>0</tilted></_>
    <_>
      <rects>
        <_>
          4 7 14 6 -1.</_>
        <_>
          11 7 7 6 2.</_></rects>
      <tilted>0</tilted></_>
    <_>
      <rects>
        <_>
          4 9 3 2 -1.</_>
        <_>
          5 9 1 2 3.</_></rects>
      <tilted>0</tilted></_>
    <_>
      <rects>
        <_>
          4 9 3 4 -1.</_>
        <_>
          5 9 1 4 3.</_></rects>
      <tilted>0</tilted></_>
    <_>
      <rects>
        <_>
          4 10 3 2 -1.</_>
        <_>
          5 10 1 2 3.</_></rects>
      <tilted>0</tilted></_>
    <_>
      <rects>
        <_>
          4 14 15 5 -1.</_>
        <_>
          9 14 5 5 3.</_></rects>
      <tilted>0</tilted></_>
    <_>
      <rects>
        <_>
          4 16 10 4 -1.</_>
        <_>
          4 18 10 2 2.</_></rects>
      <tilted>0</tilted></_>
    <_>
      <rects>
        <_>
          5 0 6 10 -1.</_>
        <_>
          5 0 3 5 2.</_>
        <_>
          8 5 3 5 2.</_></rects>
      <tilted>0</tilted></_>
    <_>
      <rects>
        <_>
          5 0 8 3 -1.</_>
        <_>
          5 1 8 1 3.</_></rects>
      <tilted>0</tilted></_>
    <_>
      <rects>
        <_>
          5 2 13 2 -1.</_>
        <_>
          5 3 13 1 2.</_></rects>
      <tilted>0</tilted></_>
    <_>
      <rects>
        <_>
          5 3 3 12 -1.</_>
        <_>
          5 7 3 4 3.</_></rects>
      <tilted>0</tilted></_>
    <_>
      <rects>
        <_>
          5 3 4 12 -1.</_>
        <_>
          5 7 4 4 3.</_></rects>
      <tilted>0</tilted></_>
    <_>
      <rects>
        <_>
          5 5 3 2 -1.</_>
        <_>
          6 5 1 2 3.</_></rects>
      <tilted>0</tilted></_>
    <_>
      <rects>
        <_>
          5 9 2 2 -1.</_>
        <_>
          6 9 1 2 2.</_></rects>
      <tilted>0</tilted></_>
    <_>
      <rects>
        <_>
          5 10 2 1 -1.</_>
        <_>
          6 10 1 1 2.</_></rects>
      <tilted>0</tilted></_>
    <_>
      <rects>
        <_>
          5 17 2 2 -1.</_>
        <_>
          6 17 1 2 2.</_></rects>
      <tilted>0</tilted></_>
    <_>
      <rects>
        <_>
          6 0 5 2 -1.</_>
        <_>
          6 1 5 1 2.</_></rects>
      <tilted>0</tilted></_>
    <_>
      <rects>
        <_>
          6 0 8 6 -1.</_>
        <_>
          6 2 8 2 3.</_></rects>
      <tilted>0</tilted></_>
    <_>
      <rects>
        <_>
          6 2 9 18 -1.</_>
        <_>
          6 11 9 9 2.</_></rects>
      <tilted>0</tilted></_>
    <_>
      <rects>
        <_>
          6 3 6 8 -1.</_>
        <_>
          8 3 2 8 3.</_></rects>
      <tilted>0</tilted></_>
    <_>
      <rects>
        <_>
          6 4 3 2 -1.</_>
        <_>
          7 4 1 2 3.</_></rects>
      <tilted>0</tilted></_>
    <_>
      <rects>
        <_>
          6 7 1 3 -1.</_>
        <_>
          6 8 1 1 3.</_></rects>
      <tilted>0</tilted></_>
    <_>
      <rects>
        <_>
          6 7 1 6 -1.</_>
        <_>
          6 9 1 2 3.</_></rects>
      <tilted>0</tilted></_>
    <_>
      <rects>
        <_>
          6 7 2 3 -1.</_>
        <_>
          6 8 2 1 3.</_></rects>
      <tilted>0</tilted></_>
    <_>
      <rects>
        <_>
          6 8 1 3 -1.</_>
        <_>
          6 9 1 1 3.</_></rects>
      <tilted>0</tilted></_>
    <_>
      <rects>
        <_>
          6 8 3 3 -1.</_>
        <_>
          7 8 1 3 3.</_></rects>
      <tilted>0</tilted></_>
    <_>
      <rects>
        <_>
          6 8 2 3 -1.</_>
        <_>
          6 9 2 1 3.</_></rects>
      <tilted>0</tilted></_>
    <_>
      <rects>
        <_>
          6 8 2 6 -1.</_>
        <_>
          6 11 2 3 2.</_></rects>
      <tilted>0</tilted></_>
    <_>
      <rects>
        <_>
          6 9 3 1 -1.</_>
        <_>
          7 9 1 1 3.</_></rects>
      <tilted>0</tilted></_>
    <_>
      <rects>
        <_>
          6 9 2 6 -1.</_>
        <_>
          6 12 2 3 2.</_></rects>
      <tilted>0</tilted></_>
    <_>
      <rects>
        <_>
          6 10 1 6 -1.</_>
        <_>
          6 12 1 2 3.</_></rects>
      <tilted>0</tilted></_>
    <_>
      <rects>
        <_>
          6 10 2 2 -1.</_>
        <_>
          6 11 2 1 2.</_></rects>
      <tilted>0</tilted></_>
    <_>
      <rects>
        <_>
          6 11 4 2 -1.</_>
        <_>
          8 11 2 2 2.</_></rects>
      <tilted>0</tilted></_>
    <_>
      <rects>
        <_>
          6 12 9 2 -1.</_>
        <_>
          9 12 3 2 3.</_></rects>
      <tilted>0</tilted></_>
    <_>
      <rects>
        <_>
          6 13 6 3 -1.</_>
        <_>
          8 13 2 3 3.</_></rects>
      <tilted>0</tilted></_>
    <_>
      <rects>
        <_>
          6 15 6 1 -1.</_>
        <_>
          8 15 2 1 3.</_></rects>
      <tilted>0</tilted></_>
    <_>
      <rects>
        <_>
          6 15 12 2 -1.</_>
        <_>
          10 15 4 2 3.</_></rects>
      <tilted>0</tilted></_>
    <_>
      <rects>
        <_>
          6 18 4 1 -1.</_>
        <_>
          8 18 2 1 2.</_></rects>
      <tilted>0</tilted></_>
    <_>
      <rects>
        <_>
          7 0 5 14 -1.</_>
        <_>
          7 7 5 7 2.</_></rects>
      <tilted>0</tilted></_>
    <_>
      <rects>
        <_>
          7 0 6 2 -1.</_>
        <_>
          7 1 6 1 2.</_></rects>
      <tilted>0</tilted></_>
    <_>
      <rects>
        <_>
          7 0 6 3 -1.</_>
        <_>
          7 1 6 1 3.</_></rects>
      <tilted>0</tilted></_>
    <_>
      <rects>
        <_>
          7 0 7 2 -1.</_>
        <_>
          7 1 7 1 2.</_></rects>
      <tilted>0</tilted></_>
    <_>
      <rects>
        <_>
          7 0 10 2 -1.</_>
        <_>
          7 1 10 1 2.</_></rects>
      <tilted>0</tilted></_>
    <_>
      <rects>
        <_>
          7 2 2 18 -1.</_>
        <_>
          7 11 2 9 2.</_></rects>
      <tilted>0</tilted></_>
    <_>
      <rects>
        <_>
          7 2 7 3 -1.</_>
        <_>
          7 3 7 1 3.</_></rects>
      <tilted>0</tilted></_>
    <_>
      <rects>
        <_>
          7 5 3 3 -1.</_>
        <_>
          8 5 1 3 3.</_></rects>
      <tilted>0</tilted></_>
    <_>
      <rects>
        <_>
          7 8 2 1 -1.</_>
        <_>
          8 8 1 1 2.</_></rects>
      <tilted>0</tilted></_>
    <_>
      <rects>
        <_>
          7 8 1 9 -1.</_>
        <_>
          7 11 1 3 3.</_></rects>
      <tilted>0</tilted></_>
    <_>
      <rects>
        <_>
          7 8 2 4 -1.</_>
        <_>
          8 8 1 4 2.</_></rects>
      <tilted>0</tilted></_>
    <_>
      <rects>
        <_>
          7 8 1 8 -1.</_>
        <_>
          7 12 1 4 2.</_></rects>
      <tilted>0</tilted></_>
    <_>
      <rects>
        <_>
          7 8 4 6 -1.</_>
        <_>
          7 8 2 3 2.</_>
        <_>
          9 11 2 3 2.</_></rects>
      <tilted>0</tilted></_>
    <_>
      <rects>
        <_>
          7 9 2 1 -1.</_>
        <_>
          8 9 1 1 2.</_></rects>
      <tilted>0</tilted></_>
    <_>
      <rects>
        <_>
          7 9 3 3 -1.</_>
        <_>
          8 9 1 3 3.</_></rects>
      <tilted>0</tilted></_>
    <_>
      <rects>
        <_>
          7 9 4 1 -1.</_>
        <_>
          9 9 2 1 2.</_></rects>
      <tilted>0</tilted></_>
    <_>
      <rects>
        <_>
          7 9 2 9 -1.</_>
        <_>
          7 12 2 3 3.</_></rects>
      <tilted>0</tilted></_>
    <_>
      <rects>
        <_>
          7 11 3 3 -1.</_>
        <_>
          7 12 3 1 3.</_></rects>
      <tilted>0</tilted></_>
    <_>
      <rects>
        <_>
          7 12 2 1 -1.</_>
        <_>
          8 12 1 1 2.</_></rects>
      <tilted>0</tilted></_>
    <_>
      <rects>
        <_>
          7 12 1 3 -1.</_>
        <_>
          7 13 1 1 3.</_></rects>
      <tilted>0</tilted></_>
    <_>
      <rects>
        <_>
          7 12 8 4 -1.</_>
        <_>
          7 14 8 2 2.</_></rects>
      <tilted>0</tilted></_>
    <_>
      <rects>
        <_>
          7 13 2 1 -1.</_>
        <_>
          8 13 1 1 2.</_></rects>
      <tilted>0</tilted></_>
    <_>
      <rects>
        <_>
          7 13 3 1 -1.</_>
        <_>
          8 13 1 1 3.</_></rects>
      <tilted>0</tilted></_>
    <_>
      <rects>
        <_>
          7 13 6 3 -1.</_>
        <_>
          9 13 2 3 3.</_></rects>
      <tilted>0</tilted></_>
    <_>
      <rects>
        <_>
          7 13 6 3 -1.</_>
        <_>
          7 14 6 1 3.</_></rects>
      <tilted>0</tilted></_>
    <_>
      <rects>
        <_>
          7 13 7 3 -1.</_>
        <_>
          7 14 7 1 3.</_></rects>
      <tilted>0</tilted></_>
    <_>
      <rects>
        <_>
          7 15 6 1 -1.</_>
        <_>
          9 15 2 1 3.</_></rects>
      <tilted>0</tilted></_>
    <_>
      <rects>
        <_>
          7 15 6 2 -1.</_>
        <_>
          9 15 2 2 3.</_></rects>
      <tilted>0</tilted></_>
    <_>
      <rects>
        <_>
          7 16 5 4 -1.</_>
        <_>
          7 18 5 2 2.</_></rects>
      <tilted>0</tilted></_>
    <_>
      <rects>
        <_>
          7 16 7 3 -1.</_>
        <_>
          7 17 7 1 3.</_></rects>
      <tilted>0</tilted></_>
    <_>
      <rects>
        <_>
          7 17 7 3 -1.</_>
        <_>
          7 18 7 1 3.</_></rects>
      <tilted>0</tilted></_>
    <_>
      <rects>
        <_>
          7 18 6 2 -1.</_>
        <_>
          7 19 6 1 2.</_></rects>
      <tilted>0</tilted></_>
    <_>
      <rects>
        <_>
          8 0 3 3 -1.</_>
        <_>
          8 1 3 1 3.</_></rects>
      <tilted>0</tilted></_>
    <_>
      <rects>
        <_>
          8 0 4 3 -1.</_>
        <_>
          8 1 4 1 3.</_></rects>
      <tilted>0</tilted></_>
    <_>
      <rects>
        <_>
          8 0 5 2 -1.</_>
        <_>
          8 1 5 1 2.</_></rects>
      <tilted>0</tilted></_>
    <_>
      <rects>
        <_>
          8 4 9 4 -1.</_>
        <_>
          11 4 3 4 3.</_></rects>
      <tilted>0</tilted></_>
    <_>
      <rects>
        <_>
          8 8 3 6 -1.</_>
        <_>
          8 10 3 2 3.</_></rects>
      <tilted>0</tilted></_>
    <_>
      <rects>
        <_>
          8 8 5 12 -1.</_>
        <_>
          8 12 5 4 3.</_></rects>
      <tilted>0</tilted></_>
    <_>
      <rects>
        <_>
          8 9 6 1 -1.</_>
        <_>
          10 9 2 1 3.</_></rects>
      <tilted>0</tilted></_>
    <_>
      <rects>
        <_>
          8 13 2 1 -1.</_>
        <_>
          9 13 1 1 2.</_></rects>
      <tilted>0</tilted></_>
    <_>
      <rects>
        <_>
          8 13 2 2 -1.</_>
        <_>
          9 13 1 2 2.</_></rects>
      <tilted>0</tilted></_>
    <_>
      <rects>
        <_>
          8 13 3 2 -1.</_>
        <_>
          9 13 1 2 3.</_></rects>
      <tilted>0</tilted></_>
    <_>
      <rects>
        <_>
          8 13 2 5 -1.</_>
        <_>
          9 13 1 5 2.</_></rects>
      <tilted>0</tilted></_>
    <_>
      <rects>
        <_>
          8 13 4 1 -1.</_>
        <_>
          10 13 2 1 2.</_></rects>
      <tilted>0</tilted></_>
    <_>
      <rects>
        <_>
          8 13 4 2 -1.</_>
        <_>
          10 13 2 2 2.</_></rects>
      <tilted>0</tilted></_>
    <_>
      <rects>
        <_>
          8 13 6 2 -1.</_>
        <_>
          10 13 2 2 3.</_></rects>
      <tilted>0</tilted></_>
    <_>
      <rects>
        <_>
          8 13 6 2 -1.</_>
        <_>
          8 14 6 1 2.</_></rects>
      <tilted>0</tilted></_>
    <_>
      <rects>
        <_>
          8 14 6 3 -1.</_>
        <_>
          10 14 2 3 3.</_></rects>
      <tilted>0</tilted></_>
    <_>
      <rects>
        <_>
          8 16 3 4 -1.</_>
        <_>
          8 18 3 2 2.</_></rects>
      <tilted>0</tilted></_>
    <_>
      <rects>
        <_>
          8 17 4 2 -1.</_>
        <_>
          8 18 4 1 2.</_></rects>
      <tilted>0</tilted></_>
    <_>
      <rects>
        <_>
          8 17 4 3 -1.</_>
        <_>
          8 18 4 1 3.</_></rects>
      <tilted>0</tilted></_>
    <_>
      <rects>
        <_>
          9 0 1 3 -1.</_>
        <_>
          9 1 1 1 3.</_></rects>
      <tilted>0</tilted></_>
    <_>
      <rects>
        <_>
          9 0 3 3 -1.</_>
        <_>
          9 1 3 1 3.</_></rects>
      <tilted>0</tilted></_>
    <_>
      <rects>
        <_>
          9 0 5 2 -1.</_>
        <_>
          9 1 5 1 2.</_></rects>
      <tilted>0</tilted></_>
    <_>
      <rects>
        <_>
          9 0 5 3 -1.</_>
        <_>
          9 1 5 1 3.</_></rects>
      <tilted>0</tilted></_>
    <_>
      <rects>
        <_>
          9 2 4 1 -1.</_>
        <_>
          11 2 2 1 2.</_></rects>
      <tilted>0</tilted></_>
    <_>
      <rects>
        <_>
          9 2 2 12 -1.</_>
        <_>
          9 6 2 4 3.</_></rects>
      <tilted>0</tilted></_>
    <_>
      <rects>
        <_>
          9 6 3 10 -1.</_>
        <_>
          9 11 3 5 2.</_></rects>
      <tilted>0</tilted></_>
    <_>
      <rects>
        <_>
          9 6 6 12 -1.</_>
        <_>
          9 6 3 6 2.</_>
        <_>
          12 12 3 6 2.</_></rects>
      <tilted>0</tilted></_>
    <_>
      <rects>
        <_>
          9 7 6 12 -1.</_>
        <_>
          9 7 3 6 2.</_>
        <_>
          12 13 3 6 2.</_></rects>
      <tilted>0</tilted></_>
    <_>
      <rects>
        <_>
          9 8 1 12 -1.</_>
        <_>
          9 12 1 4 3.</_></rects>
      <tilted>0</tilted></_>
    <_>
      <rects>
        <_>
          9 9 3 3 -1.</_>
        <_>
          9 10 3 1 3.</_></rects>
      <tilted>0</tilted></_>
    <_>
      <rects>
        <_>
          9 9 3 6 -1.</_>
        <_>
          9 12 3 3 2.</_></rects>
      <tilted>0</tilted></_>
    <_>
      <rects>
        <_>
          9 10 3 3 -1.</_>
        <_>
          9 11 3 1 3.</_></rects>
      <tilted>0</tilted></_>
    <_>
      <rects>
        <_>
          9 13 3 3 -1.</_>
        <_>
          10 13 1 3 3.</_></rects>
      <tilted>0</tilted></_>
    <_>
      <rects>
        <_>
          9 13 2 4 -1.</_>
        <_>
          10 13 1 4 2.</_></rects>
      <tilted>0</tilted></_>
    <_>
      <rects>
        <_>
          9 13 3 4 -1.</_>
        <_>
          10 13 1 4 3.</_></rects>
      <tilted>0</tilted></_>
    <_>
      <rects>
        <_>
          9 13 4 1 -1.</_>
        <_>
          11 13 2 1 2.</_></rects>
      <tilted>0</tilted></_>
    <_>
      <rects>
        <_>
          9 13 6 2 -1.</_>
        <_>
          11 13 2 2 3.</_></rects>
      <tilted>0</tilted></_>
    <_>
      <rects>
        <_>
          9 13 6 3 -1.</_>
        <_>
          11 13 2 3 3.</_></rects>
      <tilted>0</tilted></_>
    <_>
      <rects>
        <_>
          9 14 1 2 -1.</_>
        <_>
          9 15 1 1 2.</_></rects>
      <tilted>0</tilted></_>
    <_>
      <rects>
        <_>
          9 14 3 1 -1.</_>
        <_>
          10 14 1 1 3.</_></rects>
      <tilted>0</tilted></_>
    <_>
      <rects>
        <_>
          9 14 2 2 -1.</_>
        <_>
          9 14 1 1 2.</_>
        <_>
          10 15 1 1 2.</_></rects>
      <tilted>0</tilted></_>
    <_>
      <rects>
        <_>
          9 14 4 1 -1.</_>
        <_>
          11 14 2 1 2.</_></rects>
      <tilted>0</tilted></_>
    <_>
      <rects>
        <_>
          9 14 2 3 -1.</_>
        <_>
          9 15 2 1 3.</_></rects>
      <tilted>0</tilted></_>
    <_>
      <rects>
        <_>
          9 14 3 2 -1.</_>
        <_>
          9 15 3 1 2.</_></rects>
      <tilted>0</tilted></_>
    <_>
      <rects>
        <_>
          9 14 3 3 -1.</_>
        <_>
          9 15 3 1 3.</_></rects>
      <tilted>0</tilted></_>
    <_>
      <rects>
        <_>
          9 15 1 3 -1.</_>
        <_>
          9 16 1 1 3.</_></rects>
      <tilted>0</tilted></_>
    <_>
      <rects>
        <_>
          9 15 6 1 -1.</_>
        <_>
          11 15 2 1 3.</_></rects>
      <tilted>0</tilted></_>
    <_>
      <rects>
        <_>
          9 15 3 2 -1.</_>
        <_>
          9 16 3 1 2.</_></rects>
      <tilted>0</tilted></_>
    <_>
      <rects>
        <_>
          9 15 3 3 -1.</_>
        <_>
          9 16 3 1 3.</_></rects>
      <tilted>0</tilted></_>
    <_>
      <rects>
        <_>
          9 16 3 1 -1.</_>
        <_>
          10 16 1 1 3.</_></rects>
      <tilted>0</tilted></_>
    <_>
      <rects>
        <_>
          9 16 6 1 -1.</_>
        <_>
          11 16 2 1 3.</_></rects>
      <tilted>0</tilted></_>
    <_>
      <rects>
        <_>
          9 17 3 2 -1.</_>
        <_>
          9 18 3 1 2.</_></rects>
      <tilted>0</tilted></_>
    <_>
      <rects>
        <_>
          9 18 1 2 -1.</_>
        <_>
          9 19 1 1 2.</_></rects>
      <tilted>0</tilted></_>
    <_>
      <rects>
        <_>
          10 0 6 10 -1.</_>
        <_>
          10 0 3 5 2.</_>
        <_>
          13 5 3 5 2.</_></rects>
      <tilted>0</tilted></_>
    <_>
      <rects>
        <_>
          10 1 1 3 -1.</_>
        <_>
          10 2 1 1 3.</_></rects>
      <tilted>0</tilted></_>
    <_>
      <rects>
        <_>
          10 1 1 15 -1.</_>
        <_>
          10 6 1 5 3.</_></rects>
      <tilted>0</tilted></_>
    <_>
      <rects>
        <_>
          10 1 2 3 -1.</_>
        <_>
          10 2 2 1 3.</_></rects>
      <tilted>0</tilted></_>
    <_>
      <rects>
        <_>
          10 7 9 5 -1.</_>
        <_>
          13 7 3 5 3.</_></rects>
      <tilted>0</tilted></_>
    <_>
      <rects>
        <_>
          10 8 2 6 -1.</_>
        <_>
          10 11 2 3 2.</_></rects>
      <tilted>0</tilted></_>
    <_>
      <rects>
        <_>
          10 9 1 4 -1.</_>
        <_>
          10 11 1 2 2.</_></rects>
      <tilted>0</tilted></_>
    <_>
      <rects>
        <_>
          10 12 6 1 -1.</_>
        <_>
          12 12 2 1 3.</_></rects>
      <tilted>0</tilted></_>
    <_>
      <rects>
        <_>
          10 13 1 4 -1.</_>
        <_>
          10 15 1 2 2.</_></rects>
      <tilted>0</tilted></_>
    <_>
      <rects>
        <_>
          10 13 2 3 -1.</_>
        <_>
          11 13 1 3 2.</_></rects>
      <tilted>0</tilted></_>
    <_>
      <rects>
        <_>
          10 13 3 4 -1.</_>
        <_>
          11 13 1 4 3.</_></rects>
      <tilted>0</tilted></_>
    <_>
      <rects>
        <_>
          10 13 6 2 -1.</_>
        <_>
          12 13 2 2 3.</_></rects>
      <tilted>0</tilted></_>
    <_>
      <rects>
        <_>
          10 14 2 1 -1.</_>
        <_>
          11 14 1 1 2.</_></rects>
      <tilted>0</tilted></_>
    <_>
      <rects>
        <_>
          10 14 2 3 -1.</_>
        <_>
          10 15 2 1 3.</_></rects>
      <tilted>0</tilted></_>
    <_>
      <rects>
        <_>
          10 15 1 2 -1.</_>
        <_>
          10 16 1 1 2.</_></rects>
      <tilted>0</tilted></_>
    <_>
      <rects>
        <_>
          10 15 1 3 -1.</_>
        <_>
          10 16 1 1 3.</_></rects>
      <tilted>0</tilted></_>
    <_>
      <rects>
        <_>
          10 15 3 2 -1.</_>
        <_>
          11 15 1 2 3.</_></rects>
      <tilted>0</tilted></_>
    <_>
      <rects>
        <_>
          10 15 6 1 -1.</_>
        <_>
          12 15 2 1 3.</_></rects>
      <tilted>0</tilted></_>
    <_>
      <rects>
        <_>
          10 15 2 3 -1.</_>
        <_>
          10 16 2 1 3.</_></rects>
      <tilted>0</tilted></_>
    <_>
      <rects>
        <_>
          10 16 1 3 -1.</_>
        <_>
          10 17 1 1 3.</_></rects>
      <tilted>0</tilted></_>
    <_>
      <rects>
        <_>
          10 17 1 2 -1.</_>
        <_>
          10 18 1 1 2.</_></rects>
      <tilted>0</tilted></_>
    <_>
      <rects>
        <_>
          11 8 1 6 -1.</_>
        <_>
          11 10 1 2 3.</_></rects>
      <tilted>0</tilted></_>
    <_>
      <rects>
        <_>
          11 9 2 4 -1.</_>
        <_>
          11 9 1 2 2.</_>
        <_>
          12 11 1 2 2.</_></rects>
      <tilted>0</tilted></_>
    <_>
      <rects>
        <_>
          11 10 6 3 -1.</_>
        <_>
          13 10 2 3 3.</_></rects>
      <tilted>0</tilted></_>
    <_>
      <rects>
        <_>
          11 13 3 2 -1.</_>
        <_>
          11 14 3 1 2.</_></rects>
      <tilted>0</tilted></_>
    <_>
      <rects>
        <_>
          11 14 1 3 -1.</_>
        <_>
          11 15 1 1 3.</_></rects>
      <tilted>0</tilted></_>
    <_>
      <rects>
        <_>
          11 14 2 2 -1.</_>
        <_>
          11 15 2 1 2.</_></rects>
      <tilted>0</tilted></_>
    <_>
      <rects>
        <_>
          11 17 1 2 -1.</_>
        <_>
          11 18 1 1 2.</_></rects>
      <tilted>0</tilted></_>
    <_>
      <rects>
        <_>
          12 4 4 4 -1.</_>
        <_>
          14 4 2 4 2.</_></rects>
      <tilted>0</tilted></_>
    <_>
      <rects>
        <_>
          12 5 3 3 -1.</_>
        <_>
          13 5 1 3 3.</_></rects>
      <tilted>0</tilted></_>
    <_>
      <rects>
        <_>
          12 6 2 6 -1.</_>
        <_>
          12 6 1 3 2.</_>
        <_>
          13 9 1 3 2.</_></rects>
      <tilted>0</tilted></_>
    <_>
      <rects>
        <_>
          12 7 6 5 -1.</_>
        <_>
          14 7 2 5 3.</_></rects>
      <tilted>0</tilted></_>
    <_>
      <rects>
        <_>
          12 9 2 1 -1.</_>
        <_>
          13 9 1 1 2.</_></rects>
      <tilted>0</tilted></_>
    <_>
      <rects>
        <_>
          12 9 2 2 -1.</_>
        <_>
          12 9 1 1 2.</_>
        <_>
          13 10 1 1 2.</_></rects>
      <tilted>0</tilted></_>
    <_>
      <rects>
        <_>
          12 14 1 6 -1.</_>
        <_>
          12 16 1 2 3.</_></rects>
      <tilted>0</tilted></_>
    <_>
      <rects>
        <_>
          12 16 2 4 -1.</_>
        <_>
          12 18 2 2 2.</_></rects>
      <tilted>0</tilted></_>
    <_>
      <rects>
        <_>
          13 7 3 1 -1.</_>
        <_>
          14 7 1 1 3.</_></rects>
      <tilted>0</tilted></_>
    <_>
      <rects>
        <_>
          13 7 2 3 -1.</_>
        <_>
          13 8 2 1 3.</_></rects>
      <tilted>0</tilted></_>
    <_>
      <rects>
        <_>
          13 7 3 3 -1.</_>
        <_>
          13 8 3 1 3.</_></rects>
      <tilted>0</tilted></_>
    <_>
      <rects>
        <_>
          13 7 3 6 -1.</_>
        <_>
          13 9 3 2 3.</_></rects>
      <tilted>0</tilted></_>
    <_>
      <rects>
        <_>
          13 8 2 10 -1.</_>
        <_>
          13 8 1 5 2.</_>
        <_>
          14 13 1 5 2.</_></rects>
      <tilted>0</tilted></_>
    <_>
      <rects>
        <_>
          13 8 3 3 -1.</_>
        <_>
          13 9 3 1 3.</_></rects>
      <tilted>0</tilted></_>
    <_>
      <rects>
        <_>
          13 12 2 3 -1.</_>
        <_>
          13 13 2 1 3.</_></rects>
      <tilted>0</tilted></_>
    <_>
      <rects>
        <_>
          14 5 2 9 -1.</_>
        <_>
          14 8 2 3 3.</_></rects>
      <tilted>0</tilted></_>
    <_>
      <rects>
        <_>
          14 6 2 3 -1.</_>
        <_>
          14 7 2 1 3.</_></rects>
      <tilted>0</tilted></_>
    <_>
      <rects>
        <_>
          14 7 2 3 -1.</_>
        <_>
          14 8 2 1 3.</_></rects>
      <tilted>0</tilted></_>
    <_>
      <rects>
        <_>
          14 7 6 7 -1.</_>
        <_>
          17 7 3 7 2.</_></rects>
      <tilted>0</tilted></_>
    <_>
      <rects>
        <_>
          14 8 1 3 -1.</_>
        <_>
          14 9 1 1 3.</_></rects>
      <tilted>0</tilted></_>
    <_>
      <rects>
        <_>
          14 8 2 6 -1.</_>
        <_>
          14 10 2 2 3.</_></rects>
      <tilted>0</tilted></_>
    <_>
      <rects>
        <_>
          14 9 3 1 -1.</_>
        <_>
          15 9 1 1 3.</_></rects>
      <tilted>0</tilted></_>
    <_>
      <rects>
        <_>
          14 9 1 3 -1.</_>
        <_>
          14 10 1 1 3.</_></rects>
      <tilted>0</tilted></_>
    <_>
      <rects>
        <_>
          14 9 2 2 -1.</_>
        <_>
          15 9 1 2 2.</_></rects>
      <tilted>0</tilted></_>
    <_>
      <rects>
        <_>
          14 9 3 3 -1.</_>
        <_>
          15 9 1 3 3.</_></rects>
      <tilted>0</tilted></_>
    <_>
      <rects>
        <_>
          14 9 2 3 -1.</_>
        <_>
          14 10 2 1 3.</_></rects>
      <tilted>0</tilted></_>
    <_>
      <rects>
        <_>
          14 10 2 1 -1.</_>
        <_>
          15 10 1 1 2.</_></rects>
      <tilted>0</tilted></_>
    <_>
      <rects>
        <_>
          14 10 1 3 -1.</_>
        <_>
          14 11 1 1 3.</_></rects>
      <tilted>0</tilted></_>
    <_>
      <rects>
        <_>
          14 10 2 2 -1.</_>
        <_>
          15 10 1 2 2.</_></rects>
      <tilted>0</tilted></_>
    <_>
      <rects>
        <_>
          14 11 2 1 -1.</_>
        <_>
          15 11 1 1 2.</_></rects>
      <tilted>0</tilted></_>
    <_>
      <rects>
        <_>
          14 11 1 3 -1.</_>
        <_>
          14 12 1 1 3.</_></rects>
      <tilted>0</tilted></_>
    <_>
      <rects>
        <_>
          15 7 2 1 -1.</_>
        <_>
          16 7 1 1 2.</_></rects>
      <tilted>0</tilted></_>
    <_>
      <rects>
        <_>
          15 7 1 2 -1.</_>
        <_>
          15 8 1 1 2.</_></rects>
      <tilted>0</tilted></_>
    <_>
      <rects>
        <_>
          15 7 2 3 -1.</_>
        <_>
          16 7 1 3 2.</_></rects>
      <tilted>0</tilted></_>
    <_>
      <rects>
        <_>
          15 8 2 1 -1.</_>
        <_>
          16 8 1 1 2.</_></rects>
      <tilted>0</tilted></_>
    <_>
      <rects>
        <_>
          15 8 4 3 -1.</_>
        <_>
          17 8 2 3 2.</_></rects>
      <tilted>0</tilted></_>
    <_>
      <rects>
        <_>
          15 11 3 3 -1.</_>
        <_>
          16 11 1 3 3.</_></rects>
      <tilted>0</tilted></_>
    <_>
      <rects>
        <_>
          15 12 2 4 -1.</_>
        <_>
          16 12 1 4 2.</_></rects>
      <tilted>0</tilted></_></features></cascade>
</opencv_storage>
