<?xml version="1.0"?>
<opencv_storage>
<stage2>
  <maxWeakCount>10</maxWeakCount>
  <stageThreshold>-7.0630866289138794e-01</stageThreshold>
  <weakClassifiers>
    <_>
      <internalNodes>
        0 -1 65454 5.8471341617405415e-04</internalNodes>
      <leafValues>
        4.9667701125144958e-01 -9.2491465806961060e-01</leafValues></_>
    <_>
      <internalNodes>
        0 -1 54544 -3.4076133742928505e-03</internalNodes>
      <leafValues>
        5.7103252410888672e-01 -3.5788080096244812e-01</leafValues></_>
    <_>
      <internalNodes>
        0 -1 61937 -9.0719619765877724e-04</internalNodes>
      <leafValues>
        -8.4924918413162231e-01 2.2515593469142914e-01</leafValues></_>
    <_>
      <internalNodes>
        0 -1 45458 -1.2446668930351734e-02</internalNodes>
      <leafValues>
        6.4303320646286011e-01 -2.9191023111343384e-01</leafValues></_>
    <_>
      <internalNodes>
        0 -1 58363 2.9347481904551387e-04</internalNodes>
      <leafValues>
        -4.9664485454559326e-01 3.6721312999725342e-01</leafValues></_>
    <_>
      <internalNodes>
        0 -1 61937 6.8743992596864700e-04</internalNodes>
      <leafValues>
        2.1763731539249420e-01 -8.7259531021118164e-01</leafValues></_>
    <_>
      <internalNodes>
        0 -1 32331 -7.7113934094086289e-04</internalNodes>
      <leafValues>
        3.2229116559028625e-01 -4.6516478061676025e-01</leafValues></_>
    <_>
      <internalNodes>
        0 -1 49369 -3.2068375730887055e-04</internalNodes>
      <leafValues>
        -6.9657033681869507e-01 1.6982641816139221e-01</leafValues></_>
    <_>
      <internalNodes>
        0 -1 34346 3.8687534630298615e-02</internalNodes>
      <leafValues>
        -2.3858197033405304e-01 6.3435065746307373e-01</leafValues></_>
    <_>
      <internalNodes>
        0 -1 29692 -1.3242968916893005e-01</internalNodes>
      <leafValues>
        -7.3231220245361328e-01 2.4512442946434021e-01</leafValues></_></weakClassifiers></stage2>
</opencv_storage>
