<?xml version="1.0"?>
<opencv_storage>
<stage5>
  <maxWeakCount>14</maxWeakCount>
  <stageThreshold>-4.9596568942070007e-01</stageThreshold>
  <weakClassifiers>
    <_>
      <internalNodes>
        0 -1 42908 -5.4449276067316532e-03</internalNodes>
      <leafValues>
        -8.6440676450729370e-01 4.2267173528671265e-01</leafValues></_>
    <_>
      <internalNodes>
        0 -1 72829 -5.2603357471525669e-03</internalNodes>
      <leafValues>
        4.0568584203720093e-01 -2.7788919210433960e-01</leafValues></_>
    <_>
      <internalNodes>
        0 -1 32341 -2.8856825083494186e-03</internalNodes>
      <leafValues>
        3.3344382047653198e-01 -3.2751947641372681e-01</leafValues></_>
    <_>
      <internalNodes>
        0 -1 58230 5.3048797417432070e-04</internalNodes>
      <leafValues>
        1.1732134222984314e-01 -8.5828542709350586e-01</leafValues></_>
    <_>
      <internalNodes>
        0 -1 58988 2.6208184659481049e-02</internalNodes>
      <leafValues>
        -1.9391328096389771e-01 6.1817532777786255e-01</leafValues></_>
    <_>
      <internalNodes>
        0 -1 58523 -2.4807048030197620e-03</internalNodes>
      <leafValues>
        4.2198514938354492e-01 -3.0189487338066101e-01</leafValues></_>
    <_>
      <internalNodes>
        0 -1 54049 9.9350372329354286e-04</internalNodes>
      <leafValues>
        1.2650361657142639e-01 -8.0829513072967529e-01</leafValues></_>
    <_>
      <internalNodes>
        0 -1 70375 3.0091840308159590e-03</internalNodes>
      <leafValues>
        8.9703232049942017e-02 -8.5495567321777344e-01</leafValues></_>
    <_>
      <internalNodes>
        0 -1 48231 -2.5829193182289600e-03</internalNodes>
      <leafValues>
        4.9014922976493835e-01 -2.1747046709060669e-01</leafValues></_>
    <_>
      <internalNodes>
        0 -1 68601 5.6185005232691765e-03</internalNodes>
      <leafValues>
        -2.3718504607677460e-01 5.6494456529617310e-01</leafValues></_>
    <_>
      <internalNodes>
        0 -1 62168 -2.1495786495506763e-04</internalNodes>
      <leafValues>
        -6.8130815029144287e-01 1.6663545370101929e-01</leafValues></_>
    <_>
      <internalNodes>
        0 -1 29396 1.0765587911009789e-02</internalNodes>
      <leafValues>
        -2.4089346826076508e-01 5.0445282459259033e-01</leafValues></_>
    <_>
      <internalNodes>
        0 -1 53243 -2.1710167638957500e-03</internalNodes>
      <leafValues>
        5.0794047117233276e-01 -2.5082755088806152e-01</leafValues></_>
    <_>
      <internalNodes>
        0 -1 43841 -1.7683083424344659e-03</internalNodes>
      <leafValues>
        -8.9594328403472900e-01 1.5371991693973541e-01</leafValues></_></weakClassifiers></stage5>
</opencv_storage>
