<?xml version="1.0"?>
<opencv_storage>
<stage3>
  <maxWeakCount>13</maxWeakCount>
  <stageThreshold>-7.6324135065078735e-01</stageThreshold>
  <weakClassifiers>
    <_>
      <internalNodes>
        0 -1 72829 -1.8898900598287582e-03</internalNodes>
      <leafValues>
        6.0829776525497437e-01 -1.6136114299297333e-01</leafValues></_>
    <_>
      <internalNodes>
        0 -1 62183 -1.9140791846439242e-04</internalNodes>
      <leafValues>
        -6.3468867540359497e-01 2.8716811537742615e-01</leafValues></_>
    <_>
      <internalNodes>
        0 -1 49946 4.3905740603804588e-03</internalNodes>
      <leafValues>
        -3.2405424118041992e-01 5.5609500408172607e-01</leafValues></_>
    <_>
      <internalNodes>
        0 -1 49680 3.8809305988252163e-04</internalNodes>
      <leafValues>
        -4.2362073063850403e-01 3.2086780667304993e-01</leafValues></_>
    <_>
      <internalNodes>
        0 -1 56754 -1.7561588436365128e-02</internalNodes>
      <leafValues>
        5.5519139766693115e-01 -2.9887744784355164e-01</leafValues></_>
    <_>
      <internalNodes>
        0 -1 53104 8.2334473729133606e-02</internalNodes>
      <leafValues>
        -1.8018352985382080e-01 7.0909041166305542e-01</leafValues></_>
    <_>
      <internalNodes>
        0 -1 49472 1.2652047444134951e-03</internalNodes>
      <leafValues>
        2.4771112203598022e-01 -6.1090922355651855e-01</leafValues></_>
    <_>
      <internalNodes>
        0 -1 26148 -2.4214866571128368e-03</internalNodes>
      <leafValues>
        4.2492020130157471e-01 -3.1975972652435303e-01</leafValues></_>
    <_>
      <internalNodes>
        0 -1 74483 -3.7868816871196032e-03</internalNodes>
      <leafValues>
        6.1111623048782349e-01 -2.3003159463405609e-01</leafValues></_>
    <_>
      <internalNodes>
        0 -1 54868 -2.2700410336256027e-03</internalNodes>
      <leafValues>
        3.3635652065277100e-01 -3.5202592611312866e-01</leafValues></_>
    <_>
      <internalNodes>
        0 -1 62166 3.0080106807872653e-04</internalNodes>
      <leafValues>
        1.3129855692386627e-01 -9.2555761337280273e-01</leafValues></_>
    <_>
      <internalNodes>
        0 -1 54867 9.0343747287988663e-03</internalNodes>
      <leafValues>
        -1.8174357712268829e-01 7.2534459829330444e-01</leafValues></_>
    <_>
      <internalNodes>
        0 -1 67512 -1.6226394101977348e-02</internalNodes>
      <leafValues>
        4.5486998558044434e-01 -3.2303562760353088e-01</leafValues></_></weakClassifiers></stage3>
</opencv_storage>
